1219 128
348 0.14044872 0.013527793 0.11422056 -0.22481403 0.3753195 -0.061702702 0.11418248 -0.062312573 0.034197528 0.10571488 0.08219683 -0.119970635 -0.15287876 -0.31359333 0.045989387 0.21380194 0.06246004 0.06384909 -0.034698624 -0.07951463 0.12912028 -0.102654904 0.033020806 -0.11158052 0.13112073 0.042873394 -0.020811806 0.028960433 -0.0048445896 -0.07299274 -0.14122252 0.10592851 -0.058735635 -0.05312171 0.046816245 0.040946245 0.21390687 -0.029444445 -0.076242365 0.123396374 0.036564916 0.14282793 -0.09724666 0.09782873 -0.09913403 0.1336171 0.17162296 0.07750652 0.07650733 0.107673086 -0.07553442 0.06644436 -0.015366684 0.0969033 -0.048072122 -0.029288735 0.21692286 0.08217737 -0.28038424 0.06976898 -0.12035312 0.03127992 0.15732302 -0.20934781 0.10092563 -0.10826911 0.18094961 0.015543004 -0.06845481 0.020670818 -0.104943894 0.068823725 -0.21355763 -0.20079975 -0.06953465 -0.021803325 0.049226332 -0.0810691 -0.09462804 -0.25227553 -0.24854921 0.21673748 0.031913877 0.04871658 -0.026367845 0.2001259 0.1451809 -0.088893466 -0.06590124 -0.08062641 0.020003643 -0.17404439 -0.08547204 -0.084762804 0.058034047 -0.05495365 -0.006461708 -0.14282213 0.17182647 -0.12389614 -0.21326448 0.033808425 0.06273956 -0.039125536 -0.020677274 0.030899722 -0.28629908 0.08553262 -0.08235595 0.08791782 0.13695927 -0.0454651 -0.14772975 0.21886796 0.038609143 -0.057153083 -0.07341074 0.053675905 0.21455327 -0.009784705 -0.050586507 -0.12445505 0.14791185 0.10998533 -0.12853928 0.03485547 0.074335836 -0.076334864
899 0.07879419 0.061595503 0.17429523 0.06633364 0.34815195 -0.25655183 -0.15507604 -0.082258135 -0.011142288 0.0899868 0.035468277 -0.08849886 -0.05472163 -0.25274506 -0.017096104 0.047970384 -0.24199921 0.110465385 -0.15178235 0.051898792 0.0729121 -0.09550304 -0.1850329 -0.14498758 0.13646139 0.24470365 -0.17503071 0.12114491 -0.05064407 -0.058785662 -0.12453001 -0.014192658 -0.097400874 0.07549545 0.028447244 -0.028393688 0.10450706 -0.12254719 0.0037028252 0.22448659 0.095050804 -0.057459123 -0.08524031 0.14641078 0.08764076 0.020464286 -0.09467815 -0.1757123 -0.106178574 -0.047118068 0.04469005 -0.08651085 -0.08892977 0.0992977 -0.14727321 0.042627342 0.14609855 2.4664081e-05 -0.20956108 -0.09974896 -0.037086096 -0.02077407 -0.053910166 -0.015451638 0.16310406 0.043342322 0.011393604 0.071921974 0.14169508 -0.21063691 0.047043186 -0.010893519 -0.15925676 -0.15246841 -0.015350112 -0.06961083 0.18764591 -0.10471338 -0.10190251 -0.1343247 -0.14628509 -0.14578158 0.14066102 0.25905943 0.08665589 0.07140217 -0.048348315 -0.02599715 -0.15917633 -0.03543499 -0.11563307 -0.14104487 -0.14437245 0.04612634 0.010625539 0.031369396 -0.14779817 -0.33818468 0.13059524 0.0043697353 -0.014297575 -0.12444148 -0.10820707 0.01432327 -0.017881835 -0.07728804 -0.035526447 0.09799831 0.011358765 0.07590805 -0.15361004 0.057297952 -0.047011733 0.09622615 0.07405784 -0.06357325 0.048365124 0.12872432 0.16275422 0.03439348 -0.07654604 -0.11333994 -0.11531657 0.0062690102 -0.26225415 -0.029069146 -0.10812293 -0.081717424
783 -0.021183653 -0.21546708 0.26699382 -0.0064858613 0.085584484 -0.024766667 0.15666859 -0.15460756 -0.12805259 -0.068745576 0.14193946 -0.015397044 -0.25984478 -0.17347786 0.1276105 0.17126259 -0.21881281 -0.04212207 0.020411868 0.084205545 0.26580742 -0.039759148 -0.18129212 -0.32300204 0.13878606 0.1021572 -0.31173027 0.04500939 0.20140812 -0.08339313 -0.12114444 -0.024679568 -0.0049997135 0.010471017 0.07755693 -0.09028798 -0.04149848 -0.20532149 0.04023799 0.20303348 -0.017152958 0.00044476474 -0.020613298 -0.0107166385 -0.0738092 -0.034625795 -0.05181827 0.077185504 -0.08217198 -0.03713662 0.09491501 -0.15006903 0.06451387 0.08747509 -0.12288527 -0.1856395 0.15432137 0.0947786 0.016395217 -0.09528907 -0.14084002 -0.139484 -0.24596955 0.15198389 0.04351593 -0.19627291 0.23524547 0.13132739 -0.0454698 0.0017161788 0.06283802 0.043408785 -0.035171755 -0.07071834 0.03841761 0.15841061 0.0024806762 -0.0834835 -0.02977605 0.029370843 -0.1973434 -0.11160109 -0.08116744 0.19278997 -0.0801593 0.1896043 0.111214854 0.00032781027 -0.10781888 0.18571614 0.064389005 -0.030254623 -0.15577886 0.0056553893 -0.060113367 -0.058448426 -0.09541095 -0.18850003 -0.13520361 0.08915184 -0.24120608 -0.13936594 -0.12489441 0.14000234 0.071979344 -0.0029460737 -0.06578249 0.18563272 0.119996086 0.10861561 0.188972 -0.17473494 0.04163173 0.15215543 -0.0005068762 -0.07806823 0.023102645 -0.05367828 0.08274345 0.2016941 0.061325375 -0.14061442 0.060804516 -0.14471984 -0.054972336 0.00980016 0.1330486 -0.110324174
918 -0.056815177 0.07647703 0.22030604 -0.07188978 0.09584486 -0.020325353 0.10105499 0.09948321 -0.07263241 0.014250717 0.15022843 -0.008487912 -0.059145153 -0.15571256 0.034673788 0.25757128 -0.18396874 -0.12545282 -0.13864109 0.009465073 0.15021342 -0.08912361 -0.2641281 -0.19460544 0.032698955 0.13260251 0.04615376 -0.026570095 -0.2024199 0.20612189 0.12546396 -0.068289675 0.0067610866 -0.003424561 0.09571077 -0.0029131053 0.10493394 -0.07101187 0.12571645 0.17960954 0.1342263 0.08225824 0.051992837 -0.010065942 -0.04622046 -0.029882824 -0.05889701 -0.18606272 -0.08227865 -0.055822384 -0.039298672 -0.26757526 -0.07297669 0.16168527 -0.14579149 -0.006561804 0.060257174 0.028707715 -0.095385514 0.0600021 -0.075070165 0.05413562 0.057492904 0.007958724 0.06643393 -0.0581086 0.24877664 0.031151453 0.021388777 -0.09618373 -0.14547622 -0.07942823 -0.049134064 -0.1878682 -0.05053551 0.007599479 0.17361881 -0.145211 0.09174983 -0.13547334 -0.28088036 0.051951345 0.051742632 0.27279747 0.004951092 0.074167944 -0.080153406 -0.057434484 -0.013166859 -0.008951536 0.031565115 -0.06867247 -0.086155266 0.041532572 0.14971747 0.0319793 -0.07413453 -0.30249295 0.02609665 -0.18773268 -0.2981433 0.08202626 -0.056686062 -0.042691402 0.12963712 0.06065704 -0.18278989 0.06920687 -0.029587593 -0.019259742 -0.08777917 0.0038078667 -0.10038604 0.07678502 -0.18390499 0.18831216 0.035805035 -0.01655863 0.15818311 -0.10563941 -0.17878968 0.0035177215 -0.027208252 -0.03464243 -0.19712286 0.009034039 0.016374113 -0.002912229
391 0.030723637 -0.19255786 0.21949853 -0.13233666 0.09453972 -0.03420006 0.055773165 0.03721389 0.10547197 0.13849685 0.035122845 -0.02089882 -0.13119464 -0.21192569 0.12029555 0.23848376 -0.04705561 0.14821121 0.013446753 0.021445591 0.029460467 0.022673754 -0.3042187 -0.0021037133 0.08947228 0.19641028 -0.022687178 0.052752845 -0.014687161 0.00809639 -0.111146964 -0.06634706 -0.082480885 0.19414872 0.07468719 -0.010616313 0.062626235 0.091727726 -0.02525198 0.2803808 0.08362708 0.044928998 -0.07762471 0.07567903 0.06949985 -0.2155029 -0.011546082 -0.10089572 0.17251277 -0.018610291 0.013420969 -0.02485656 -0.14945145 0.033364348 -0.125475 -0.057831682 0.34357384 -0.062188286 -0.18522692 0.16041164 0.0625878 -0.0033361383 0.11846501 -0.04836599 -0.13964175 -0.08203395 0.12448681 -0.11147685 -0.1784915 -0.23183526 0.067082584 -0.108470365 0.054191828 -0.15651108 0.04393159 0.14525267 -0.02433667 -0.17506276 0.051885292 0.122555435 -0.33153132 0.027227437 0.15192795 0.16974075 -0.025035257 -0.07953156 0.33029783 -0.08283509 0.03002812 0.03978533 0.022683196 -0.04176579 -0.013439388 -0.038851697 0.021770999 0.02265591 -0.28631547 -0.17763008 0.050327897 -0.05053673 -0.1502752 0.15733653 -0.1549441 -0.1858293 0.19774555 0.11610796 0.0013997132 -0.046525378 0.054943744 0.13783169 0.16971165 -0.03821602 -0.034908548 0.27205777 -0.024458416 0.0031814296 -0.04720794 0.054405395 0.20020933 0.01982434 -0.10469182 -0.12477269 -0.044278238 0.10722648 -0.20105512 -0.15130883 -0.048443105 -0.12957072
632 0.047734138 -0.060894273 0.16203031 -0.07456582 0.24954462 -0.043329973 0.11478831 -0.020812903 -0.142283 -0.08146463 0.20888494 -0.2046049 -0.05191364 -0.20753542 0.054754913 0.23025292 -0.28004092 -0.040140122 -0.33770028 0.23233041 0.1380306 -0.049267102 -0.16034083 -0.17502299 0.042809226 0.08548151 -0.012501254 0.17545962 0.07037453 0.110857725 -0.24965964 0.100954495 0.10616538 0.061706185 -0.057694606 0.16559806 0.050755948 0.13812645 0.11660726 0.30416918 -0.011264015 0.0037632862 -0.014302301 -0.058472805 -0.022765616 0.00015615615 -0.08030098 -0.028871814 -0.21067402 -0.041439235 -0.052267697 -0.14927982 0.057861578 0.077333964 0.0054183933 -0.20202866 0.12872496 -0.08265663 -0.21390584 0.054024607 0.011581927 0.08215565 0.03330776 -0.16240758 -0.06552631 -0.251062 0.12350644 0.10343832 0.018233327 -0.0675811 -0.018084168 0.105623364 0.0047950963 -0.3146721 0.08931481 -0.11594362 0.08918646 -0.08417106 -0.07647569 -0.004712407 -0.15327357 -0.16150774 0.06843923 -0.044859644 -0.14291218 -0.00935973 0.10877476 -0.014830021 0.17534068 0.26370028 0.09450394 0.05792617 -0.17099816 0.054272823 0.034407172 -0.18262774 -0.1099138 0.04327928 0.16052891 -0.08393312 -0.052813098 0.26858708 0.008977184 -0.18768446 -0.11354056 9.84982e-05 -0.109007195 -0.0075050616 0.10503713 0.07148107 0.10014773 -0.10046447 -0.08905002 0.06132334 -0.039366808 0.055803426 0.007459901 0.03198697 0.05700723 0.10261793 -0.13640001 -0.1054399 -0.08270004 -0.015107576 -0.2310607 0.028725227 -0.1330456 0.07807326
798 0.0895054 -0.19481747 0.060380895 0.16677766 0.24146739 0.06832399 -0.07673963 0.10973047 0.050799556 0.0053360574 -0.024022194 -0.12565345 0.055482678 -0.18109003 0.19946365 0.13287605 0.03145879 -0.08945129 0.025779383 -0.041077644 0.026890527 0.15235049 -0.008621192 -0.17452988 -0.21097544 0.06220503 -0.14283946 0.09722128 0.008887013 -0.02411116 -0.110603675 -0.03193683 -0.037687525 0.0057717315 -0.12053033 0.21870251 0.2067188 -0.12503551 0.2220949 -0.035029724 -0.0360686 0.14255735 -0.0646689 -0.13708366 0.25968498 -0.094434604 -4.849488e-05 -0.14519987 -0.06674581 -0.017143557 -0.08937907 -0.13381901 -0.029471414 0.24151987 -0.08332225 -0.33993956 0.18844141 0.03027385 -0.15098971 0.22018695 -0.11296713 0.055037186 0.07207674 0.076021716 0.07501811 -0.05825437 -0.013192098 -0.06062593 -0.091098495 -0.03869587 -0.016317403 0.046205983 -0.17095597 -0.053303253 0.011432783 -0.1668467 0.058162015 0.0548116 -0.024404032 0.076716095 -0.22173782 0.022701584 -0.01209464 0.24182773 0.026501099 -0.0292361 0.020273862 0.0070658433 0.014907854 0.007302677 -0.24687417 -0.16040003 0.043937393 -0.22016916 0.14385952 -0.13210267 0.081325054 -0.2509978 -0.29300484 0.087471195 -0.12459833 0.09377788 -0.10040426 0.006324516 0.03009848 0.019871894 -0.003805917 0.14411038 0.032176886 -0.10767811 -0.025423208 -0.16524766 -0.026832705 -0.06648908 -0.17255545 -0.2298534 -0.13716413 0.07517147 -0.041770298 -0.040272556 -0.046921074 0.059855156 -0.17040582 0.08034101 -0.22324727 -0.017779576 -0.15098858 0.075559914
55 0.011893744 -0.13324729 0.12673849 0.24202587 -0.12162809 -0.08622513 0.04468442 0.21003005 0.014650804 0.14307402 0.06574539 -0.005066995 -0.17101577 -0.063255645 0.28735077 0.08721531 -0.04168131 0.042641412 -0.2239239 0.29336762 0.1378684 -0.055745713 -0.045565877 -0.112590306 -0.10718917 0.25491947 -0.11139068 0.047888003 -0.070914686 -0.08252957 -0.084705904 -0.13599515 0.096405566 -0.18588342 -0.07645296 0.24491575 0.14082772 0.12568153 -0.13106994 0.18173932 -0.031965658 0.15410884 -0.20409669 0.021104341 0.22643384 -0.043233026 -0.11173288 0.020351348 -0.13044438 -0.037463523 -0.14805703 0.08486241 -0.15645212 -0.05957289 -0.17208165 -0.088138916 0.050378505 0.03114382 -0.24661343 0.063221686 -0.095513165 0.12940605 -0.060766995 -0.16449551 -0.022787265 -0.031721078 -0.1333147 0.07559209 -0.04433313 -0.06742526 -0.093730554 -0.0028769255 -0.2129322 -0.195161 0.164203 0.010537743 0.029846597 -0.06363917 0.02129291 -0.0065698186 -0.18394707 -0.11500555 -0.033443887 0.2695768 0.096550636 0.070946254 -0.093991265 -0.24372709 0.10875239 -0.10758296 -0.061603665 0.053398587 0.054878294 0.19640106 -0.21240813 0.099750504 -0.13843295 -0.29112053 -0.10140856 -0.2005427 -0.11406981 0.0023514843 -0.039325994 -0.04003462 0.030797465 0.16973995 -0.110139966 0.107127145 0.035410285 0.07468366 -0.07558243 -0.124518126 -0.002000216 0.06276658 0.03558324 -0.07658189 0.09367652 0.00015038151 0.06924071 -0.1603359 -0.06003735 -0.06489666 0.035002246 -0.15516709 -0.09806882 -0.15100606 -0.10185737 -0.041271914
847 -0.14281604 0.04755749 0.018727174 -0.0035416118 0.1050477 0.03187856 -0.015908897 0.09077951 0.077755876 0.16182743 0.0073947753 0.014682221 0.004146042 -0.25203726 -0.016395159 0.20539759 -0.06501679 -0.16765437 -0.012269521 0.2371678 -0.046563298 0.012297456 -0.2088129 -0.073494054 -0.2776579 0.09601413 -0.11672822 0.01892152 0.1378241 0.002678344 -0.09345353 -0.04401816 0.04218438 0.13310152 -0.14796638 0.18157001 -0.03379376 -0.049710248 -0.019030351 0.0005966222 -0.088543616 0.11971991 -0.20257212 -0.048300415 0.2956564 -0.13578561 -0.1703346 0.045969922 -0.29314572 0.18901865 -0.18737783 -0.07962679 -0.022228887 0.18362921 -0.013839118 -0.0029106648 0.07937896 0.10966079 -0.17478743 0.19548683 -0.124231 0.14987533 0.029465757 0.21292485 0.12984902 -0.033107974 0.17305346 0.052175447 -0.027395666 -0.18120398 -0.16979043 -0.09359605 -0.18173684 -0.08432716 0.035694677 -0.20224684 -0.031375065 -0.02630795 0.010019627 0.114973634 -0.20828508 -0.11305038 0.11936758 0.2873276 0.067672 0.029091436 0.13999029 -0.32015675 0.0027574992 -0.09085946 -0.11297715 -0.18404908 -0.09929259 0.12791575 -0.0014081977 -0.13162096 -0.1746339 -0.17941411 -0.08534165 -0.15167636 -0.10778031 -0.021733737 -0.089950904 0.19135313 0.13909017 0.19929998 -0.0642508 -0.05726938 0.24291311 0.031131722 0.07856245 -0.16673218 0.013906944 0.037173267 0.048436165 0.12066054 -0.12848702 -0.075269826 0.002973206 0.114846304 -0.061511777 0.071805716 0.035983615 0.100189514 -0.01141624 -0.072437346 -0.08452351 0.0029269313
568 -0.084689744 -0.2598299 0.016974915 0.049443822 0.025211014 -0.06871887 -0.11765998 0.15462874 -0.009259256 0.20594954 -0.07372897 -0.227301 -0.09657833 0.10349572 0.0873161 0.293776 -0.25362077 0.014725274 -0.154828 0.19922417 0.110894166 0.058677506 -0.20596714 -0.09364932 -0.16640203 0.16784747 -0.057007745 -0.09232709 0.056620806 0.066053055 0.06024069 -0.062235188 -0.065084465 0.017469682 -0.081169255 0.04019164 0.07081175 0.011752369 0.020151138 0.08397864 -0.06432178 -0.032239165 -0.08188563 -0.023721166 0.24502896 -0.02187006 -0.12982024 -0.00042564888 -0.07514052 0.19397615 -0.03932448 -0.0033499112 0.0524562 0.07476263 0.0085234465 -0.044782702 0.1720419 -0.14070284 -0.12242269 0.30041748 -0.07122601 0.24244836 0.06900901 -0.05413088 -0.05900818 -0.09028387 0.18227421 -0.09740579 -0.10978741 -0.111125275 -0.14895907 -0.1138557 -0.18055353 0.007232473 -0.11466454 -0.17238584 0.18621916 0.18121523 -0.068124115 0.08149743 -0.21724486 -0.17866468 0.034083493 0.097476974 -0.18045506 0.17405805 0.084898986 -0.10982616 -0.054648116 0.07008216 0.1514257 -0.17683637 -0.017468449 -0.15259302 0.10506773 -0.07265778 -0.09303895 -0.13261819 -0.011470605 -0.039174527 -0.06174926 0.060487695 0.104850285 -0.053587027 0.025303056 0.09458407 -0.11986677 0.045151252 -0.04476835 0.0136300055 -0.03489985 -0.11133501 0.21102229 -0.015997576 0.040111408 0.022013359 -0.09624169 -0.022338288 -0.07238995 -0.05487566 -0.08738273 -0.21048297 -0.01015095 0.12231486 -0.14308353 -0.0150894765 -0.077703245 0.07540701
54 -0.03775386 -0.020894665 0.099405564 -0.01082142 0.14015181 -0.06216404 0.033618197 0.12216503 -0.040687572 0.17737302 -0.032171212 -0.17175052 -0.026917404 -0.007562667 0.15502794 0.05775335 -0.19249545 -0.12747283 0.0051029753 0.1696417 0.11579649 0.043338895 -0.15211119 -0.0965312 -0.26174277 -0.016323943 -0.21497802 -0.0106554 -0.07702792 -0.031834327 -0.19443059 0.08960865 -0.013440098 -0.31646267 0.04901553 0.071817994 0.15397474 0.12502725 -0.022165887 0.14490485 -0.08783888 0.18180728 -0.021458713 -0.020828124 0.17194681 -0.10802479 -0.18680367 0.0063101025 0.004140541 -0.17350127 -0.082110696 -0.18240853 -0.117616735 0.1651996 -0.0377399 -0.12242642 0.04353429 -0.025750643 -0.28256533 0.02709126 -0.20957044 0.06515377 -0.0019374408 -0.10030746 -0.08812327 -0.046344914 0.08947373 -0.04209098 -0.016000392 0.13624844 -0.049613647 0.051832706 0.0460942 -0.20538932 -0.08989826 -0.14376348 0.010819883 0.19673775 0.020819806 0.10366561 -0.25607267 0.055267654 0.21564867 0.1763545 0.10709957 0.14354138 0.04318061 -0.18129417 0.04340931 -0.031007854 -0.16426279 -0.012073282 -0.14532903 0.13596372 0.06559764 0.2147113 0.15867874 -0.057802588 -0.12097946 -0.14354244 -0.11817301 0.038053196 -0.02466189 0.13158669 0.14535056 0.13550484 -0.171694 0.11336334 -0.0549784 -0.0054522427 0.16363391 -0.0613121 7.5140735e-05 0.1154057 -0.022219593 0.03283355 0.07710192 -0.09562912 -0.028260626 0.02636227 -0.2109122 -0.09610141 -0.16861083 -0.13131683 -0.062910594 0.15085095 0.01633777 -0.0970939
492 -0.11013741 -0.017261 0.042843606 -0.09336352 0.19719204 -0.018885775 -0.0392316 0.15955678 0.0015696196 0.18004043 -0.12588362 -0.10563469 -0.004589197 -0.08107126 -0.04481518 0.15898225 -0.24457866 0.20737816 0.06062663 0.21120922 0.036334794 0.07825158 0.006496786 0.045729995 -0.27964675 0.116739154 -0.075331844 0.23266709 0.0191417 -0.07340181 0.007888731 0.06382968 0.034650594 -0.0460074 -0.10786536 0.0604904 -0.009665627 0.057748906 0.009084179 0.116134405 -0.18239379 0.12745377 0.077610195 -0.069658615 0.28281257 0.039760683 -0.14028081 0.016372617 -0.13179897 -0.06017647 0.014319204 0.17762983 0.06946596 0.021067463 0.054599643 -0.055678148 0.24728355 0.20161073 0.044794627 0.21726282 -0.09802784 0.10940769 0.23549764 -0.068410985 0.08893701 -0.19579995 0.113183156 -0.08385819 -0.0046413583 -0.16412598 -0.11890756 0.16746227 -0.09934856 -0.1265817 0.12446164 -0.15121226 0.030970057 -0.16064014 -0.024522346 0.17980263 -0.18945526 -0.052810106 0.14160195 0.06869028 0.18097143 0.1234089 0.018408036 -0.2120188 0.05604279 0.07495794 0.0046764356 0.09899768 -0.01239167 0.024090486 0.12636386 0.17332803 0.23622511 -0.17187154 -0.06351503 -0.09972268 -0.0726124 0.020860177 -0.018820563 0.21609071 0.05368438 0.1789731 -0.06628878 0.21911019 -0.055831924 0.14971843 0.06399083 -0.1258863 -0.06481382 0.054505695 -0.23705858 0.16963199 -0.019134536 0.11049579 0.11950362 -0.057007093 -0.0057483334 -0.17906293 -0.0025742867 0.10701934 0.07878465 0.016719887 -0.062475964 0.017137812
852 -0.08105205 -0.17375761 -0.050689228 0.024244344 0.11393679 -0.10146765 -0.1280559 0.19774637 -0.093349986 0.20344521 -0.078314096 -0.102974445 -0.002713755 -0.00030991383 0.11514992 0.117206596 0.11721698 0.12495671 -0.20979428 0.18725684 0.06226178 0.11848611 -0.05335078 -0.04927951 -0.16366974 0.104333825 -0.26467314 0.00263116 -0.1452637 -0.008556842 -0.0029110769 0.0062832646 0.051996335 -0.09363272 -0.07385657 0.0751719 0.10251369 -0.09464272 0.108040065 0.035840385 -0.097344354 0.050308768 -0.15615192 0.09524342 0.20317909 -0.052988775 -0.016310656 -0.040591996 -0.16868266 0.11668374 -0.12866184 -0.090271115 -0.048528276 0.3829362 -0.0992553 -0.03941697 0.37013304 0.09170325 -0.08576198 0.0971185 -0.21043679 -0.069304734 0.023008356 0.07606478 -0.081344396 -0.17518401 -0.0009844799 0.1699316 -0.09783033 0.09249888 -0.06695534 0.09241182 -0.46442887 -0.13789438 -0.08226388 -0.13412799 0.115133084 0.042018156 -0.13228124 0.06688437 -0.10601888 -0.027794551 0.0133189475 0.11517891 0.10717108 -0.012649287 -0.10040437 -0.0061057443 0.056838047 0.078704104 -0.22689824 -0.16820712 -0.025850728 -0.0019411229 -0.040025923 0.0546439 0.13067499 -0.028220324 0.045346685 0.07911785 -0.09757691 0.17590235 -0.21182366 0.052982662 0.2301717 -0.02415246 -0.120838605 0.062230647 -0.053598743 0.10037512 -0.08159274 0.0066988156 -0.1331204 0.022332968 -0.15807308 0.1167245 0.012941342 0.018838665 0.08376816 -0.03812716 0.031891212 -0.27136424 -0.096574664 0.096237674 -0.034040228 -0.10044761 -0.21870483 0.14113471
873 -0.085614316 -0.12971191 0.07406546 0.09883252 -0.04462173 -0.010567071 -0.1362005 0.0997492 0.08414543 0.18788458 0.08997174 -0.1816618 -0.0283722 0.031123584 0.22640869 0.14865258 -0.16320337 -0.13193937 -0.03813605 0.13892525 0.080340736 0.046699345 -0.0867163 0.065457836 -0.06085577 0.0062932614 -0.08732377 0.07455192 -0.021510405 -0.035233553 -0.058505096 -0.024939455 0.15092205 0.0628907 0.09725694 0.095514245 0.10621403 0.099055976 -0.074656546 0.07602061 -0.049581222 -0.049755294 -0.1728548 -0.023435963 0.12739745 -0.1349103 -0.092445605 -0.15852578 -0.025605276 -0.10823893 0.11630121 0.01627518 0.19408154 0.058312964 0.01573368 -0.04584115 0.2568334 0.19982862 -0.15997793 0.046195973 -0.11799513 0.14293611 0.04446409 0.006476645 -0.03290554 -0.10687143 0.052227564 -0.05078482 -0.0067642503 -0.3036289 -0.18226017 -0.021856653 -0.30563244 0.08364853 0.011163729 0.07798046 -0.125384 0.029542865 -0.11455339 0.275162 -0.22209127 0.114062145 -0.040840156 0.3022034 0.20491196 -0.025666064 0.05230938 -0.030186558 0.0670013 0.08267939 0.008773949 -0.015064698 -0.01395054 -0.063029 0.15365142 0.18154405 -0.20842156 -0.13643506 -0.15284693 -0.052487385 -0.2739843 0.11285873 -0.035391506 0.11976683 0.19354856 0.21379538 -0.13544643 0.040415026 -0.010930945 -0.13145803 0.20807625 -0.24647544 -0.0021653806 -0.058123358 0.06483021 0.09561155 -0.036676425 -0.0055278214 0.11829784 -0.10072677 -0.08531244 -0.1270737 -0.005282269 -0.085442245 -0.19002286 0.089459844 -0.057712104 0.041391876
52 -0.0046212953 0.05853886 0.17135546 -0.04866554 0.01709682 0.07735306 0.20433111 -0.04212383 0.09058312 0.19769537 0.17918776 -0.18945865 0.06765317 -0.15142685 0.23097298 0.22644971 -0.3365761 0.039216947 -0.19175474 0.18132384 0.13377184 -0.02747191 0.0012182528 -0.22475237 -0.21305846 0.04918514 -0.010729323 0.1353956 -0.15303273 -0.19357386 -0.013126874 -0.19312799 -0.042367 -0.107532285 -0.029366639 0.054087427 -0.12151572 -0.051966056 0.097248964 0.10931524 -0.046238292 0.09431262 -0.111643694 -0.041710865 0.20761389 0.08385427 -0.11826736 -0.20025629 -0.11966207 -0.07789356 -0.16859584 0.08657826 -0.00883345 -0.019025454 -0.09453281 -0.030993132 0.13378258 0.1643734 -0.32762465 0.13952586 -0.1432537 0.030367926 0.027597103 -0.05361596 -0.17232767 0.021599343 0.066734925 0.11208248 0.017568082 -0.033816632 -0.0015284547 0.12155106 -0.31994393 0.009817946 0.009160517 -0.09450855 0.28593582 0.0709168 0.026519988 0.12617879 -0.013926757 -0.03694222 0.09722977 0.08626562 0.14481428 -0.030665856 0.05011393 -0.20062447 -0.06830209 0.041151892 -0.037707943 0.080069676 0.050972205 -0.016285 0.04339365 0.06867717 0.0292944 0.05247595 -0.005907112 -0.08706032 -0.18760698 0.15746924 -0.093254894 0.041851062 0.04169045 0.26061964 -0.024320107 -0.08127276 -0.16954114 -0.029927796 0.0860257 -0.3575122 0.051848542 0.06287513 -0.15515095 0.045319576 -0.15679096 -0.037551586 0.0047300314 0.07878192 0.021613065 -0.15727629 -0.11285427 0.05534402 0.07784891 -0.15611532 -0.10210316 -0.101466835
251 -0.16328155 -0.21910562 0.12846264 0.13001746 0.079194486 0.011357529 0.047960695 0.015421692 0.13676773 0.10463086 -0.069420345 -0.029879432 -0.031204289 -0.122458875 0.032704294 0.20296592 -0.16077185 -0.020968592 0.008897908 0.24835227 -0.033997506 -0.016318439 -0.11141918 0.08809398 -0.21385445 -0.06310329 0.064954996 0.10091026 -0.085305616 -0.08255916 -0.090614654 0.09336094 0.03290263 -0.24317116 -0.0270682 0.06645009 0.1110924 -0.14412566 0.10964741 0.065580964 0.029481808 0.064676516 -0.08190277 -0.103561796 0.077361576 -0.08300683 -0.29504195 0.06167925 0.104288496 0.027213056 -0.03793191 -0.08763477 0.015927738 0.12340426 -0.046108633 -0.025836043 0.22661105 -0.051269982 -0.007950425 0.22458853 -0.13796636 0.2198608 0.24855052 -0.10956247 0.077694006 -0.1735323 0.017475538 -0.047723826 0.025755167 -0.07128353 -0.18144105 -0.06146371 -0.344545 -0.039962117 0.03592143 -0.033408888 0.19348712 0.009553346 -0.06950055 0.16015327 -0.20961064 -0.04117731 0.11968716 0.23266234 -0.0024243044 0.11138556 -0.11476434 -0.021284515 0.0340194 -0.012438018 -0.04396798 -0.031525135 0.15080194 0.017799566 -0.012785006 0.08665047 -0.0017294678 -0.040051825 -0.084048875 0.06843058 -0.12950696 0.09082843 -0.23093471 -0.06436481 0.15701377 0.09650261 -0.040235236 -0.084189445 0.14083573 0.06982736 0.16831744 -0.27493012 -0.036755826 0.27629402 -0.03797797 0.04298968 -0.011337576 0.017656872 0.029116761 0.12317153 0.07438007 -0.13760698 -0.03637705 0.21793848 -0.15576775 -0.20638974 0.0076566185 0.07331935
574 0.094384395 -0.0715979 0.06476353 -0.034990195 0.2118178 -0.1254465 -0.11175527 0.11031303 0.059993748 0.2755472 -0.03411086 -0.08031542 -0.10527844 -0.104258314 0.16312955 0.09162454 -0.12900385 -0.12210579 -0.14768621 0.25837684 0.16284235 0.014386928 -0.10988108 -0.02048347 -0.060267933 0.022700729 -0.094706036 0.028679958 0.003833928 0.09453788 -0.027409228 0.0017761238 0.09081334 -0.0033120797 -0.0026373833 0.11050549 0.1915685 0.25440228 0.0021145237 0.0013844083 -0.021983914 0.22264683 -0.007924314 0.009366238 0.116441905 -0.19126827 -0.04654114 -0.08583886 -0.06643585 0.027352128 -0.1315581 -0.22056782 -0.17074993 0.13216992 -0.025958171 -0.057632405 0.2555483 0.022716992 -0.21071588 0.22181036 -0.09575863 0.101135686 0.15486133 -0.0048363027 -0.021039223 -0.056810994 -0.06775828 -0.02855314 0.19199781 -0.04465489 -0.009525399 0.068026304 -0.104608566 -0.108725384 0.08709321 -0.090694085 0.01928148 -0.12425808 0.005501992 0.05411824 -0.2713827 -0.108992144 0.059953958 -0.009681889 0.059321497 0.106277026 0.05595204 -0.026306627 0.19418122 0.070610955 0.0520961 -0.023924733 -0.015162985 -0.17661862 0.22466072 -0.09036398 -0.119640656 -0.10717486 -0.1150798 -0.0034310718 0.03311705 -0.10089031 0.0036015213 0.08294842 0.072486356 0.06772501 -0.13599508 0.07657871 0.2115445 0.13317983 -0.040626165 -0.16214617 -0.059344407 -0.14253198 0.017618041 -0.074787855 -0.016241701 0.19368878 0.19891359 0.027952708 0.028405674 -0.30358195 -0.31160128 -0.08759117 -0.017412491 -0.10482753 0.082266815 0.12106667
250 -0.072924264 -0.10821541 0.02061021 0.2792694 0.08009493 -0.08103527 0.17072952 0.17559107 -0.10774109 0.1381732 -0.04793754 -0.14737143 -0.18868184 0.090671115 0.12512487 0.11433684 -0.31512046 -0.043976687 -0.14266472 0.22788104 0.057519447 0.036945067 -0.05625762 -0.19380659 -0.21338984 0.03387034 -0.18106231 0.10816322 0.03283311 0.039963692 -0.1351235 -0.113759115 0.044092838 0.03502602 -0.22850405 0.08999647 0.1694215 -0.06352081 -0.036354072 0.20288329 -0.0034253085 0.09642985 -0.13630933 -0.023503328 0.23554017 0.015129307 -0.022916446 -0.06913578 0.07131199 0.06630229 -0.18326855 -0.0622679 0.055283885 -0.006839764 -0.12199618 -0.15846027 0.10361036 -0.09292005 -0.16569558 0.21867354 -0.0042529446 0.012216937 -0.0216268 0.20048949 -0.10738719 0.08689599 -0.11498659 -0.110250294 -0.06384242 -0.027155789 -0.08633178 -0.20328575 -0.24267724 -0.17943767 0.043745954 -0.07278372 0.11567693 0.044349026 -0.027518006 0.07499833 -0.22667788 -0.17021382 0.12819667 0.17064323 -0.09265119 0.18811302 -0.10069677 -0.18334079 0.15798622 0.06850406 0.05813441 0.088795304 0.030498507 -0.015945032 0.0008875139 0.18990506 -0.14955127 -0.15050523 -0.24941255 0.00791691 -0.12580797 0.19346836 -0.3170834 0.07382147 -0.0009567804 0.06269652 0.13010591 -0.06034217 -0.1428817 0.061443422 -0.049700152 -0.05567571 0.116443366 0.10345271 0.021618139 -0.029131465 0.09520394 0.10959951 0.11360988 -0.028233476 -0.07657536 -0.18108399 -0.22191086 0.015055094 -0.14461857 -0.10747425 0.02576762 0.003914686
696 -0.122880645 -0.1012043 0.0526194 0.1429969 -0.025277544 0.27098757 -0.07144981 0.27251306 0.04876116 0.059738535 0.11652053 -0.007984501 0.047987822 -0.03257219 0.07447761 0.26317897 -0.028222056 -0.16490147 -0.1244134 0.12150209 0.09911779 0.089846455 -0.1772186 0.0113428375 -0.20402026 0.1235996 0.0009949452 0.07077055 -0.23733144 0.043032914 -0.07786881 -0.07927382 0.13699621 0.044013344 0.1009397 0.12784648 0.11638358 0.06399033 0.006621037 -0.019751288 -0.02491486 0.12943599 -0.24943864 -0.09906056 0.18419981 -0.07555788 -0.11578117 0.023801489 -0.17073587 -0.020881992 -0.0826912 0.023898127 -0.0020317035 0.03760681 -0.14481464 -0.07841992 0.16087283 0.09067781 -0.22862431 0.23726569 -0.18824078 0.029543076 0.12317375 -0.16722934 0.15379772 -0.005234353 0.081607476 -0.031408902 -0.056595832 0.052081954 0.015204105 0.23272845 -0.19084652 -0.11580912 -0.051871713 0.09883683 0.09027697 0.013995339 -0.15022221 0.129024 -0.39760357 -0.25858855 0.20415945 0.23999225 0.020761078 0.27895805 0.06957096 -0.03284308 0.17616521 0.04220079 -0.11986267 0.10680945 0.06929877 -0.017041735 0.05747482 0.0850615 0.19324768 -0.1390018 -0.0074091125 -0.20558736 -0.17150037 0.04014372 -0.009683243 0.0050327936 -0.19493926 -0.31703043 -0.07681834 0.25323188 -0.0752064 -0.123511836 0.23381999 0.016024968 0.015778538 -0.003307204 -0.01173789 0.040811896 -0.019142132 0.040813174 -0.097847715 0.16687928 -0.059408214 -0.20567203 -0.012109669 -0.040055793 -0.006748711 -0.2135455 0.039188955 -0.020282459
499 0.032383416 -0.15252934 -0.032075156 -0.0407309 0.038998835 0.063124664 0.07789827 0.043898594 0.09919985 0.17674747 0.0013521209 -0.04577284 -0.07918802 -0.07793194 0.09952327 0.2728438 -0.14983357 0.0935636 -0.104072645 0.15791994 0.07676951 0.07476601 0.046526793 -0.22112106 -0.19488418 -0.109594814 -0.19029501 -0.005599637 -0.37761766 -0.030502575 -0.11022083 -0.06196479 -0.042350937 -0.0782715 0.09456454 0.021114677 0.13790412 -0.06190325 0.06707593 0.0027211802 -0.06216311 0.018239481 -0.046299372 -0.046221543 0.21470688 0.14023657 -0.091567546 -0.18289585 0.08182077 0.017690985 0.009678068 0.026683627 -0.16280475 0.10170905 -0.08159373 -0.076319754 0.21793877 0.16934524 -0.15021731 0.105051495 -0.28606167 -0.026637796 0.24584316 0.07878728 0.07892299 -0.1264075 0.04164081 0.032695808 -0.12971638 -0.1644309 -0.05535901 0.015983758 -0.2570023 -0.091818415 0.0062140427 -0.032697596 0.03129328 -0.17911334 -0.25431496 0.07098059 -0.18255213 -0.12975578 -0.32172966 0.06864316 -0.07148912 0.13550912 0.0706424 0.047379956 0.014121294 0.041460652 -0.09605085 -0.17555968 -0.07076878 0.062117834 -0.064458705 0.05200261 0.05798081 -0.13942334 -0.18226372 -0.1513623 -0.12712815 -0.014591841 0.05611363 0.1647445 0.10761251 0.13698569 0.030976346 -0.024597237 0.123137556 -0.045766063 0.1016842 -0.21312013 -0.0022095235 -0.026217755 -0.0415033 0.07294755 -0.018640988 -0.003988782 0.10134853 0.027724996 0.024890296 -0.047989123 -0.28034255 0.07390741 -0.2093203 -0.088988155 -0.08403758 0.10848275
603 0.040305935 -0.10442451 0.16376197 0.06649805 0.14330149 0.049244013 0.052665077 0.06875784 -0.028857902 0.08395688 0.057739463 -0.24300347 -0.14504287 -0.058941945 0.25240046 0.1323956 -0.15131295 -0.04286334 -0.18191403 0.21228702 0.29221708 0.10134175 0.06404742 0.03151138 -0.33212626 0.08908889 -0.0918446 0.004037727 0.050468005 -0.24500398 -0.05130147 0.018803874 0.006911195 0.01668082 0.12863809 0.24635711 0.2331607 0.0035645366 0.11701266 -0.031966105 -0.1821849 0.0050511737 0.0036456774 0.0050878422 0.12455516 0.13112657 0.08612637 -0.032884654 -0.06841369 0.116111405 -0.06655665 0.094565764 -0.014061407 0.18182403 -0.06988296 -0.15203726 0.13452859 0.15796833 0.07425702 -0.008324351 -0.09713783 0.37486827 0.009540241 0.053158835 0.15906832 -0.119722575 -0.03685223 0.040087294 -0.018454507 -0.046998255 0.05417734 0.1666106 -0.0142135685 0.06197176 0.118664674 -0.20863314 0.019857978 -0.07135379 -0.07032528 0.0033622922 0.113671556 -0.11246328 0.02930758 0.0012855275 0.07881008 0.054496944 0.08862548 -0.13426715 0.0983536 0.050497513 0.09637524 -0.070944585 -0.029089984 0.04959335 -0.05647973 0.18772614 0.10559535 -0.296018 -0.1028339 -0.024663571 -0.08036305 0.0380291 -0.120408125 0.04571579 0.051489253 -0.19943774 -0.099629425 0.16162401 0.06716713 0.0664395 0.2782913 -0.04156393 0.09009532 0.101786695 -0.020567391 -0.04341773 -0.16127922 0.1421708 -0.09380299 0.036966845 -0.07208518 -0.22707348 -0.10412548 0.00027676226 -0.22406065 -0.12142299 -0.25950024 -0.027277822
803 -0.0036722578 -0.1559967 -0.0045192605 0.12725379 0.018897735 -0.0377416 -0.17383392 0.0028350817 0.09828298 0.1738983 0.11479216 -0.119051285 -0.015803477 -0.11225821 0.17105237 0.11952117 -0.09279019 -0.054324616 -0.16255186 0.21743369 0.13098986 0.07113362 -0.064126365 -0.06599695 -0.09851857 0.15256415 -0.1658056 -0.04893938 -0.06932184 -0.00638636 -0.0022855545 0.07242683 0.038553976 -0.16401002 0.02341534 0.08602523 0.09503043 0.038310293 0.084322 0.16376883 -0.14622459 -0.075132675 -0.09418006 0.11982147 0.058286645 -0.013482117 -0.06728751 0.024419032 -0.14806758 -0.067200445 0.08242942 -0.072272435 -0.12248976 0.15269093 0.0068116933 -0.18482098 0.050295647 0.12770072 -0.075703 0.3599591 -0.26728946 0.17252894 0.07134985 -0.027239772 0.14584363 -0.077528805 0.2859635 0.035845652 -0.119899765 0.09733953 -0.21078388 -0.019683225 -0.16051194 0.090973586 0.03403297 -0.10925291 0.08076848 0.15191531 -0.19883208 0.120347776 -0.08799936 -0.02435899 0.019477785 0.29808944 0.0030862933 0.1451116 0.14323664 -0.09137741 0.07645428 0.092026584 -0.057060286 0.009846351 -0.025806975 -0.19611663 0.09332268 0.09790527 0.1834314 0.010115484 -0.06530746 -0.15499651 -0.091804385 0.0941792 0.019063674 0.014693397 0.08454391 0.10854379 -0.026102507 0.082453914 0.11689001 0.239189 0.030920487 -0.012404799 -0.090053014 0.06654607 -0.18451037 0.14418435 -0.039946668 -0.12869558 0.0007621753 0.075520426 -0.09775529 -0.12933418 0.10410802 0.079881005 -0.18303733 0.042158496 -0.23167917 0.01696164
253 0.110589005 -0.04821915 0.045484867 -0.03288224 0.22506249 -0.023663819 0.02716089 0.029393096 0.058971107 0.19786228 -0.073018156 -0.14778909 0.1275379 -0.052025408 0.20422332 0.15302992 -0.11732551 -0.04683418 -0.1730376 0.012531316 0.16348611 -0.09810266 -0.03130308 -0.02311129 -0.291596 0.23709138 -0.21635486 0.11414645 -0.19515087 0.055942055 -0.08311618 -0.090241306 0.05907798 -0.016713614 -0.050308984 0.08480381 0.26039463 -0.08194042 -0.00471929 0.0015986755 0.115583055 0.11706152 0.028098794 -0.03429456 0.25652233 -0.1769539 -0.20104066 -0.04384435 0.026913976 -0.09468618 -0.20026036 0.0026294512 0.16286227 0.18001279 0.08409852 -0.16764967 -0.058244057 0.14059693 -0.07910808 0.058457356 -0.17544308 0.15855403 0.014812293 0.0063491496 0.1779509 -0.113886185 -0.107873 -0.14851888 -0.11189717 -0.19272871 -0.08185454 -0.08953301 -0.1841457 0.06539237 0.067668796 -0.1247685 0.033638418 -0.19439104 0.15488678 0.2838381 -0.0063774297 -0.014977124 0.20196061 0.28436822 -0.01926418 -0.09570058 0.14234036 -0.12888315 0.07434479 0.07045877 0.037919953 0.031600855 0.042764068 -0.08404514 0.05922324 0.0058182576 0.03144253 -0.01536337 -0.16432059 0.013523381 -0.2093625 0.107485235 -0.16878273 0.08732752 -0.017567113 0.04446835 0.044898108 0.05057265 0.106732905 0.109072186 0.09443436 -0.17841785 -0.076588966 0.18614893 -0.039758023 0.013103199 -0.12709805 0.051321484 -0.1009632 0.1022027 -0.15705211 -0.22256084 -0.074486576 -0.101637125 -0.282955 -0.08771421 -0.019666346 0.11532135
869 -0.08360901 0.08141556 -0.16935498 -0.0030371032 0.36422303 0.091574855 -0.014839183 0.144267 0.07737783 0.18608314 -0.061999604 -0.160721 -0.1316431 0.0064765424 0.32732278 0.26901937 -0.20502861 -0.25964165 -0.08508902 0.1875517 0.017192334 0.097847976 0.037436858 -0.09268814 -0.3209293 0.23093419 -0.17856781 -0.046537038 -0.008060625 0.07057567 -0.14636236 0.22590426 0.095175646 -0.02099916 -0.0008834134 0.0099268695 0.10346443 0.1372124 -0.05305389 0.009363315 -0.08874237 0.07399786 -0.11947711 -0.1060413 0.08399974 0.12218098 -0.070079766 0.08243999 -0.16685702 -0.12271026 -0.061048843 -0.022021722 -0.046862792 0.14739415 -0.0026867678 -0.005765612 -0.020631053 -0.017957969 -0.08551009 0.11374037 -0.07252116 0.014720806 0.08366647 0.028270395 0.0062031955 -0.22344099 0.11559456 -0.045203656 0.14216073 -0.12684616 -0.07267824 -0.10655372 -0.21668768 -0.066940784 0.16685273 -0.16195387 -0.031008137 -0.24459222 0.009279144 0.0066327737 -0.25352418 0.024397068 0.1361367 0.22848934 -0.0194741 0.11009231 0.19684981 -0.20332487 0.074816436 -0.06415993 -0.10811292 0.0068460805 0.1711205 -0.049520034 0.23926683 0.058648434 -0.054008324 -0.08683446 0.052045014 -0.05156924 -0.03840293 -0.09779701 -0.05744137 0.0798474 0.17469819 0.011977021 0.060041167 0.067211576 0.019060656 0.08048758 0.06507981 -0.120521404 -0.08188883 0.099282436 0.035616577 -0.034882087 -0.13653612 0.0274184 -0.09718266 0.10413853 -0.059429757 -0.23308071 0.014872164 0.10196129 -0.040663995 -0.14091752 -0.08215083 -0.04172767
1151 -0.086576685 -0.17953089 0.14854302 -0.0101632485 0.12710242 0.034782186 0.056803104 0.07239012 0.0787374 0.15546867 0.07527231 -0.14349362 -0.0624131 -0.19020432 0.19058809 0.12199598 -0.24424656 -0.042837165 -0.28278932 0.22656818 0.103180386 0.115195446 0.024852457 0.08268313 -0.25197342 0.09888069 -0.25248766 -0.089177094 -0.04984837 -0.096027665 0.041204255 -0.05090864 -0.040193412 -0.18250753 -0.038477723 0.09394669 0.12570082 -0.048333414 -0.007968233 -0.051835265 -0.094161496 0.1026338 -0.14035124 -0.22692628 0.29680192 -0.034825627 -0.013506151 -0.01898573 0.027893163 -0.050167292 -0.07435136 -0.028585365 -0.0020602231 0.07531002 0.10114045 -0.11338553 0.06861185 -0.041443434 -0.048435856 0.10430453 -0.083794415 0.12585875 0.11381618 0.036899135 0.07484546 0.08307574 0.079035 0.061775487 0.19471355 -0.062777855 0.15474789 0.069240876 -0.13837107 -0.11294288 0.0020378132 0.14231734 0.09733013 0.105702646 -0.16049129 0.021108672 -0.24425638 0.0029653204 -0.09183097 0.17455037 0.23413864 0.19741322 -0.046936918 -0.13145354 0.045133933 0.16446188 -0.029141927 0.031861927 0.02013751 -0.10106933 0.06756262 0.101814896 -0.14782634 -0.018450018 0.053105023 0.10334893 -0.09221329 0.22156636 -0.18727805 0.15850738 -0.048923433 -0.06079299 0.021813136 -0.002788723 0.12434599 0.03530944 0.09419965 -0.04944379 -0.27795422 -0.033848766 -0.11199287 -0.18125975 -0.12710351 -0.06156641 -0.08021588 0.04229858 -0.24151441 0.03616741 -0.09943086 -0.13372959 -0.003531156 -0.15864417 -0.118712805 0.17356901
693 -0.004176588 -0.05894231 0.10404219 -0.041916654 0.13021521 -0.17783536 -0.044032563 0.028116127 0.19276117 0.14681797 -0.104180366 -0.02032475 -0.18622926 0.043973964 0.037379462 0.27302554 -0.05918242 0.094240606 -0.17734458 0.095447324 0.026341634 0.043182362 0.016624285 0.010992685 -0.19979267 0.07677502 -0.13227254 0.09434262 -0.028220195 -0.11367653 -0.13279477 -0.063344724 0.015547825 -0.21922347 0.054841116 0.25521138 0.040387224 0.048641033 -0.0075712544 -0.028197274 -0.10278044 -0.06294561 -0.25405574 -0.061803486 0.1918324 -0.1714562 -0.22799148 0.017462363 0.16874886 0.111391254 -0.15365294 0.05263134 -0.095676236 0.40791205 -0.035279613 0.038567323 0.07346998 0.20147447 -0.18829301 0.3641348 -0.09889018 -0.06685026 0.016785437 0.16171306 -0.08780377 0.09247199 -0.082787745 0.095564455 -0.19248052 0.16426189 -0.10245745 0.021175023 -0.22498015 0.008219839 0.026237443 -0.049600925 0.050826266 -0.19417799 0.039608393 -0.066001765 -0.25620905 -0.06837798 -0.04766313 0.041824352 0.044554044 0.14351 0.03039863 -0.04239288 -0.022989644 0.15777797 -0.12287863 0.012500276 -0.10183793 -0.067793675 -0.14123116 0.05764173 0.09846742 -0.19598788 -0.049813867 -0.11570153 -0.045257714 0.11681815 0.010502655 0.07060399 -0.0909019 -0.06244191 -0.07954448 0.12206017 0.13775986 0.09269479 0.3144205 0.12278608 -0.039326314 0.013793602 0.047654014 -0.018365497 0.070021324 -0.029257491 -0.07592623 0.03169287 -0.10941118 -0.24466746 -0.22487004 -0.010825173 -0.28287518 -0.10409107 -0.1780234 0.1589373
1216 -0.18076275 0.121410094 0.1168258 0.010960994 -0.11036963 -0.18185525 0.0015750478 0.04032862 -0.1225937 0.061306253 0.11179555 -0.1860451 0.05702899 -0.22898665 0.13991182 0.1305599 -0.22771086 -0.09993722 -0.18650503 0.31459987 0.083078966 -0.0032212248 -0.021703653 -0.05099184 -0.14858036 -0.040226426 -0.22654286 0.06542213 0.1888309 -0.123182155 0.21711966 0.08476026 -0.13704987 -0.12091452 0.05503478 0.12483468 0.14475721 -0.0059959083 -0.08210722 -0.029233396 -0.16834247 -0.03900227 -0.021384966 -0.14671506 0.16443017 0.10433975 0.03772556 0.07631634 0.046809707 -0.01312948 0.061497863 0.029758364 0.09359656 0.032884207 -0.17945945 -0.19186689 0.279625 0.11306493 -0.0679617 0.2928903 -0.28158206 0.23429117 0.17556797 -0.12309962 0.08720888 -0.06833859 0.24452972 -0.03531424 -0.039396677 -0.05906497 -0.042715907 -0.021186905 -0.17831112 -0.10052526 -0.049035616 -0.1290933 -0.16340937 -0.16599113 0.086316355 0.24188921 -0.082225695 0.0111763785 -0.010783214 0.12868682 0.12121808 0.20739537 -0.014198516 -0.09226042 0.13911606 0.118832156 0.0905194 0.18770534 0.10268034 0.040920544 -0.10317356 0.24286751 -0.0048033865 -0.13808787 -0.08180209 -0.015534528 0.05132797 0.1089321 0.03169371 -0.13821967 0.0722343 -0.09031809 0.0071939905 0.1502606 -0.031593718 -0.17628525 0.11336631 0.02355776 -0.17933261 0.08803412 -0.18539827 -0.021625115 -0.02813329 -0.0046716733 0.08868291 0.0066121886 -0.07124349 -0.20947354 -0.189951 -0.05116203 -0.14346395 0.08214 -0.15656164 0.11710532
856 -0.13168542 0.10328942 0.21939632 -0.043663796 0.038986936 0.18146168 -0.16814157 -0.02623891 -0.09125223 0.21918958 0.028523449 -0.08045734 -0.07480637 0.021362672 0.22123626 0.1355191 -0.118093155 -0.05613181 -0.030097537 0.35672525 0.09264883 -0.019664118 0.009078016 -0.21242708 -0.16939276 0.07024928 -0.14413226 -0.0021581978 -0.107727826 0.09722883 0.061623294 0.09975011 -0.043498535 -0.048271623 -0.07234011 0.079800725 0.16743237 -0.04451918 0.0009921062 0.1571947 0.0049207425 0.14442532 -0.06739801 0.008653693 0.023247967 -0.042453993 -0.06301648 -0.28593108 -0.17632003 -0.013466738 -0.0697266 -0.018815624 -0.12594628 0.10900477 -0.21425779 -0.112468004 0.07398772 0.04449694 -0.17312738 0.19759381 -0.018015498 0.14322515 0.029430877 0.09444097 -0.081873246 -0.05746145 0.114351854 0.07324491 -0.11721877 -0.2441966 0.0713413 0.047001787 -0.29920036 -0.14233406 -0.07709509 -0.10149005 0.12787047 0.09928879 0.037113924 -0.03922231 -0.28999043 -0.097411595 -0.018276215 0.13146204 -0.00813801 0.080762334 0.040894248 -0.044507165 0.16156746 0.08727024 0.018846825 -0.09079188 -0.037063353 0.08687733 -0.011067015 0.06604556 -0.088511296 -0.006298832 0.09024951 0.07088158 -0.033956993 0.103743434 -0.010119179 0.04905827 0.09663271 0.28456023 -0.21542305 0.17518105 0.19746032 -0.14743134 -0.1062183 -0.09166108 0.08662796 0.0302917 0.053199127 -0.06567971 -0.059997912 0.10209026 -0.12947138 0.012543537 -0.11085935 -0.16745895 -0.12717159 0.14505155 -0.09720419 -0.124980494 -0.15624727 -0.012535518
1218 -0.019129869 -0.066199146 0.059079356 -0.16149244 0.18383504 0.027093135 -0.05228648 0.17338239 0.0951073 0.25390813 0.09556181 0.07846176 -0.07874298 -0.0887593 0.09886879 0.11720897 -0.05915579 -0.057135258 -0.09076073 0.26551893 0.09139627 0.114149466 -0.025583487 -0.055012915 -0.27111676 0.111728966 -0.21854052 0.1649486 0.02582948 -0.007643754 -0.029099584 -0.096344315 -0.022373503 -0.09826826 0.07042888 0.16286004 0.06004192 -0.23330802 0.002429337 0.018116644 -0.27361315 0.06533844 -0.2799625 -0.08039523 0.27979076 -0.09567768 0.02179029 -0.12517123 -0.19727792 0.18608613 -0.19540985 0.18599576 -0.09529733 0.24791533 -0.18041186 -0.08687212 0.039155442 0.059758622 -0.02560363 0.07941986 -0.18861929 0.008898219 0.03965079 0.14648627 0.09848208 -0.1277047 -0.030964362 0.1193541 -0.05933348 -0.026203651 -0.12504272 0.13844606 -0.04346271 -0.032962732 0.013365807 0.08332293 0.088088915 -0.025436021 -0.2233289 0.1391506 0.08695516 -0.27434397 0.14695248 0.22040842 0.23868802 0.121389866 0.17461511 0.004612634 -0.14373864 0.053355757 -0.11714068 0.011714586 0.041851144 -0.1341444 0.011909038 0.044188105 -0.049584612 -0.18869323 -0.026421824 -0.023740893 0.058014195 0.05597883 -0.01801115 -0.11157121 0.02766128 0.033765666 -0.13462219 0.22420575 -0.046484787 0.15718885 0.04125508 -0.024762668 -0.088944346 0.27052465 -0.013537913 -0.057976626 -0.15584147 0.00458687 0.07656521 0.17353705 -0.13686296 -0.087529495 -0.049513493 -0.0742024 0.101116255 -0.02458991 -0.17488407 0.0029900114
850 -0.15943184 -0.1754074 0.057807636 -0.08970157 0.07404454 0.0534374 -0.22217904 -0.023541888 -0.019934298 0.092961974 0.040868748 -0.026936213 -0.009476308 -0.11487576 0.096340574 0.18121435 -0.217814 -0.10641963 -0.13630444 0.24794394 0.028656391 0.12264515 -0.046594143 0.009894437 -0.41142467 -0.02465808 -0.18467829 0.19490333 0.014629747 -0.11732554 -0.22122793 -0.02978674 0.11665887 -0.099408954 0.059305057 0.25825444 0.11908974 0.016548136 0.074826226 0.06011845 -0.045513336 0.16994156 0.036351837 -0.13925998 0.0013672977 0.021292483 0.033993423 -0.045123894 -0.14329252 -0.08324143 -0.055044297 0.011521542 -0.040895294 0.23007624 0.06624248 0.11281502 0.22350594 0.06766363 -0.34502104 0.058319174 -0.2006636 0.05652839 0.27660432 -0.036657967 0.012061482 0.012025232 -0.055157356 0.025248 -0.104901776 0.124358244 -0.011867211 -0.26814184 -0.22577569 -0.04844884 0.14191279 -0.07753703 -0.09841704 0.03153515 0.04781021 -0.039577525 -0.16900589 -0.09227252 0.22437872 0.17696156 0.089102216 -0.07702609 0.24834225 -0.05677659 0.07451578 0.005166135 -0.08387306 0.03683529 -0.005240141 0.20043005 0.08103989 0.13787884 -0.13454613 -0.13428275 -0.030297047 0.052966464 -0.21774489 0.11730333 -0.039463658 0.07361314 0.012970042 -0.004194472 0.021438383 0.14664 0.07414892 0.007909702 0.040053185 -0.11904204 0.02131321 -0.02163027 0.061654508 -0.07126473 -0.014071196 0.254119 -0.07094747 -0.06517762 -0.08112399 -0.004750884 0.13617752 0.19808604 0.02668811 0.013599137 -0.29576916 0.08419915
805 0.00781548 -0.21226256 0.01190676 -0.0734762 0.10040366 -0.10005809 0.031121196 0.07772619 0.054979306 0.0840888 0.1924084 0.047665097 0.107087776 -0.008063262 0.09999362 0.18948193 -0.2990308 0.03755254 -0.0009893088 0.21937941 -0.003754727 0.079043165 -0.07828666 -0.2702398 -0.25965258 -0.023926046 -0.0065477435 0.19018035 -0.016735282 -0.1479738 0.010845338 -0.05460693 0.025458073 -0.07178084 -0.056119565 0.07483759 -0.04715977 0.048519816 0.041694008 0.1381312 -0.13539219 0.05060253 -0.18797569 -0.033964243 0.09641072 -0.16339645 0.018309595 -0.07101158 -0.16059323 0.19653268 -0.0131552955 -0.16653284 -0.083207846 0.19683105 0.016145237 0.1095719 0.23813082 -0.016878206 -0.34577447 0.26836428 -0.14190139 0.15259282 0.11561 0.14322709 -0.08071778 -0.036517695 0.12604672 -0.10235809 -0.19131744 0.00024387208 0.041905288 0.027664326 -0.41009185 -0.13899122 0.18403806 -0.08435593 -0.13741468 -0.06886062 -0.038920864 -0.0046055303 -0.12269596 -0.25891608 -0.06664424 0.13675956 0.03412309 0.1625182 0.16398191 -0.11198831 0.08170583 -0.16818888 -0.04079907 -0.04684237 0.030136622 0.07469743 0.12287635 -0.062652335 -0.10024224 -0.0074032396 -0.04708284 0.0015175391 -0.02928388 0.06557605 -0.06387905 0.04874176 0.08594341 0.004981947 -0.06579638 -0.03394436 0.01615215 -0.031267606 0.04191227 -0.03645206 0.10724925 0.03464102 -0.064612255 0.049387585 0.052768618 0.026921172 -0.069812104 0.008861485 0.0056863287 -0.015962021 -0.21753006 -0.16747892 -0.14980869 -0.1475355 -0.15239991 0.029945798
789 -0.037324745 -0.03145082 0.16265702 -0.13041875 0.11519621 -0.090500414 -0.036901027 0.13673665 -0.01252039 0.22587103 0.16683647 -0.24923135 -0.08515572 -0.11680305 0.12329195 0.27851373 -0.26408315 0.21240099 -0.08110956 0.27332792 0.09839623 -0.034846585 -0.15626615 -0.11198581 0.03712438 0.08663702 -0.109852746 0.08722571 0.11686592 -0.28465638 -0.0023243495 -0.16954684 -0.018847583 -0.0694583 -0.3366302 -0.017624041 0.08501638 -0.23718219 -0.04993924 0.1358884 -0.14027378 0.02768983 -0.12773944 0.0023820153 0.07818616 0.04700124 0.029996434 -0.036475185 -0.05258068 0.09226564 -0.11340922 0.08419286 0.074839175 0.09343098 -0.116409205 -0.061979014 0.30500612 -0.030036442 -0.0965311 0.1583013 0.06601523 0.025959052 0.0047163176 0.060104024 0.07694365 -0.022401312 0.12520553 0.16269954 -0.07950841 0.17687446 0.042193677 0.059073083 -0.100242175 -0.14050132 0.023130601 -0.027017092 -0.011931292 -0.12763755 -0.14087394 -0.04038293 -0.10778094 -0.040206037 0.14700861 -0.035684884 0.010007611 -0.022621142 0.12903753 0.031730864 0.020199891 -0.06248145 -0.12612462 -0.18871972 0.056525975 -0.061310563 -0.09613105 -0.038254432 0.084152475 -0.07043261 -0.0113702165 -0.050005767 -0.14921667 0.06466185 -0.1984827 0.03293326 0.127521 0.050744988 -0.24061105 -0.08263407 0.06734969 0.0784086 0.17448008 -0.1600022 -0.2901456 0.09143952 -0.09684304 0.15534674 -0.10044418 -0.023766497 0.035334565 0.06111082 0.153174 -0.31720728 -0.091371104 0.09583261 0.036901273 -0.17655765 -0.061583407 -0.036862064
569 0.010398852 0.134213 0.2279269 -0.14034498 -0.020822978 -0.03640036 0.06357702 0.098755054 -0.021421427 0.14824048 0.1465957 -0.053976424 -0.09651624 -0.11694978 0.02364432 0.26418632 -0.12258486 0.006823393 -0.1975057 0.20739084 0.16794193 0.108276986 -0.11373972 -0.36594623 -0.2248441 -0.043241583 -0.21040635 0.051433545 -0.024275547 0.10168611 -0.14273502 -0.033553828 -0.18484998 0.028456897 0.053221103 -0.123055436 -0.06869423 0.098583005 0.13373348 0.052796252 -0.01665413 0.1482856 -0.18338689 -0.0649246 0.15738368 0.014406338 -0.006432951 -0.066582866 -0.14590369 -0.003541048 0.056573763 0.026354535 -0.16430432 0.18271613 0.08189362 -0.089606084 0.0536502 0.2537575 -0.21429563 0.17467353 -0.058193725 0.14856888 -0.059089996 0.16406709 0.03432903 -0.20098737 -0.20618722 0.059361007 -0.031297587 -0.14919394 -0.0440477 -0.13932587 -0.18355219 -0.07498298 0.09703871 -0.018648176 0.05711296 -0.37321413 0.12092599 -0.018194586 -0.18366036 -0.2591676 -0.09001022 0.28044552 0.084132254 0.051167164 -0.046978783 -0.12349262 0.09074032 0.08664409 -0.1043209 -0.116390735 -0.035749827 -0.050558764 -0.15313378 -0.0368968 -0.14113635 -0.031240428 -0.19271143 -0.081551604 -0.060216274 0.074920006 0.0029894775 -0.03883908 0.104244314 0.09459368 -0.050122976 -0.011336683 0.10804293 -0.046517782 -0.06819499 -0.2656326 -0.15954494 0.022242174 0.038699202 -0.005623604 -0.029971048 -0.010214223 0.025705483 0.18905345 0.057597585 -0.09519731 0.048530363 -0.05777658 -0.25411335 -0.20035201 -0.08387324 0.2242406
724 0.006317678 0.03815148 0.11815665 0.15568148 0.31606185 -0.04909132 0.30677596 -0.097531796 0.13577873 0.037240725 0.054989953 0.164466 0.002654568 -0.25700706 0.015430636 0.27121994 -0.19222867 0.0057271416 -0.0027661195 -0.092014 0.1586853 -0.14096558 -0.26444584 -0.054964572 -0.003940541 0.1342561 -0.0657133 -0.014552331 -0.11766448 -0.17939569 -0.057727672 -0.11538566 0.098574705 0.21261881 -0.15110046 0.18431872 0.14938805 -0.23778416 -0.0065441425 0.08543635 0.09809889 0.10113082 -0.22613905 -0.0435707 0.035973217 -0.1274249 -0.086315885 0.05586127 -0.118807584 -0.08775699 -0.0027882922 0.01296494 -0.10421414 -0.07641918 0.013946947 -0.025213175 0.24168909 -0.056514926 -0.20564705 -0.1866124 -0.19339699 0.0047686617 0.11603854 0.012238051 0.057387833 0.044419385 0.0748359 0.14008643 -0.01981184 -0.03195397 0.15411948 0.14630952 -0.039778013 -0.15599859 -0.057630155 0.162907 0.060996693 -0.20909536 -0.1977631 -0.24720559 0.011488701 -0.0057509253 -0.14660324 -0.009488889 0.06515363 -0.09400628 0.08844781 -0.06669827 -0.03209388 0.1201234 -0.13496497 0.05021708 -0.1790459 0.090685986 0.011879284 -0.062003087 -0.15667416 0.05376785 0.10808912 -0.022413636 0.004093408 -0.13438933 -0.009791896 0.026242582 0.01403021 0.04902176 -0.0035415357 0.30625552 0.12031021 0.15609887 0.015856389 0.010072931 0.0024061082 0.19194631 -0.11348016 -0.0953372 0.030216118 -0.051434785 0.22860852 0.0107179135 -0.058007784 -0.1927507 -0.0443827 0.14199999 -0.27428105 0.022039106 -0.022172745 0.032682195
790 -0.07510677 -0.12444833 0.11028433 0.038996108 0.36647204 0.0586475 0.11954908 -0.11974242 -0.101829536 -0.028502775 0.17108995 0.03800055 -0.14349596 -0.15514635 0.12283236 0.30150014 -0.09011003 -0.14507686 -0.019947318 0.08171255 0.0296976 0.06980126 -0.16969328 -0.21355227 0.22590664 0.18224192 -0.11349376 0.20164582 -0.16080737 -0.07383457 0.1182318 0.041654523 -0.0838519 -0.020336736 0.063913286 0.15916857 0.0517531 -0.20682342 -0.0070004263 0.18934429 -0.002961845 0.045659535 -0.03410934 -0.004506513 0.10998055 0.02789255 -0.022160016 0.051193826 -0.029017728 0.0759808 0.14499731 -0.022736238 -0.1328408 0.30495518 -0.06082469 -0.09324562 0.073057674 0.014996081 -0.21179804 0.11459956 -0.10867834 0.027354186 0.07548238 -0.03220824 -0.108542554 -0.18827058 0.0845368 0.19248681 -0.0934356 -0.08944132 -0.06305321 -0.15666243 0.08978725 -0.043655965 -0.048517756 -0.051686246 -0.046863746 0.16848171 -0.036972728 -0.19847894 -0.37488437 -0.032317776 0.09569608 0.11645666 0.030515008 0.024940861 0.15423407 -0.07269936 -0.058357902 0.13484891 -0.08457626 -0.010176982 -0.18414019 -0.09086209 -0.022599766 0.008167187 -0.027550835 -0.07340552 0.16385308 -0.019209132 -0.19290732 0.066335455 0.09522444 -0.06491631 -0.06963587 0.12288502 -0.09681457 -0.047264148 0.18971227 0.005630599 -0.01467937 0.059084855 0.05431267 0.087473765 -0.08857105 0.05150138 -0.020163964 0.14858505 0.1515174 0.024835616 -0.13969532 -0.117562115 0.088820316 -0.02694425 -0.10640042 -0.01652379 0.003071167 -0.035385363
575 0.071136385 -0.09490172 0.12200676 -0.058037728 0.10532836 -0.12866168 -0.067829505 0.12209961 0.041190274 0.061208908 -0.13502753 -0.16674426 -0.17879812 0.017076146 0.08829359 0.070328385 -0.18746597 0.0894135 -0.3118074 0.0159054 0.20713861 0.075397246 -0.23030785 -0.09108271 -0.14556403 0.03139581 -0.036237463 0.10607757 -0.09428675 -0.06807689 0.15988216 -0.0386235 -0.004875923 0.034226764 0.39727193 -0.112199135 -0.061621085 -0.045937207 -0.09156477 0.20582882 0.059072554 -0.09339764 -0.020898497 0.10972211 0.23853557 0.035911582 -0.17808248 -0.04834953 -0.21203725 0.000385509 -0.0343491 -0.1050745 -0.018060263 0.23296376 -0.080153696 -0.21359816 0.03804151 -0.04297554 -0.22320049 0.21949542 -0.33494833 0.23492053 -5.8085454e-05 -0.14231238 0.06679049 -0.07977622 -0.07339868 -0.09333924 0.0880085 -0.18969911 0.03000276 0.22288465 -0.16797894 -0.04492918 0.24515441 0.034772314 -0.12926742 0.04228355 -0.028257933 0.106260754 -0.07538969 0.032683242 0.047036625 0.20941716 0.020193279 0.2278632 0.11541523 -0.002255242 -0.12284417 0.19889084 0.14049576 -0.006207924 0.12743641 -0.048619825 -0.04525752 -0.08897278 -0.14717297 0.045877773 -0.006226245 -0.024068542 -0.11169574 0.037556443 -0.1404698 0.1593703 0.057027396 -0.07345937 -0.067890525 0.032504648 -0.10457863 -0.07291825 -0.17760085 -0.20898075 0.14378367 0.17386943 -0.11343637 -0.15447903 -0.0008122453 0.05142257 -0.027615495 0.02640173 -0.10845587 -0.32686332 -0.10886367 0.19653219 -0.01196884 0.14062108 -0.032342657 0.09632413
68 -0.12016272 -0.08010088 0.037604 0.026584059 0.12984157 -0.049078282 0.18217792 -0.13541749 0.13693844 -0.018429104 0.08925839 -0.13147545 -0.1086625 -0.20512865 -0.1471992 0.24667256 -0.17746396 -0.05512792 0.01189054 0.2284408 0.004140191 -0.05124687 -0.292402 -0.310321 -0.045747213 0.11397868 -0.12000281 0.037510306 0.09530677 -0.09527601 0.23806556 -0.0038957733 0.1099306 0.09024329 -0.0685319 0.25717166 0.11976079 -0.030929359 0.1623214 0.40442556 -0.12050933 -0.055001948 0.11991248 -0.13143417 0.05107422 0.0049072634 0.13381681 0.120077446 -0.07177416 0.12627861 0.113026224 0.13646106 -0.04263068 -0.008331803 -0.15267946 -0.08338097 0.26764107 0.022426711 0.07193245 -0.15997909 -0.17897673 0.1969463 -0.0552097 -0.01140172 0.10013441 0.07604675 0.045636166 -0.107012026 -0.033754583 -0.0027387086 -0.09390414 -0.01948603 -0.09157478 -0.07174089 -0.14247428 -0.011995434 -0.08201902 -0.0792749 0.010880327 -0.04912962 -0.16768071 0.19182807 0.022546874 0.10657889 0.08404238 -0.009250694 -0.030861525 0.062663876 -0.16917247 0.058224592 0.11237739 -0.09888089 -0.13682097 -0.08664712 0.10321743 -0.13696352 -0.05676062 -0.115489624 0.09744141 0.03739667 -0.2536352 0.1667376 -0.066167675 -0.07644941 0.02481685 0.08527961 0.0681435 0.1603984 -0.08375254 0.0038073328 -0.081787 0.13142985 -0.046351127 0.029376669 -0.031017981 -0.09792425 -0.045297783 -0.12616788 0.09536563 -0.08016779 -0.03719502 -0.047349483 0.20628747 0.08587061 -0.065599546 -0.14616366 0.037920438 -0.13835728
736 0.08175194 -0.23525123 -0.05511396 0.095793635 0.20531136 -0.047713436 0.322483 0.07171431 -0.01457136 0.114694886 0.09981184 -0.051988035 0.08392899 -0.12897058 0.19416761 0.18907377 -0.25197104 0.0372493 0.0122705735 0.150814 0.19436175 0.05402246 -0.17960347 0.007364815 -0.05002928 0.25989658 -0.019351456 -0.023265546 0.12597218 -0.07929887 0.24848434 0.061090622 -0.14988944 0.07956735 -0.024678858 0.26717943 -0.06765298 -0.16680211 0.106990635 0.19091815 0.19030376 0.12084859 0.04018006 0.08597383 -0.042016655 -0.23047619 -0.12769793 0.12296864 0.056357615 0.04231162 0.012750375 -0.039094064 -0.04288346 0.020483324 -0.022545278 0.0066396655 0.1232594 0.14862421 -0.023551732 -0.19350383 0.095240235 0.03412353 0.09116692 -0.19158803 0.04373528 0.033862334 0.20588517 0.016036836 -0.08343397 0.00020161836 -0.34692785 0.03419898 -0.23958829 -0.044109665 -0.09526915 0.08970737 -0.058327723 -0.17462693 -0.08572056 -0.17987968 -0.2168493 -0.12611528 -0.02341079 0.049548913 -0.033844933 -0.006275924 0.063802585 0.18576564 -0.15520716 -0.0399123 0.05069393 -0.22203508 0.010867539 -0.12344148 -0.054151904 0.15889764 0.03710056 -0.011890543 0.096675314 -0.08577988 -0.07419714 0.03771221 -0.1123572 -0.05837271 -0.0077722836 -0.005479877 -0.26611608 0.0890539 -0.14870887 -0.091191396 -0.098326474 0.13390593 -0.0036011063 0.047305264 0.045266863 0.0050493465 -0.04004975 0.106822826 0.027998224 0.13281894 -0.13441524 -0.18220866 0.13741486 -0.011405352 -0.05719287 0.049276568 -0.11165981 -0.101039656
878 -0.12285596 -0.15127335 0.2371424 0.0026426292 0.13329193 0.03175243 0.06372987 0.06198324 0.0027335372 0.16684991 -0.054032132 -0.084274486 0.044822868 -0.06128251 0.08963221 0.16772294 -0.25504744 -0.16224557 -0.22467452 0.32902673 0.23049273 0.02419121 -0.11047252 0.005952929 -0.17200084 0.2202142 -0.0817707 0.05084878 0.026365234 -0.05457727 -0.06694087 0.05274392 -0.025926348 -0.0544716 -0.11093825 0.124112606 0.021369733 -0.06892156 -0.03605698 -0.09896189 0.03948169 0.12632044 -0.058193434 0.007896187 0.1751148 -0.06989469 0.0039102165 -0.030243635 -0.18572336 0.021112967 -0.14153253 -0.07041088 -0.009978618 -0.048478704 -0.11806642 0.09953832 0.21525581 0.11335353 -0.20373218 0.23424181 0.014034485 0.065184936 0.17834428 -0.047737274 0.015847381 -0.010882996 0.009835219 -0.04643212 -0.07244861 -0.005165847 0.017022364 -0.06796463 -0.14898749 -0.11540199 -0.02902438 -0.06725615 -0.06773907 -0.065009646 -0.14374085 -0.00394786 -0.28878012 -0.053585492 0.039044548 0.21284626 -0.040490873 -0.043899707 0.08448578 -0.037764266 0.058659144 0.017702352 0.044733215 -0.16407104 -0.0037788947 0.065176405 0.081102215 -0.17478071 0.05340691 -0.18450712 -0.05647014 -0.15460072 -0.115262955 0.0175922 -0.07527474 -0.02625748 0.11097184 0.03355825 -0.066923685 0.03759038 0.17900136 0.02551628 -0.05370342 -0.08199859 -0.019511601 0.051503778 0.016684242 0.07193926 0.07416361 0.12337007 0.016472813 0.18925673 -0.0014741977 0.020244969 -0.13240705 0.06957168 -0.019733423 -0.04934252 -0.17537548 -0.021373441
797 -0.051156286 -0.3294492 -0.02017287 -0.03904862 0.07354733 0.023689797 0.063739814 -0.0511944 0.064321846 0.08469602 -0.0010636386 0.014773581 0.03832609 -0.034257673 0.2137201 0.16147266 -0.35572413 -0.2522211 -0.2698565 0.19098186 0.026009457 -0.19557568 0.040267907 -0.08742771 -0.2402016 -0.0062348056 -0.22457692 -0.02922483 0.0007294077 -0.063001476 -0.12061625 0.009741316 0.022435969 -0.20573619 0.010584628 0.061747402 -0.047593106 0.14831077 0.118820004 0.20843713 -0.013950974 0.03620212 0.081539795 -0.059668195 0.15038621 -0.024280159 -0.16716003 -0.1765977 0.048895385 0.06539307 -0.01620893 -0.2138749 -0.17089325 0.119070165 -0.02359774 0.14960408 0.13105848 0.05575905 -0.18969502 0.2752272 -0.1438398 0.22638546 -0.058319118 -0.11244741 -0.014488676 -0.049868044 0.035696305 0.105209164 0.016105995 -0.08051481 -0.10027534 0.048797548 -0.18784355 -0.07259377 0.18210408 -0.07714384 -0.0067071007 -0.08144314 -0.041783843 -0.013804088 -0.2924976 -0.06446824 0.17911777 0.045662995 0.07787031 0.09078016 0.09492399 0.041155446 0.30318063 0.03437104 -0.1531508 -0.11956343 -0.22849937 0.06654874 0.097039536 0.19090368 0.0022211133 -0.11341258 0.0690959 -0.021467596 0.027996577 -0.014997594 0.019019617 0.029329251 -0.14670868 0.2300563 -0.052815165 -0.10034319 0.13444544 0.1170016 0.026850794 -0.1326664 -0.12516269 -0.029425988 -0.19927882 0.22264762 -0.082640864 0.15921474 -0.0117579745 -0.008871619 -0.0074296272 -0.05983745 0.038879078 0.12800664 0.015321677 -0.013959809 -0.038553864 -0.0019411932
875 -0.084667645 -0.07985518 0.1945916 0.032854564 0.16424789 0.01866075 -0.0066911504 -0.0030461284 -0.044319775 0.32273474 0.04037825 -0.116727866 -0.028547263 0.09088149 0.28901905 0.039218854 -0.23100846 -0.03738531 0.024446523 0.10491046 0.1264443 -0.13142638 -0.12329835 -0.008151629 -0.24238056 0.17868194 -0.07828745 -0.005196045 -0.10578922 0.15967596 -0.0012771662 -0.00022297092 -0.04230792 -0.09127659 0.059745207 0.31030616 0.07526701 -0.05947741 0.03084069 -0.09805716 -0.094518706 -0.01396398 -0.12934086 -0.04756224 0.07565881 -0.07422199 0.055405363 -0.023258764 -0.05905265 0.031024797 -0.08267888 -0.10058895 -0.13469774 0.12933898 0.057673417 -0.06922476 0.024648435 0.17367741 0.0661067 0.364435 -0.012664958 -0.104265235 -0.0374945 -0.022895312 0.0743471 0.029858658 0.016915224 -0.05302707 -0.15630598 -0.26254207 -0.14894503 0.10255297 -0.33805984 -0.26229212 -0.017115988 -0.19866966 -0.057746958 -0.03679549 -0.101517774 0.005135346 -0.1703692 0.084584616 -0.09829026 0.28696314 0.22050986 0.17378452 -0.04503331 -0.09654341 -0.112109676 0.014762332 -0.18753462 -0.0108050145 -0.06814394 -0.0158801 -0.0035547102 -0.03615263 -0.021574851 0.006260935 -0.06518389 -0.10700157 -0.19358492 -0.07769456 -0.011855799 0.050900802 -0.005868504 -0.016500067 0.12775663 0.09835638 0.12185514 -0.14487635 0.017713081 -0.10038013 -0.0016684044 -0.12249107 -0.053193443 0.028308548 -0.04397056 0.044622093 0.08163818 0.06800767 -0.12141037 -0.23320816 -0.21026392 -0.09102607 -0.06790615 -0.031670466 -0.1406808 -0.17260087
501 -0.21106587 -0.19934526 0.21699831 0.017905226 0.101616286 -0.15101491 -0.008006744 0.09906199 0.111774765 0.24854241 0.13711797 0.07262962 0.028378699 0.012489719 -0.009591869 0.28321898 -0.119322345 -0.12427765 -0.10423039 0.31962636 0.12120802 -0.09753804 -0.024613481 -0.0011935104 -0.112905174 -0.060238145 -0.054175813 0.21612565 -0.03138219 0.19262321 -0.054270476 0.13294981 0.015221864 -0.05877796 0.047593795 0.1725175 -0.03686196 0.004803803 -0.1162094 0.32037616 0.011122127 0.27187398 -0.0056806416 0.054207314 0.1550896 -0.023712678 -0.08245139 -0.0062379395 -0.020841906 -0.007959946 -0.16775165 -0.14733511 -0.015770737 0.028752998 -0.023339134 -0.009954842 0.29600728 -0.0109332595 -0.065668665 0.20072062 -0.012582964 0.23740688 0.08218041 0.13570763 -0.03782961 -0.07663814 0.016722273 0.12965077 -0.14660609 -0.08173093 0.026094137 -0.103735715 -0.19422793 -0.03260151 0.09036337 -0.2865163 -0.18221891 0.06718752 -0.1230615 0.15908763 -0.056456596 -0.091573864 0.15037468 0.08319792 0.04705883 0.16958421 0.16392046 0.033305883 0.043038428 0.045467567 0.0132398475 -0.080003604 0.09647583 0.06884485 0.088832915 0.072057486 -0.020769421 -0.13183384 0.0028125441 0.044618323 -0.17298573 0.025260622 0.00679711 -0.010179384 0.007711502 0.11332346 -0.12110558 0.14119473 0.0046341578 0.026124155 0.053038567 -0.30658886 -0.07953908 -0.0213729 -0.06085136 0.01912651 -0.22212099 -0.117357425 -0.06295662 -0.013713629 -0.03227896 -0.074922934 0.03395264 -0.1951864 -0.026845885 -0.11079001 0.009078203 0.004083715
808 -0.020322982 -0.07779417 0.19533595 -0.02396165 0.13605927 0.002210676 -0.13787845 0.08172185 -0.0037654685 0.25139385 0.09640609 -0.013942496 0.006061153 -0.15734033 0.24085733 0.26079297 -0.06677729 -0.10233285 -0.101354875 0.29888928 0.039737053 -0.09959236 -0.023235822 0.0800168 -0.36303055 -0.050939694 -0.07492959 0.06304778 0.093037255 0.07537445 -0.06562668 0.0718577 -0.013314412 -0.0623905 0.114034355 0.06408112 0.100122266 -0.1282416 0.09796341 0.058635354 0.087313615 0.095536456 0.0066201338 -0.16017662 0.19707923 0.21616654 -0.11608555 -0.023397423 0.004090706 0.0043012737 0.123395614 -0.057497047 -0.1532317 0.06438129 0.08971214 -0.03867612 0.19340442 0.09822429 0.025791533 0.08416662 -0.06677349 -0.16687202 0.039795186 0.16700879 0.03149355 -0.22100689 0.10704203 -0.064584725 0.00061104813 -0.029613959 0.021920836 0.03865506 -0.2162372 -0.3215494 0.23258027 -0.22647123 -0.31667256 0.014004777 -0.047955517 0.09569434 -0.16056949 -0.14975783 0.08146354 0.16275238 0.09075338 0.21302016 0.14956638 -0.19464156 0.12365942 -0.04779156 -0.10813137 -0.0852013 0.05117767 -0.021766141 0.09250998 0.13458203 -0.10070703 -0.21752712 0.012164265 0.018676298 -0.119024865 0.09076868 -0.11555598 0.011737495 0.07380093 0.028273953 -0.07322019 0.07063282 -0.04508538 -0.055555258 0.06541147 -0.26338324 -0.016226046 0.0144980475 0.13919514 0.057714753 0.0409664 0.00878164 -0.032458663 0.08503317 -0.099511504 0.040806323 -0.26887074 0.12049901 -0.092261806 -0.039636012 -0.01678166 0.038695395
570 -0.15553145 -0.21391322 0.11683895 0.07831649 -0.04475634 -0.12014169 0.07210055 0.12946469 0.029573953 0.2539947 0.12266928 0.05338711 -0.054902073 -0.1494444 0.18730423 0.27096453 -0.1462603 -0.0692097 -0.056629434 0.30689824 0.11962605 -0.0069301566 -0.050184246 -0.10435445 -0.19896549 -0.029412784 0.02568106 0.056736067 0.008168257 -0.18122 0.03084305 0.10636653 0.010057799 0.014514524 -0.023354834 0.11680534 0.17912208 0.081650615 0.13791618 0.058528613 -0.027451973 -0.03579103 -0.15556097 0.028623186 0.0130114835 0.14206612 0.11744299 -0.10719488 -0.048559073 0.08089312 -0.2203428 -0.06330166 -0.16334736 0.1111318 -0.093570635 -0.15389787 0.26596698 0.065558605 -0.11136736 0.26335186 -0.090838365 0.18794288 0.064480364 0.021051455 0.04269755 0.06393216 0.015561828 -0.030835563 0.021207435 -0.09655477 -0.004754704 0.08298356 -0.1809728 -0.15954989 0.088060915 -0.17542557 0.021277655 0.020785073 0.026647411 0.06804403 -0.16803734 -0.039021254 0.14151336 0.16037233 -0.11211422 0.02675123 -0.020196397 0.020740535 -0.0685608 -0.097385734 -0.10757055 0.042063873 -0.19695821 -0.060713165 -0.027587349 -0.01227061 -0.039146814 -0.0036173826 -0.09562363 0.19111389 -0.27795246 0.19589858 0.11310689 0.104535244 0.008109875 0.13624622 -0.061954584 -0.054484338 0.1963845 0.051110204 -0.044899743 -0.08958085 0.022802917 0.065041 0.042668544 0.0095901275 0.08577428 0.20999753 -0.14402026 0.19650397 -0.020243164 -0.019802919 -0.09894629 -0.03015482 -0.195238 0.111995384 -0.065008596 0.1782307
854 0.114599444 -0.04120004 0.20105682 -0.008297804 0.15155284 0.119692005 -0.056187127 0.055109397 0.07186803 0.09679075 0.24242349 0.10956731 0.028303891 0.035885993 0.29631487 0.05191124 -0.06387403 -0.1952568 -0.042483076 0.28712392 0.059037093 -0.13987263 0.007760294 -0.15775098 -0.10394125 0.053890947 -0.20357242 0.14667739 0.051987957 -0.08131821 -0.045519818 -0.14248545 0.006991773 0.022942003 -0.039025404 0.065904975 -0.09308992 -0.106778994 0.07806056 0.084993206 -0.16422778 0.13154894 -0.16540377 -0.057897687 0.3567821 -0.016906468 -0.12685682 -0.15420458 -0.1276737 0.14110884 -0.0056804703 0.037423395 -0.20406559 0.09075422 -0.027309686 0.002330772 0.032930244 0.2432115 -0.15507801 0.11398157 -0.17612849 -0.06547317 0.14382128 -0.11254883 0.024861487 -0.005277999 -0.046613123 0.0032648938 -0.10840281 -0.16470146 -0.070920415 0.15617934 -0.3003222 -0.2108552 -0.10585479 0.005183963 0.010580338 -0.27282158 0.014591599 0.1634626 -0.23408534 -0.09797951 0.03557947 0.07854392 0.17868116 0.07210063 0.06448866 -0.24827397 -0.030277375 0.01874954 0.022273516 -0.107386924 -0.03766593 0.032573063 0.107088596 -0.09527837 0.069387004 -0.022103272 -0.10671606 0.0310662 0.010724108 0.10846478 -0.002120631 0.0057705 0.26703802 -0.094679095 0.059135124 -0.028769508 0.1433858 -0.08105603 0.059678722 -0.2227325 -0.114147134 0.028775573 -0.21547759 0.07914305 0.046304993 0.021875022 -0.041250754 0.07131033 -0.06137624 -0.2426872 0.017212246 0.05116362 -0.039889578 0.039406896 -0.17912413 -0.015325796
504 -0.0037125545 0.026374932 0.090653695 -0.16179994 -0.01910484 0.06759269 -0.135262 0.067385375 -0.22637857 0.23319842 0.20364764 -0.010229433 -0.019870672 0.070606336 0.16310802 0.32126045 -0.21067037 -0.16082971 -0.1911984 0.28138846 0.03848655 -0.021015722 -0.022545317 -0.1040115 -0.049199075 -0.04748819 -0.050674275 -0.051166393 -0.07204992 0.12198702 -0.09790261 0.14191943 -0.112416424 -0.12042808 -0.09610166 0.11612626 0.02920122 -0.22509217 0.12128462 0.10657336 -0.11999749 0.110619515 -0.07930258 0.013806297 0.04001675 -0.18406841 0.011108669 0.018351479 -0.18100974 0.06716204 0.17004736 -0.08007148 0.0943865 0.08168022 -0.014117775 -0.18243445 0.16530827 0.08992357 -0.075947 0.24014606 -0.19061013 0.26117235 -0.022161204 0.070148475 -0.04241853 0.014990243 -0.15797256 -0.1055187 -0.17725693 0.00080988463 -0.0018945051 -0.028913852 -0.08278454 0.025698828 0.06879359 -0.11365957 -0.12491477 -0.12139265 -0.25697836 0.1324286 -0.17434326 0.17194684 0.012859387 0.14608742 0.019516528 0.17410485 0.0143357245 -0.11662215 0.17557111 0.30606648 -0.12968653 -0.04161655 -0.020465696 0.027230678 0.008489548 0.0151924 -0.07152533 0.04600513 -0.11896922 -0.11353294 0.0076000085 0.048049435 -0.20939611 0.09678405 -0.022901373 -0.11205859 -0.07750798 0.17381802 0.12576479 -0.05036996 0.086619705 -0.22425495 0.10240357 0.022777593 -0.27022234 0.07535924 -0.16988614 0.03251668 0.0076307766 0.013746757 -0.14555229 -0.39159763 -0.068847 0.08226903 -0.13128698 -0.11959686 0.08122146 -0.066332884
874 -0.14291911 -0.1544629 0.050727587 -0.049114272 0.20486256 -0.042368244 -0.18938047 -0.0644262 0.027553467 0.07834726 0.120426804 -0.036364798 -0.11295836 0.100779444 0.16642521 0.025512928 -0.22964951 0.038900405 -0.09770419 0.2861772 0.063221425 0.092634715 -0.10353773 -0.15721415 -0.09917456 -0.054654352 -0.06518153 -0.026714405 -0.038555447 -0.008043851 -0.18114182 0.0920927 0.06557746 0.021327144 0.014230549 0.011079041 -0.0678391 0.10016402 0.05501411 0.15249242 -0.06717009 0.021989098 -0.23685306 0.15754959 0.25743297 -0.05205423 -0.1935624 -0.08853384 -0.09412135 0.100982554 -0.0768629 0.027191995 -0.1224362 0.10425246 -0.3043595 -0.06983284 0.1379099 0.005993003 -0.094599016 0.22728351 -0.13011205 0.021624414 0.17250006 0.099381 -0.035972323 -0.07581322 0.082269326 -0.06648004 -0.037046246 -0.22151476 -0.15281036 -0.17581448 -0.24272425 -0.13939957 -0.10677711 -0.20036234 -0.05735995 -0.023181912 -0.16119272 -0.1458244 -0.08131895 -0.028705288 0.25121877 0.064695194 0.08124446 -0.039448533 0.19379099 0.019985465 0.18437284 -0.18437126 -0.17877345 0.024053536 -0.064801514 -0.06190316 -0.024241237 0.07991529 -0.13378039 -0.11401132 -0.13293779 0.017603697 -0.09338655 -0.0077815494 -0.27127373 -0.07495341 0.037150934 0.17551675 -0.0005361172 0.12933095 0.21196774 0.0007545129 0.0406896 -0.09912007 -0.032203056 0.0321498 -0.15198712 -0.19857846 0.03772592 -0.008276494 -0.12512557 0.036876287 0.09553432 -0.21482319 0.025895638 0.04697001 -0.13591212 -0.15687855 -0.17394714 0.12135227
807 0.101983465 -0.08801434 0.13686916 0.084553376 0.063346796 -0.0831103 -0.011178873 0.07707898 0.13250355 0.123596616 0.15833268 -0.21890563 -0.009285436 0.10101407 0.13849503 0.16377144 -0.12868753 -0.033654258 -0.17183588 0.1400131 0.084578 0.19049558 -0.11441673 -0.20490867 -0.22031118 -0.072401956 -0.11866521 0.06843359 0.01989825 0.0077927406 -0.171688 -0.034013987 -0.1849271 -0.061763715 -0.15104589 0.11494697 -0.05642777 0.17119281 0.257429 0.060160983 -0.1626975 0.0017555705 -0.11342335 -0.032089446 0.01159177 0.18244885 -0.06893311 -0.094519906 -0.06125618 0.11480538 -0.079416364 -0.12888108 -0.26077902 0.147373 -0.12777257 -0.044056028 0.17118225 0.22221778 -0.14357936 0.17132017 -0.27625644 0.13622594 0.10208012 -0.047796622 0.051295713 -0.044001423 -0.086386114 -0.10011213 -0.06400835 0.0420808 0.07316301 -0.007719282 -0.04233174 -0.18634064 0.15473528 -0.12505399 0.04936085 -0.16309606 -0.11786399 0.09754538 -0.20160091 -0.036618903 -0.09324635 0.07923115 0.08041944 0.04946001 0.010487075 -0.17019589 0.03295603 -0.093382835 0.0031606897 -0.061528582 -0.10658468 -0.15076692 0.10479722 0.09348004 -0.10836002 -0.1590817 -0.07312001 0.049981765 -0.16317753 -0.06578291 -0.07600308 0.25559264 0.26570472 0.10971245 -0.16112138 0.0955904 0.11490498 0.013432974 -0.111106455 -0.07685818 0.008441247 0.13177578 -0.10462319 0.13482335 -0.1154136 0.12840806 0.06848412 -0.14805408 0.04205391 -0.016018482 -0.10212016 -0.15012479 -0.13528539 -0.030555788 -0.09192105 0.05050194
254 0.06611593 -0.27234924 0.22236697 -0.017418351 -0.0083937505 0.21649165 0.009740108 0.122279145 0.08144791 0.13328744 -0.06780695 -0.15839787 -0.042467475 0.020742655 0.14705002 0.24540503 -0.19752139 0.008736824 -0.031142006 0.12218119 0.30151433 -0.025815971 -0.025897278 0.009663087 -0.107777044 -0.037460055 -0.051253952 0.23017909 -0.019524775 0.06988566 -0.17415561 -0.0620922 -0.049288426 -0.03424369 0.032778535 0.07161278 -0.11857509 0.06675196 0.117828615 0.07046305 0.074909545 0.07447736 -0.142864 0.05761715 0.24261682 -0.03140915 0.07652034 0.17366338 -0.09236579 0.097888485 -0.13554804 -0.09466671 0.22140118 0.17950001 0.21947168 -0.04504494 0.11964437 0.020428512 -0.31730017 0.13374554 0.032252315 0.04361827 0.1566199 0.09941142 0.011308645 -0.070033334 -0.05687198 0.18369406 -0.12717329 -0.17712289 -0.20544083 0.050115984 -0.06423374 -0.09962447 -0.072218575 -0.044756643 -0.104802676 0.0474929 -0.10579577 0.084635794 -0.24662967 0.06388805 0.121871635 0.24519001 -0.059278797 0.15754087 0.08599163 -0.02709098 0.15692018 -0.08665111 -0.21062641 -0.088825226 -0.044283867 0.011614546 -0.06781043 -0.10947762 0.16368136 0.009022773 0.042048465 0.18868633 -0.19155149 0.028020386 -0.05093732 0.16603372 0.10885532 0.07544737 -0.047484457 0.19005245 0.16901544 0.09145177 0.1081764 -0.022024019 -0.10180666 0.006395213 -0.121192425 -0.21586151 -0.017789729 0.12175951 0.008310551 0.0016638497 -0.0646333 -0.2056644 -0.115229644 0.019719927 -0.25874448 -0.08891751 -0.1037993 -0.081637606
876 0.08189635 -0.07871422 0.05252165 -0.059597388 -0.12219986 -0.020597322 0.060410775 0.16602102 0.05053885 -0.008437349 0.08285098 -0.15550293 0.0077943825 -0.12709211 0.061806995 0.2231595 -0.19960935 -0.18473482 -0.068104364 0.12881245 0.0930697 0.06677375 -0.05599789 -0.036972694 -0.21280146 0.090288594 0.023220481 0.06292931 -0.007982911 -0.013438088 -0.017810231 0.09423947 0.009304958 -0.101689346 -0.060793664 -0.08520966 0.05943583 -0.018613312 -0.1058186 -0.029896302 -0.14150983 0.12314013 -0.26724666 -0.01270457 0.1523171 0.08351247 -0.017482309 -0.0912277 -0.06319476 0.032262016 -0.063469015 -0.19602998 -0.18443038 0.04394793 -0.048959807 -0.048143756 0.20139562 0.03668543 -0.22320834 0.1835514 -0.06056483 0.27696422 0.023415178 -0.011178764 0.089738436 -0.083994254 0.33401355 -0.15717398 -0.055804413 -0.31555393 -0.08741507 -0.12719147 -0.3118932 0.03061295 -0.020820346 -0.1467374 0.23311171 -0.0429509 -0.07184561 -0.11237316 -0.055941142 -0.02486605 0.21860176 -0.020146687 0.071565926 0.017879985 0.09297971 -0.17839001 -0.027209504 0.01591637 -0.12319771 0.041236542 0.0771086 -0.13064972 0.18332063 0.16011995 -0.16041838 -0.10884549 0.01688219 0.038986873 -0.0422724 -0.11424721 -0.06556213 0.13451958 0.12126027 0.020788731 -0.036710266 0.17871416 0.16453771 -0.1039427 0.03652648 -0.1151628 0.055162683 -0.03153466 -0.1665961 -0.021362914 0.018067542 0.01983387 -0.03772527 0.031127173 0.034191392 -0.24103323 -0.2618616 -0.04546508 -0.23604333 -0.07265325 0.025782742 0.075969055
710 0.086955026 0.025869595 -0.09271752 0.0889229 0.18748094 -0.045272376 0.16394377 -0.08387696 0.026786814 0.19504252 0.050660286 -0.03993798 -0.09449047 -0.20864029 0.039756767 0.19399649 -0.07490799 -0.049967248 -0.11682312 -0.029530706 0.075467624 0.062250055 -0.34479487 -0.09686543 -0.045863118 0.01019984 -0.024409112 -0.094117254 0.11879043 0.2299761 0.110011704 -0.035918638 -0.02851811 -0.09526791 -0.018928993 0.37892562 0.21145286 -0.20175469 0.03997047 0.1202333 -0.033553235 0.12453541 -0.010039652 -0.03200399 -0.025460757 0.018018944 -0.087969474 -0.09449859 0.09544157 0.02467402 0.16101547 -0.13031399 0.11261539 0.115356624 0.059816252 -0.05396923 0.21867965 0.07795351 -0.12866963 -0.27746934 -0.09529472 0.10635234 0.030768346 0.012725917 0.12900355 0.011105859 0.040092394 0.015890148 0.08915763 -0.103118405 -0.21498463 -0.06196506 -0.033118322 -0.14286216 0.054186285 0.11244801 0.09307357 -0.08685434 -0.13120705 -0.025006922 -0.12026509 0.012040021 -0.027553039 -0.10096753 -0.038399953 0.2559116 0.041082148 0.060051408 -0.06713351 0.32773075 -0.047868133 -0.122230485 -0.09839215 -0.054051846 0.0737966 0.08532639 -0.0076755253 -0.02337028 -0.0115216505 0.13484843 -0.22333778 -0.15626204 -0.11172595 -0.021911556 0.06386192 0.04491162 0.09187618 0.15266556 -0.01999086 0.057674307 0.09116244 0.21589041 -0.25378922 0.12213719 0.047208354 0.033764288 0.076984785 -0.04416859 0.1216146 -0.08971849 -0.17201734 -0.07786843 0.15096508 0.062534496 -0.18289314 0.029929897 0.022030316 0.06904503
496 0.0043825563 -0.12055153 0.20023066 0.082246795 -0.03340614 0.025339255 -0.09653414 0.21007653 0.14850664 0.2550792 -0.08783416 -0.092738934 -0.036474556 -0.042188577 0.15161952 0.15409881 -0.08467424 -0.075533904 -0.038359627 0.01803669 0.09835003 0.15438475 -0.04788539 0.012690957 -0.16807157 0.009527576 -0.23508567 -0.07540307 0.04837535 -0.05721041 -0.04213469 0.079036914 -0.020210667 -0.10330744 -0.008603912 0.089324005 -0.05730652 -0.028660946 0.023744809 0.18277334 0.0848754 0.17096171 -0.2441932 -0.015410746 0.087009415 0.08067296 -0.018425185 -0.30594876 0.07036471 0.013976148 -0.17050208 -0.07470297 -0.24081537 0.29198396 0.0648158 0.10235042 0.25820324 0.13579763 -0.14104494 0.14937751 -0.08299249 0.066789925 0.24729535 -0.082335435 0.0019394342 0.010284641 0.051753715 0.006735548 -0.21107191 -0.08159188 -0.06646155 0.004141561 -0.20006284 -0.030664172 -0.0057796123 0.002493751 -0.011996166 -0.21276367 0.036733374 0.004236644 -0.16689494 -0.07182944 0.15675607 0.18736188 -0.015574461 0.035415515 0.32197648 -0.05856056 -0.07996197 0.02245639 -0.037960157 0.04916311 -0.0325722 0.09945444 0.09452319 0.05417327 -0.12133543 -0.34006184 0.009382329 0.057259463 -0.19033144 -0.07698585 0.12887211 0.18309413 0.14403978 0.15686892 0.07708073 0.0587151 0.13046765 0.09882337 -0.14403349 -0.11358628 0.15893377 -0.011274896 -0.078370035 -0.01724788 0.022286614 -0.018936617 0.13991049 0.09130307 -0.21267967 -0.17820594 -0.097533874 0.038091715 -0.0759592 0.064695515 -0.1237705 -0.18462443
1136 -0.17966706 -0.0543382 -0.055867597 0.101662524 0.34679216 -0.2640734 0.34412193 -0.10865369 -0.018729078 0.036393385 0.09466483 0.038784597 -0.06977065 -0.08091037 0.07893819 0.3769522 -0.100738436 0.06550293 0.05238373 0.18781663 0.091369525 -0.043168746 -0.20030601 -0.08796558 -0.25221625 -0.02893224 -0.041350286 -0.05170615 0.09975351 -0.09136859 0.041129872 -0.010609925 0.062550716 0.06511799 0.059828755 -0.021066187 0.123762034 -0.03730091 -0.059644174 0.27077737 0.21076761 0.1303452 -0.16512156 -0.042581953 0.056503903 -0.22704375 -0.15751524 -0.0055093886 -0.03257433 0.05508631 0.035200763 0.029172605 -0.088298745 0.13752331 -0.07012176 -0.050817095 0.097019374 0.00046223387 -0.09905346 -0.13269033 0.09945706 0.11837974 -0.111657925 0.10386097 0.02423097 -0.012046502 -0.105428904 0.062137406 0.123166636 -0.07208218 -0.11359344 -0.15339313 0.037641756 -0.12788454 -0.08029201 0.023874955 0.21228714 -0.118921585 -0.025754748 0.1321701 -0.27765554 -0.033735007 -0.0036463472 0.08107037 0.041324582 0.07456381 0.11516775 0.0049191597 -0.2834219 0.05338051 0.004623385 0.044868134 -0.17826407 -0.15790935 0.2330362 -0.009333723 0.16203946 -0.08129922 -0.05029686 -0.014732377 -0.032250416 0.09566889 -0.06910991 -0.023836104 -0.03665152 -0.11647701 0.053972278 0.36585325 0.15304627 -0.015521364 0.027107628 0.04314098 -0.209586 0.08842041 0.06957427 0.058900867 0.20251738 -0.07592156 0.15613535 -0.027841805 -0.13692047 0.027381932 0.058251455 0.17072466 -0.16295756 0.08952947 0.08748707 0.092731714
48 0.007202319 -0.010452102 0.13000032 0.04162736 0.008420714 -0.14311193 0.29241285 0.077767536 -0.06325477 0.12534504 0.06930158 -0.21243897 0.05758046 -0.2690796 0.11029114 0.33071727 -0.24448986 0.048109163 -0.044881318 0.16726092 0.10524534 -0.02643621 -0.16889806 0.058460195 -0.049410623 0.12420153 -0.17973235 -0.022490274 -0.046493735 -0.08360397 0.19063719 -0.043650635 0.19795373 0.16159643 -0.12506987 0.14428839 0.08630812 -0.16166814 -0.03996209 0.27435678 0.03291065 0.10143672 -0.056141563 0.052983783 -0.14550395 -0.12195938 -0.08467192 0.14835015 -0.0012202578 -0.03322405 0.040788174 0.07876915 -0.12182217 -0.04298664 -0.14009556 -0.08877179 -0.024259808 -0.02705994 -0.16485211 -0.12756576 0.058127202 0.0024851763 0.112058945 -0.120544046 0.011068625 -0.05144397 3.156541e-05 0.07530251 0.010886535 0.061308734 0.029193686 0.1635344 0.0038451576 -0.13696212 0.009392932 -0.015596359 0.101171136 -0.19138092 0.05536262 -0.07115489 -0.18217884 0.24913263 0.12589762 0.04360323 0.048004083 0.062076114 0.055273324 0.06457157 -0.024870178 -0.061307736 0.0032172513 -0.21867324 -0.12559621 0.039146267 -0.043722644 0.17781666 0.033911828 -0.12508777 0.14704382 -0.107841305 -0.1589204 0.07917997 0.0929753 -0.11378126 0.053164717 0.2370221 -0.041647118 0.26753134 -0.090868585 -0.19790365 0.07854146 -0.16451882 -0.09123342 0.17175849 -0.05200818 -0.048370045 -0.004442273 -0.14140274 0.13237475 -0.06885473 0.07333691 -0.1572045 0.08634714 0.03033113 -0.11022518 -0.08529433 0.08865047 0.020690458
330 0.06295697 -0.05072828 0.20584372 -0.07941354 0.19510217 -0.097241245 0.06829413 0.11692729 0.060750853 0.22317751 -0.087239705 -0.08747286 -0.030268202 0.073924445 0.0035857602 0.2553916 -0.17104767 -0.019353123 -0.20610555 0.13815673 0.11087631 -0.04014541 -0.116405785 0.024591483 -0.20270303 0.14267576 -0.07404692 0.23172095 -0.07352332 0.120569214 -0.1847682 -0.043185223 -0.17929304 -0.024642786 0.053877223 0.09865613 0.22719248 -0.07008433 -0.19977292 -0.015720615 -0.14080308 -0.12901981 -0.24523744 -0.1762187 0.23375991 0.012659659 -0.10968977 -0.17190658 -0.00052571064 -0.03491685 -0.086892836 0.048806913 -0.06535743 0.16414843 -0.084866986 -0.06376675 0.048920657 0.22372288 0.14636819 0.086612806 -0.15723397 0.18866035 0.35608298 0.12106491 -0.06843398 0.023031378 0.036197342 0.026842086 -0.09956056 -0.24924286 0.09546082 0.1311908 -0.18070224 -0.10930497 -0.11368792 -0.1690572 -0.037859578 -0.06354333 -0.065456524 0.02122591 -0.16170277 0.02024393 0.11471842 0.13375829 -0.04412848 0.23073156 -0.03982237 -0.21028003 0.032621495 -0.010831496 0.07971434 -0.032718368 0.09313498 0.1674238 0.07455193 0.11120752 0.12507144 -0.10207058 -0.11652709 -0.18122044 -0.12799293 0.046248563 0.00031495822 0.17153893 0.0134025 0.07158476 -0.10357532 0.25743225 -0.088436976 0.19670817 0.05321361 0.17968595 -0.06743862 -0.11834812 -0.018491602 0.14027905 -0.0849439 0.21027184 0.14059146 0.042947665 0.022542123 -0.07141489 -0.06342751 -0.066255435 -0.034200754 -0.21513964 -0.0110064875 -0.027877808
28 -0.054351095 -0.073048465 0.0016216547 0.06985762 0.18693602 -0.05792134 0.2050222 -0.026636558 0.021836637 -0.09816917 -0.026738098 -0.24817291 -0.026945405 -0.29637423 0.19209059 0.0946861 -0.19063921 -0.018414833 -0.11843386 0.2302931 -0.052878816 -0.052339625 0.025806805 0.047766056 -0.10487002 0.18733887 -0.24175009 0.10221855 -0.011636956 0.027699089 0.007922382 -0.21668492 0.24892685 0.020656206 -0.0015949974 0.3052141 0.1251096 -0.18288302 -0.016242838 0.2523402 0.272109 -0.043996967 0.020436868 0.093685225 -0.2543224 -0.10661391 0.060316212 0.10129708 0.02806164 -0.032112937 -0.020902595 -0.020819485 -0.07453675 0.16983192 -0.100970745 -0.028604196 0.28685734 0.21769367 0.061551794 -0.26048106 0.08453602 0.16080463 0.037002712 0.03800952 -0.14318255 0.10251907 0.111476645 0.0017600694 -0.09989466 -0.0008763419 -0.028940147 -0.0493563 -0.16201153 -0.07882662 0.20331599 0.13413581 -0.09029126 -0.11660684 -0.0012361057 -0.028783359 -0.16066256 0.048790347 0.10661944 0.07454093 0.13933486 -0.08795935 0.016772278 -0.009439371 -0.17435154 0.06921488 -0.05969682 -0.1280131 -0.039826065 -0.0058300295 0.03158936 0.09958265 -0.054871388 -0.028002944 0.10376746 -0.10321824 -0.23607518 -0.074932836 -0.074195355 -0.0081710275 -0.02070142 0.2516223 0.09984859 0.038614366 -0.066524684 0.21306463 -0.07311756 0.33687276 -0.2177182 0.13573855 0.020081766 0.02861148 0.021217247 -0.055451952 0.124429934 0.11408946 -0.07627139 -0.11750633 -0.11506618 -0.0063966266 -0.30277187 -0.012558443 -0.051403172 -0.021105804
774 0.15562806 -0.097022034 -0.046289813 -0.17388175 0.28801432 0.17408127 0.11735795 -0.06433279 -0.18678626 0.0631273 0.01048978 -0.09778778 0.0014273335 -0.15684265 0.095130414 0.25632313 -0.16577676 -0.064913414 -0.023796026 0.19477959 0.063219555 0.07557042 -0.13696603 -0.16754888 0.069381975 -0.042621825 0.07290366 0.077566735 0.03595136 -0.08238991 0.34927452 -0.19288705 0.0036756585 0.12294027 -0.07011646 0.025433624 0.14778854 -0.11697339 0.08818793 0.12303627 0.2398026 -0.02176773 -0.16863714 0.06791662 -0.06169006 -0.056775123 -0.0463011 -0.20826265 -0.016039172 -0.06320306 -0.012682152 -0.07428958 -0.030244917 0.15902184 -0.1101379 -0.15284808 0.05076275 -0.16395962 -0.14115384 -0.11274576 -0.033368897 0.07510783 0.17762192 -0.04572903 -0.06581501 -0.20155717 0.022978144 0.09776458 0.03296561 0.017202152 -0.09028565 0.099593125 0.01739596 -0.09694135 0.05515682 -0.07053723 0.013785844 -0.09749536 -0.19141911 -0.13415328 -0.18317099 0.049642 0.11887178 -0.079851456 0.03342908 0.30989915 0.11834311 0.09086998 -0.1597004 -0.0027667824 -0.11923339 -0.1504294 -0.08450082 -0.040806 0.18072072 0.04499579 -0.18705043 -0.22032136 0.2367011 0.048156608 -0.07799489 -0.023792256 -0.049621947 0.17353253 0.034004662 0.22626637 -0.09997012 0.32062984 -0.051554665 0.02292658 0.092321366 0.18508933 -0.14735049 -0.011140269 -0.04546037 0.10696269 -0.09136404 -0.14679435 0.086426094 0.048820958 -0.07159125 -0.08431181 0.23449846 0.06315648 -0.19113153 -0.05726285 0.042464435 -0.052959144
26 -0.052037165 -0.029322283 0.0041759075 -0.025119012 0.23177415 -0.10710235 0.26899126 -0.021885928 -0.10123141 0.0724276 0.22894682 0.15127812 -0.02621971 -0.21649173 0.116382495 0.19614631 -0.13403979 -0.11256018 0.074117705 -0.11905415 0.10514495 0.032061856 -0.30520004 -0.081717856 -0.2211502 0.090066195 -0.1720244 0.06771745 0.03245945 -0.24705967 0.12019929 -0.11886592 0.028335746 0.033998884 -0.031337734 0.13828102 0.083701245 -0.18768205 0.14069203 0.18167813 0.2286854 0.055889018 0.03826138 -0.12935968 -0.038808424 -0.059388448 0.14639886 -0.16730651 -0.07902607 0.034552585 0.051791437 0.23397437 0.2517007 -0.059834555 0.12310805 -0.11470702 0.15516774 -0.04341683 -0.037744664 -0.2400465 0.034272853 0.06483186 0.021897275 -0.13021986 0.040920872 0.13132924 0.08419512 0.12762783 0.20450822 0.11523407 -0.015361056 0.20459744 -0.12158415 -0.17515187 -0.104847625 -0.04973594 -0.05460653 -0.06966657 -0.13023946 0.029961308 -0.3546527 -0.057971667 0.11359833 -0.1070597 0.19684438 -0.069864176 0.23983379 0.11183132 -0.079937495 0.1553717 -0.035959415 -0.0001022542 -0.12342896 -0.083296634 0.04952575 0.006940075 -0.098858245 0.07542088 0.14076795 -0.08652414 -0.17688227 0.1032992 0.008034615 -0.099388026 -0.045255538 -0.06322033 -0.09581533 0.1428217 0.18772703 0.10041757 -0.020261006 0.24866867 -0.039996043 0.09457073 0.079734065 0.026806455 0.13231768 -0.10604392 0.16848646 -0.19664784 0.004176233 -0.29396185 -0.05899263 0.15596221 -0.2915995 -0.062233485 0.019316634 0.20375127
879 -0.013831949 -0.0396352 0.13294078 0.062376566 0.0742759 -0.08421253 -0.029781291 -0.055178788 0.13935226 0.042910524 0.17195414 -0.056426484 0.10939125 0.01583574 0.044385824 0.46406975 -0.120951176 -0.19932716 -0.23688836 0.29703107 -0.0035542347 0.099974334 -0.039591372 0.009875589 -0.15828162 -0.0073078116 -0.22730082 0.12809578 0.041514512 -0.1110278 0.0930957 0.04694447 -0.18421537 -0.109339654 -0.018216593 0.040584147 0.06981804 -0.008582717 -0.03446179 -0.06299623 -0.03376951 0.06707173 -0.09189955 -0.107190415 0.26335362 -0.004395513 0.046079963 -0.096392296 -0.20473826 -0.074472696 -0.1684624 -0.06267762 -0.3075548 0.079755016 -0.029886797 0.0066751335 0.2736376 0.06558343 -0.045482002 0.22540233 -0.08505741 -0.020031499 -0.0042120405 0.015887352 -0.05789255 -0.03001781 0.25432914 0.10961353 -0.10975611 -0.11719438 -0.049061526 -0.049957436 -0.12111136 -0.14688419 0.084128276 -0.18899153 -0.20306908 0.011776446 -0.08893296 -0.06448296 -0.14718911 -0.0921527 -0.11748324 0.1789974 0.0012945432 -0.0873022 0.08286326 -0.00436 0.24009891 0.030626683 -0.1872437 -0.21010403 -0.1662069 -0.0067374324 -0.006242614 -0.0065750587 -0.08953134 -0.07076754 0.07499945 0.0064962306 0.047936168 0.07989066 -0.14014943 0.17086986 0.093294784 -0.004879443 -0.03537885 -0.08626364 0.06017968 0.102241956 0.09319234 -0.11336164 -0.04691022 -0.12656942 -0.032694954 -0.10142868 0.016298125 -0.0062025283 0.16032222 -0.07234657 -0.018057166 -0.30292717 -0.0391106 0.07299999 -0.081479914 -0.17008747 -0.14201573 -0.0010090136
67 0.13501774 -0.045941528 0.12629001 -0.104329295 0.12241987 -0.0416704 0.14355376 -0.15192147 0.06704309 0.111739635 -0.0108137075 -0.11054028 -0.2010697 0.03253679 -0.21672025 0.2772587 -0.19386424 0.11181528 -0.036464192 0.07642398 0.20401311 0.059412982 -0.36288378 -0.12564147 -0.20889148 0.106994934 0.0837175 -0.013138664 0.082079835 0.03864245 0.01865928 -0.034770377 0.012615017 0.35038543 0.06386037 0.07594278 0.10548515 -0.29867965 0.009991838 0.30574587 0.1264715 0.123142056 0.07937636 0.08471876 0.089998014 -0.06260024 0.09767152 0.006177694 -0.03590953 -0.21930003 0.093663804 0.053174585 -0.22357981 0.017199595 -0.067355536 0.122311585 0.14088395 -0.11465061 -0.1421074 -0.13517512 -0.011998787 0.025143286 0.102983534 -0.105570465 0.18459542 0.11819688 0.08358354 0.1982536 0.09570691 0.046894994 -0.0787598 -0.12408679 -0.0048102858 0.057660196 0.029264888 -0.035896398 -0.08024698 -0.17144397 0.035427038 -0.09600398 -0.28677696 0.010052029 -0.11252489 0.0001472423 0.1612182 0.16723627 0.028166262 -0.04241299 -0.009212646 0.07342248 -0.10348487 -0.09728605 -0.19312134 -0.090750806 0.003673632 0.21199094 -0.03295293 -0.053779975 -0.039690092 0.059211425 -0.16130282 0.015957318 -0.18953568 0.07240823 -0.016204592 0.09316304 -0.18932423 0.043091 -0.08518959 0.09522724 0.08287996 0.12915647 -0.16123883 0.0399822 -0.18700145 0.050299834 0.1819255 0.09103192 0.22261353 0.101697065 -0.08571386 0.005311029 0.093404576 0.09420234 -0.17556192 -0.106154315 0.022433238 -0.06443025
29 0.014733671 -0.10163754 -0.0926253 0.011728332 0.16616024 -0.091441885 0.088412 0.007989689 -0.10131829 -0.1516611 0.102382176 -0.0048984247 -0.03311457 -0.23640458 -0.073530994 0.16658501 -0.29777658 0.12226476 -0.16946499 0.1255564 0.16489346 -0.2084344 -0.34103286 -0.14592595 -0.16106445 0.08839992 -0.124271266 0.060778867 0.042014275 -0.098236084 -0.11742631 -0.04950325 0.22569066 0.09417668 -0.04703249 0.097795576 0.014386758 -0.28106758 0.0012846126 0.2646064 0.11769523 -0.063528664 -0.3115828 -0.03871634 0.093661144 -0.072326355 -0.16369417 0.00949763 0.103161715 0.12820764 -0.061636187 0.14284119 -0.12941007 0.15157838 0.0318467 -0.14836283 0.20836446 -0.01655937 0.029597435 -0.38865924 0.063180715 -0.051602002 0.09776785 -0.14932936 -0.009494416 -0.15503956 0.09038183 -0.2523909 -0.040058203 0.011824483 0.025174526 0.077552535 -0.024998158 -0.012435022 -0.14754438 0.14007121 -0.065679766 0.013362137 0.023680089 -0.29233646 -0.1675434 -0.12524201 0.022139158 0.14213593 0.08641515 0.08887564 0.06956255 0.110724784 0.087395996 -0.07123438 0.059441917 -0.075701945 -0.02511347 -0.18193515 -0.05294661 -0.10792219 -0.028986402 -0.048549432 0.047589205 -0.14138864 -0.17608751 0.16828838 -0.17054187 -0.016751092 0.059528593 0.23405722 0.062130958 0.29987016 0.14783745 -0.061005127 -0.075971134 0.017797362 -0.07185136 -0.009387292 0.036663137 -0.00923239 -0.08188582 0.013885961 0.16257133 0.12908992 0.058311872 -0.015657062 0.25803348 0.094925575 -0.15965362 -0.06806966 0.03719363 -0.17071484
804 -0.018893182 -0.009812531 0.026396 -0.0977306 0.02242553 0.021708632 0.058297113 -0.0633794 0.049816135 0.27408618 0.07086068 0.050589412 -0.04910589 -0.07091147 0.18349008 0.11000989 -0.012672859 -0.09371467 -0.09261703 0.12744401 0.05376201 -0.025626201 -0.096128464 -0.25946385 -0.3434932 -0.032756463 -0.24701932 -0.0827236 0.022302046 -0.06720899 0.070854455 0.13528648 -0.08232683 -0.053283766 0.03346507 0.10501813 0.04564448 -0.08052408 0.04331838 0.09026666 0.0035879652 -0.033612564 -0.058348414 -0.00888749 0.15710014 0.26225102 0.031642888 -0.122007824 -0.13319874 -0.012427359 -0.0060254107 -0.13277222 0.16004133 0.23866552 -0.04921937 0.076518856 -0.025613476 0.0060984436 -0.1571373 0.048664495 -0.06324902 -0.022229586 0.11724139 0.0054216827 0.17482992 -0.051586267 0.1325452 -0.08475501 -0.15883662 -0.25797322 0.030081775 0.09909079 -0.24927102 -0.1339141 -0.13356292 -0.15652972 -0.0841566 -0.028068379 0.04905737 -0.038059916 -0.1948584 -0.0562853 0.013879281 0.16521859 0.073768966 -0.0054047224 0.1036578 -0.20424163 0.13095032 -0.13631321 -0.14092112 -0.15633729 -0.18717068 0.13458657 0.18801689 0.13436116 -0.016068129 -0.013037058 -0.074130565 0.011503458 -0.26107395 -0.022256494 -0.20601417 0.11436427 0.007244339 0.0966369 -0.01996836 0.16390052 0.07470822 0.23881109 0.18423168 -0.22153099 0.12658364 0.12220136 -0.07975562 0.063666 -0.112465486 -0.046588637 0.06648897 -0.16002567 -0.15161848 -0.1688048 -0.020292684 -0.047903363 -0.06682221 0.029827038 -0.14247218 0.1056284
405 0.054432504 -0.1535898 0.003700082 -0.07750667 0.27315077 -0.021844845 0.13742705 -0.1184657 -0.10267094 0.14532197 0.20585969 -0.11071074 -0.03369149 -0.015579566 -0.08515622 0.14330098 -0.21030849 -0.12612887 -0.027566882 0.2304936 0.15044719 0.096981175 -0.33663443 -0.21783718 -0.067478105 -0.084545225 0.067688055 -0.03152553 0.0626434 -0.15367474 -0.08277298 -0.09109815 0.04295569 -0.035277802 0.040133387 0.06069742 0.06781662 -0.08828858 0.12103863 0.2358721 0.10039145 -0.03295975 -0.18292592 0.046653178 0.01149522 0.02394087 -0.22933102 0.1289442 0.008515156 -0.12291248 0.11736313 0.055402737 0.013194318 0.13174431 -0.08193222 0.07930268 0.3623377 0.0120758135 0.010369101 -0.28808615 -0.28472924 0.18323195 -0.027944235 -0.14747709 -0.051022436 0.014766995 0.118815705 -0.00620184 0.16596502 0.027375868 0.06875783 -0.11638317 -0.04250175 -0.21229164 -0.017087277 0.12690505 0.16003008 -0.10649348 0.097561695 0.02015735 -0.29557234 0.1935346 -0.007181418 -0.018196432 0.08828198 -0.030786352 0.02632436 -0.19937836 -0.07357723 0.16987519 0.015421866 -0.062640436 -0.2638955 -0.04545635 -0.045023076 -0.03879853 -0.055283744 0.03511823 0.063627966 0.0012623457 -0.0037294177 -0.03366784 -0.05808052 0.0475043 0.080289796 0.13617621 0.051587828 0.05591153 -0.16870955 -0.0133439265 -0.06501007 0.19674212 -0.1464644 0.105534315 0.10917104 -0.03280286 0.12134576 -0.15587652 -0.00540375 0.037817817 -0.23466308 -0.1531219 0.005530987 0.07574118 -0.08273814 -0.14298305 -0.06590135 -0.0055848784
503 0.034596976 -0.13987635 0.22213645 0.05583353 0.08555297 -0.0025247987 0.124616034 0.057514917 0.02532066 0.07427289 0.0055933096 -0.000783611 -0.042645082 0.011125253 0.087487526 0.16671239 -0.19372216 -0.03847249 -0.22753096 0.19773482 -0.061940506 -0.26404408 -0.025854541 -0.1273392 -0.22860166 0.27310094 -0.015331653 0.058490224 -0.037226398 0.052998576 -0.020911397 0.08364756 0.0009392245 -0.16327782 -0.035603277 0.07196269 0.04130793 -0.053330794 0.02685608 0.10831064 -0.03784785 0.020770207 -0.14350307 0.03297903 0.27314267 0.16212265 0.067076154 -0.06684854 -0.04839826 -0.102977045 0.09142726 -0.120878026 0.045445886 0.15586157 -0.114972256 -0.11815375 0.02733574 -0.007422849 -0.15251061 0.1840475 -0.032895505 0.20873559 0.073210314 0.070482254 -0.047254782 -0.11191528 -0.0035248247 -0.109908015 -0.0895171 -0.011786975 -0.052561987 0.01243103 -0.12276316 0.014585166 -0.07396885 -0.10541379 -0.18919651 0.011619808 -0.054936364 -0.012398575 -0.1746961 -0.20961656 0.06584771 0.1812895 0.05650661 0.06233272 0.003293184 -0.23905087 0.04980702 -0.098287754 -0.1202363 -0.09947398 -0.0707914 -0.045685045 0.11771845 0.01194846 -0.072666645 -0.29919055 0.015808944 -0.019095985 -0.13434528 0.26499417 0.18466273 0.080704086 0.016316796 0.104668185 -0.26488715 0.16060933 0.19831836 0.07664588 0.005740589 -0.16515298 -0.020046322 0.13747719 -0.11584804 0.25341037 -0.01664172 0.19796048 0.117700495 0.014394878 -0.02114826 -0.11955311 -0.0061340868 -0.090571366 -0.050509773 -0.0239538 -0.2307404 0.05981115
853 0.014390199 0.07384295 0.08160201 0.015479102 0.0060120593 -0.14308661 -0.05383226 0.13074043 -0.0923306 0.15282959 -0.040058546 0.11617492 -0.00060945423 0.020494957 0.15044777 0.09846441 -0.22297981 -0.024016585 -0.08849233 -0.09747042 0.07361543 0.15974414 -0.31248876 -0.03810619 -0.17150848 0.20588085 -0.21766624 0.14228967 -0.13335967 -0.05842919 -0.006104747 0.07454837 0.013063796 -0.08281401 0.043670338 0.10548217 -0.008830929 0.1912585 0.14722978 -0.0042634066 0.063809745 0.082685485 0.027854433 -0.040653083 0.20091695 0.004134245 -0.03083181 -0.107127644 -0.10510339 0.11840748 0.19937097 0.03510399 -0.23804978 0.08690697 -0.12697205 -0.05854052 0.11466134 0.1805282 -0.21042691 0.24284738 -0.039278753 0.021071116 0.07333142 -0.034254134 0.18797673 -0.13295868 0.019045841 0.01787136 -0.023215612 -0.14482656 -0.0040214667 0.051288236 -0.37590715 -0.2819611 -0.0105238715 -0.11032102 -0.12195068 -0.18352985 -0.22580013 -0.024125539 -0.1912724 -0.013531016 0.09187932 0.31767225 -0.037851132 -0.0060166162 0.14011724 -0.06637428 0.14202611 0.110040665 -0.12114165 0.07559533 0.15899174 -0.07787085 0.08724794 -0.030140754 0.08019014 -0.17872162 -0.054386843 0.26625904 -0.11424136 -0.085872374 -0.15119998 -0.043329865 0.11475708 0.09036622 -0.040256053 0.08333593 0.060531445 -0.08359984 -0.1189842 -0.15849249 0.054378644 -0.039160635 -0.05038334 0.022605898 0.04008634 -0.0854249 0.04025015 -0.02544775 -0.13221645 -0.31654516 -0.22146963 -0.08023313 -0.15944044 -0.07326033 -0.23114529 0.070838794
