23 10
14 -0.08004305 -0.056517605 0.17940794 -0.044087928 0.1972828 0.033501536 0.69060737 0.4830604 -0.55249023 0.070862785
16 -0.17844437 -0.11512385 -0.0026896675 -0.0628197 0.19178496 0.09365597 0.68290925 0.44679633 -0.59781206 0.052544028
10 -0.05771722 0.011148307 0.14917634 -0.11003014 0.33626577 0.05783409 0.5855785 0.47840786 -0.6311046 0.011292855
11 -0.14495124 -0.094295986 0.27860323 -0.18369322 0.20976345 0.0028029194 0.7471686 0.2577813 -0.5946014 -0.042970754
15 -0.25071338 -0.0056781797 0.055838335 -0.13880154 0.24224457 0.07736792 0.67245764 0.53707653 -0.48629493 0.15202647
21 -0.19131708 -0.030321108 0.097019486 -0.16378534 0.34260654 0.04141979 0.6976229 0.3445255 -0.5366916 0.15038761
22 -0.10559945 -0.10291037 0.10735357 -0.17397258 0.2214126 0.054207794 0.63996524 0.43898115 -0.61355615 0.016907461
1 0.048625212 -0.023410913 0.17008795 -0.16478014 0.35198757 0.08570926 0.69449824 0.40441063 -0.5375386 -0.05566429
19 -0.14888604 -0.008164237 0.24391714 -0.0704924 0.21477076 0.083988085 0.6781453 0.4025527 -0.5776874 0.1484362
20 -0.055014443 -0.09604114 0.2069478 -0.103530124 0.4051333 0.11632303 0.64229107 0.3798612 -0.547886 0.10609176
3 -0.19877657 -0.06307507 0.23444557 -0.050728347 0.27850085 -0.014196171 0.7043545 0.43715626 -0.49939153 -0.0052415114
23 -0.1484863 -0.173597 0.09370359 -0.050099704 0.26954862 0.14684829 0.68726486 0.41008338 -0.55628264 0.04906478
4 -0.045622855 -0.11921615 0.27291635 -0.18596838 0.338084 0.0912864 0.6110179 0.47832718 -0.53972554 0.09331899
12 -0.005444275 -0.1388023 0.1708215 -0.08556925 0.26616076 0.09861459 0.7509699 0.45637047 -0.44856295 0.15204829
17 0.023524618 -0.08162003 0.10769864 -0.050444845 0.20318218 0.13309705 0.7057137 0.44000977 -0.58697563 0.03403947
9 -0.0459418 -0.18318194 0.1338153 -0.07589087 0.23870307 0.165471 0.6924051 0.41832566 -0.5440015 0.1659626
6 -0.1577526 -0.033748947 0.13335541 -0.17206378 0.32731462 0.122763544 0.7305179 0.42966926 -0.44012573 0.11578074
18 -0.18443778 -0.16392562 0.15064254 -0.099500716 0.3043846 0.034241777 0.6745688 0.4406005 -0.5186045 0.07053478
5 -0.17582285 -0.08591498 0.19163789 -0.17432088 0.30744725 0.08629171 0.7039409 0.3398327 -0.5362939 0.011572724
2 -0.13922943 -0.10380481 0.16926697 -0.16756378 0.19432499 0.072525755 0.6856265 0.39577952 -0.57994807 0.07226707
7 -0.07036889 -0.037716646 0.09298793 -0.15860865 0.38160777 0.1430705 0.5866273 0.42871332 -0.59154457 0.09044393
13 -0.11786438 -0.08100088 0.21985672 -0.05916497 0.31629023 0.02478174 0.67208946 0.3964932 -0.5798784 -0.05405008
8 -0.20786484 -0.18667947 0.04943259 -0.1938144 0.31693918 0.062293038 0.6696191 0.40605348 -0.532299 0.15229581
