1219 10
783 0.1747474 0.0058633317 0.20037593 -0.09325362 0.38844818 0.1692911 0.03783574 0.11918875 -0.47075176 -0.54525465
899 0.2674608 -0.0030354962 0.062390737 -0.10885542 0.23617148 0.17032991 0.07478423 0.24945146 -0.39077604 -0.5405201
918 0.1829209 -0.0396493 0.013147383 -0.04315797 0.31138945 0.06016191 -0.025205683 0.12463062 -0.5312156 -0.63383186
348 0.26566744 -0.055402264 0.17558815 -0.072526895 0.3508549 0.06947829 -0.037119076 0.054395273 -0.43324488 -0.5863113
391 0.09959069 -0.12817432 0.029510986 -0.14637616 0.41617024 0.08260454 0.06346077 0.23980786 -0.6367527 -0.51042455
869 0.39181197 -0.38671505 -0.0001293526 0.16329624 0.4384273 0.13985907 0.3420422 0.23529314 -0.2220521 -0.17910352
632 0.119091235 -0.20062609 0.15435477 -0.07623089 0.531178 0.07299332 0.06579728 0.29671046 -0.45649403 -0.4387303
798 0.35060456 -0.3636913 0.09961778 0.18534672 0.5193101 0.16466123 0.3867514 0.15897435 -0.29134864 -0.14200921
803 0.2744746 -0.41753164 0.1184642 0.09876577 0.48325607 0.1480023 0.3682693 0.22549269 -0.25261223 -0.26794395
568 0.41655433 -0.35393593 0.05286047 0.033872794 0.4922364 0.002556507 0.39534757 0.16863863 -0.4256036 -0.16706474
54 0.2588704 -0.4643127 0.02114105 0.21353208 0.56295395 0.10812757 0.26768875 0.10885278 -0.33635643 -0.23232906
55 0.2804739 -0.3885708 0.09369877 0.068123214 0.55412847 0.16518371 0.36653048 0.18442406 -0.29779744 -0.18906687
847 0.24835585 -0.43647245 0.19930406 0.16541974 0.538075 0.2317885 0.3893769 0.291765 -0.28195354 -0.15982465
253 0.29907444 -0.41693544 0.20378071 -0.027995342 0.48685738 0.23552047 0.35391578 0.10410599 -0.28916106 -0.23968272
251 0.33994937 -0.33457062 0.027161025 0.0032741008 0.5009057 0.06698904 0.34511673 0.20829014 -0.38504884 -0.20270237
574 0.30669674 -0.41940618 -0.11662191 0.060064983 0.5340392 0.13641922 0.33303618 0.07135842 -0.38428414 -0.18457352
852 0.28831744 -0.34731522 0.035675295 0.11613684 0.46192098 0.23385423 0.42566976 0.24287924 -0.22966631 -0.21195963
250 0.38295174 -0.44407716 -0.014509491 -0.01827001 0.5234325 0.050774913 0.24417596 0.12492725 -0.38989356 -0.17622972
492 0.35266763 -0.38321894 0.11735756 0.053132053 0.5135969 0.03679988 0.3148356 0.1361205 -0.38599136 -0.2235066
873 0.43624115 -0.33756822 0.13484654 0.0981693 0.43502012 0.042006385 0.3996101 0.20126985 -0.30196843 -0.20353295
330 0.35962337 -0.48544192 -0.18859795 0.20845208 0.30703267 0.21415676 0.2827827 0.15734373 -0.334794 -0.23347867
1218 0.3696797 -0.40954524 -0.11628247 0.362924 0.3311471 0.258123 0.2778998 0.1325831 -0.15627187 -0.2516077
693 0.3962591 -0.4912562 -0.16746542 0.24469507 0.24841844 0.19613947 0.31349757 0.097560875 -0.3505549 -0.26850787
52 0.2656381 -0.41534942 0.15064178 0.061266605 0.5594791 0.15489505 0.43477795 0.080372445 -0.29329297 -0.25302184
499 0.32384455 -0.40564907 0.09738923 0.09535212 0.43401113 0.18237694 0.394565 0.16137621 -0.29953596 -0.23401584
696 0.3567531 -0.43088886 -0.025108993 0.11882293 0.21837625 0.29868308 0.3706205 0.29092622 -0.31169873 -0.24989273
879 0.374932 -0.26303113 -0.009894676 0.27637002 0.622391 0.00052403746 0.29890028 0.21252584 -0.1485814 -0.17650971
1216 0.386456 -0.415651 -0.088993825 0.356381 0.21093349 0.19367021 0.49535438 0.17467448 -0.28279397 -0.29832292
1151 0.33050877 -0.5165962 -0.06087497 0.41332522 0.30514157 0.29997918 0.23147921 -0.061214056 -0.26758796 -0.311318
569 0.091036394 -0.21085499 0.05424211 0.15385886 0.6852897 0.09814532 0.2886415 0.26694125 -0.3163998 -0.30956662
875 0.29084015 -0.41050798 -0.100806415 0.11339075 0.5043724 0.072561815 0.40492538 0.30761442 -0.13492101 -0.27705824
1149 0.33022252 -0.48464185 -0.11397649 0.20908907 0.31450546 0.34005192 0.36004445 0.18038015 -0.28700215 -0.18378174
797 0.24635172 -0.27753255 0.00053592294 0.23668477 0.59781086 0.043132354 0.31921938 0.35334456 -0.17929062 -0.24237166
603 0.31056055 -0.44368145 -0.22562706 0.22971177 0.36311162 0.22684352 0.29932696 0.025795802 -0.32723862 -0.2830784
808 0.33242357 -0.28036934 0.19685923 0.26097342 0.5589461 0.09010388 0.35392985 0.22543682 -0.21681547 -0.20423834
789 0.23243637 -0.1565154 0.14830843 0.092447214 0.6066975 0.054454215 0.08216918 0.20688754 -0.31100744 -0.33357382
790 0.1663481 0.05978119 0.044152953 -0.18860303 0.38845107 0.10148611 -0.030461375 0.16340837 -0.6477186 -0.5238473
491 0.34676924 -0.19695912 0.24533743 0.17024103 0.57405984 0.17804192 0.36665428 0.256249 -0.11899706 -0.17079343
403 0.35580787 0.17286864 0.08063413 0.0844625 -0.004700722 0.26825354 -0.100807436 0.33566934 -0.49434668 -0.5657645
804 0.2618363 -0.26359352 -0.03805689 0.10220469 0.52491236 -0.0029983027 0.4434578 0.33498916 -0.2715654 -0.29593486
254 0.31269592 -0.36416456 0.13713773 0.16079678 0.61686766 0.14456275 0.29633403 0.25333837 -0.15817383 -0.15519848
878 0.37808383 -0.25224605 0.01915067 0.22022483 0.60605127 -0.09006918 0.2986023 0.27706566 -0.2579088 -0.19248019
853 0.21388167 -0.31231225 0.00029595252 0.074834995 0.6748602 -0.034116313 0.23169798 0.26082593 -0.39293045 -0.24660937
1168 0.31790808 0.0773029 0.13757779 -0.084282294 0.07988554 0.33183494 -0.1908014 0.19637801 -0.5982053 -0.52486724
856 0.44890437 -0.34197098 0.030862212 0.20422585 0.5125225 -0.043824002 0.3305636 0.30471098 -0.23257941 -0.15215725
600 0.31434515 -0.51246953 -0.053432226 0.32196388 0.29774454 0.28658587 0.338849 0.13086157 -0.2788987 -0.26396433
65 0.39180353 0.050761607 0.16251175 0.016672514 0.14197849 0.25612867 -0.2391388 0.21417165 -0.56421983 -0.42940018
1090 0.3294491 -0.009355347 0.09437923 0.015357341 0.09733034 0.26223096 -0.17900737 0.27028063 -0.54059523 -0.49796867
666 0.30342397 0.058057472 0.20015834 0.188497 0.047246452 0.4002288 -0.18073897 0.30951908 -0.47618458 -0.48608425
807 0.32280275 -0.29554233 0.050918635 0.20419441 0.590209 -0.03106174 0.3361862 0.3149687 -0.18556996 -0.24051094
854 0.35339606 -0.25746948 0.15221615 0.26036403 0.52941626 0.0374698 0.38025722 0.40355 -0.19759393 -0.17343725
850 0.33160278 -0.34786135 -0.05745157 0.26073796 0.50538594 0.06931325 0.31857207 0.3523081 -0.240124 -0.17475529
333 0.34249738 -0.4736745 -0.2089509 0.11300195 0.31822821 0.1530437 0.2981739 0.06875946 -0.30240026 -0.3445355
1099 0.30758932 -0.443453 -0.038528513 0.05151335 0.3983485 0.34479576 0.17519392 -0.053022303 -0.27750087 -0.27818832
500 0.34258738 -0.2511202 0.02633552 0.06932029 0.6281087 -0.00507816 0.41029832 0.23884727 -0.2517808 -0.17983425
249 0.29508606 -0.2955873 -0.013848413 0.17015117 0.49678922 0.06333988 0.28110713 0.36369514 -0.19887677 -0.26395926
998 0.47470626 0.1671699 0.18386735 0.054455597 0.10642364 0.23097764 -0.19101453 0.18829009 -0.4918002 -0.4315122
650 0.3764885 0.17441843 0.22983614 0.10079228 0.1332047 0.41393712 -0.2474583 0.25099403 -0.47151527 -0.3893029
876 0.27974024 -0.34154296 -0.017415268 0.26001775 0.5677007 0.00784845 0.3508369 0.22327983 -0.18139376 -0.29195654
1089 0.39921853 0.10805991 0.033177976 -0.15124688 0.055632316 0.32852042 -0.2042284 0.28819785 -0.55769426 -0.44051394
575 0.35316214 -0.22889577 -0.31018916 0.107939534 0.4904709 0.5568343 0.46052557 -0.14479214 -0.31831348 -0.0009955927
570 0.2620264 -0.25679645 0.11818959 0.15451524 0.5231713 0.1429345 0.3642637 0.25225636 -0.26646307 -0.24696274
149 0.17331584 0.10542567 0.16653611 0.20317034 0.14144646 0.44539455 -0.2652222 0.29987404 -0.47457728 -0.5408497
724 0.23872161 0.11401182 0.23462641 0.13398927 0.16009243 0.37839833 -0.21421993 0.03410835 -0.5731513 -0.5681139
702 0.37703145 0.07575536 0.15863276 -0.06943779 0.12470512 0.28324717 -0.24205571 0.09467457 -0.5519455 -0.51702654
735 0.45944422 0.08835468 0.16330774 0.03733084 0.13281776 0.1572964 -0.21728313 0.2570859 -0.5730074 -0.41602793
649 0.3198031 0.059126135 0.098762415 -0.007915042 0.07752654 0.2711158 -0.19867103 0.11133482 -0.6074625 -0.57261026
774 0.44058672 0.08443948 0.1866859 0.10699484 0.16957541 0.194505 -0.2523321 0.042793147 -0.5166653 -0.47772437
67 0.41201913 0.06239438 0.14089456 -0.06936837 0.17104037 0.18461396 -0.26538393 0.12951912 -0.6139463 -0.4607307
501 0.41628098 -0.33488622 0.065703 0.17284666 0.5770659 -0.07135621 0.25973946 0.22267249 -0.23939776 -0.19474304
805 0.30545565 -0.36899576 0.10223639 0.13347064 0.5228575 0.042681634 0.43175653 0.2846425 -0.2343908 -0.25514576
1197 0.37892902 0.13437137 0.35405916 0.03629688 0.055169836 0.32645115 -0.1105366 0.18239084 -0.49064085 -0.5396454
1136 0.29641762 0.079859145 0.13423389 -0.03506153 0.05931764 0.38063616 -0.112237066 0.29208964 -0.49611056 -0.51685137
1137 0.3009765 0.14142671 0.110066324 0.150553 0.07346637 0.38318142 -0.18974993 0.26839146 -0.46891293 -0.50843114
256 0.36155975 -0.23074691 0.01717726 0.15815006 0.6321407 0.049214933 0.27407485 0.17685111 -0.21658361 -0.15760912
567 0.3902367 0.095684804 0.16874307 0.025791543 0.037879027 0.3531709 -0.12445304 0.3646538 -0.55264026 -0.393155
1144 0.2981118 -0.4094492 -0.19003142 0.35034797 0.36664027 0.17939563 0.3652924 0.15164605 -0.23978785 -0.29404148
712 0.33071572 0.11920973 0.17451581 0.012338213 0.11111975 0.3971534 -0.20794195 0.18593937 -0.47575808 -0.483796
47 0.37528712 0.13655229 0.08858332 0.1533842 0.0017356811 0.26246545 -0.121368594 0.207735 -0.4911005 -0.5721425
182 0.31937382 0.06087209 0.11754438 0.16217077 0.12274331 0.30336037 -0.21434145 0.21048754 -0.4953583 -0.4961839
504 0.27927548 -0.3242717 0.22012354 0.07185764 0.67284167 0.10586077 0.38292882 0.25431275 -0.15813541 -0.1796274
27 0.34855708 0.14001735 0.21263976 0.111806646 0.1388194 0.35868794 -0.2527108 0.056781452 -0.5014151 -0.5063633
66 0.45400706 0.15125196 0.22225527 0.0536368 -0.014361466 0.296605 -0.12234372 0.37152115 -0.4790246 -0.45231023
114 0.43453223 0.1544827 0.13559467 0.042884998 0.12012287 0.19766352 -0.1893145 0.18176138 -0.57341146 -0.4534946
440 0.30409616 0.17697757 0.16878659 0.0874396 0.24183133 0.28230315 -0.27711725 0.06590895 -0.4708593 -0.52455366
48 0.27879554 0.15454611 0.14106022 -0.0025385774 0.115516685 0.40674508 -0.10055944 0.28978023 -0.4611916 -0.48766166
503 0.44648644 -0.31972194 0.007091801 0.20530696 0.5714994 0.01962924 0.31081218 0.23765078 -0.14236347 -0.12704276
707 0.29929504 0.114337966 0.2635149 0.24089265 0.24087447 0.3762074 -0.387678 0.04134771 -0.44841528 -0.49677557
244 0.34152263 -0.23085885 0.053698953 0.2696189 0.6391621 0.007141818 0.21432935 0.21453321 -0.2037888 -0.19866402
166 0.25072885 0.15027355 0.16920668 0.08658449 0.092870586 0.4239354 -0.17954428 0.29790184 -0.43004656 -0.538565
51 0.36714974 -0.2861163 0.06200677 0.2507313 0.64635295 0.026872482 0.30827013 0.23340338 -0.1706337 -0.14112975
317 0.3287051 0.010535812 0.21114817 0.15740135 0.057918806 0.48824552 -0.19064237 0.24320124 -0.48961487 -0.4104749
857 0.2941295 -0.3026371 0.0059466027 0.21858457 0.5211206 0.10757904 0.3382645 0.31757337 -0.25318503 -0.19550624
113 0.3840937 0.081369564 0.20355082 -0.0840155 0.057505455 0.38207826 -0.19462954 0.12341753 -0.49873117 -0.5136059
160 0.36859787 0.18307 0.24247608 0.0734511 0.122005984 0.38647646 -0.20915459 0.17130661 -0.4463701 -0.47185332
708 0.26582715 0.068135284 0.081570685 0.20481724 0.1305888 0.32139146 -0.20949206 0.2330369 -0.47884682 -0.530464
1135 0.2885768 0.09599562 0.16883989 0.031939644 0.1311525 0.3735522 -0.1863415 0.33530185 -0.41455168 -0.48570842
248 0.26366284 -0.21268906 -0.018089669 0.09260785 0.68274826 -0.118801765 0.30341983 0.21576416 -0.3438067 -0.27380472
577 0.411922 -0.22743277 -0.15625463 0.02706486 0.5422865 0.4538526 0.35826164 -0.3137916 -0.37475276 -0.039642476
318 0.20802173 0.13085847 0.14563045 0.057893287 0.13059342 0.45955232 -0.17021109 0.34692952 -0.46622515 -0.48454332
303 0.4688383 0.14714842 0.19826284 0.1529464 0.033369478 0.3888584 -0.18462668 0.297181 -0.4199647 -0.37171853
706 0.38133305 0.15801106 0.114147276 0.13345885 0.16994399 0.2580667 -0.23451762 0.20303074 -0.55315983 -0.4172791
800 0.39918044 -0.5143029 -0.02975253 0.16969712 0.18921737 0.3557056 0.39102155 0.059936095 -0.23565546 -0.27616096
874 0.45218152 -0.29718316 0.12603143 0.13958548 0.54411 0.08315872 0.39199287 0.25273415 -0.102657296 -0.12584218
1211 0.33351836 -0.44425815 -0.18483336 0.4728221 0.40281358 0.17392278 0.23570329 0.11516587 -0.14968108 -0.27768964
485 0.34176087 0.036138814 0.14490907 0.0054929145 0.028059963 0.4047748 -0.24465835 0.31034496 -0.5762467 -0.45260918
455 0.4419886 0.11277065 0.17648582 0.16668358 0.13720575 0.21907485 -0.29654866 0.059421774 -0.5433927 -0.47976726
687 0.26023838 -0.47707617 -0.38418695 0.45714945 0.34751925 0.11755713 0.22322445 0.18520844 -0.33036688 -0.3252239
723 0.44533285 0.13698296 0.14666955 -0.065795824 0.05380067 0.33644068 -0.09616588 0.22650515 -0.5097627 -0.41246158
736 0.39530462 0.09028328 0.15276654 0.039549116 0.115913354 0.28744504 -0.08611121 0.20787065 -0.5337077 -0.4197987
689 0.40603435 -0.45089647 -0.17756303 0.55697066 0.3761722 0.24010333 0.19227874 0.20712942 -0.14679004 -0.14181088
1169 0.3213158 0.09763401 0.16806222 0.074976884 0.106380776 0.3511753 -0.14706069 0.09126492 -0.52079487 -0.52277505
670 0.3096444 0.24645661 0.08950206 0.21426852 0.04203779 0.3554843 -0.16527799 0.21849771 -0.5195773 -0.54676634
405 0.34371245 0.13748293 0.15433992 -0.0027204491 0.039459676 0.2799667 -0.047828525 0.31066364 -0.5879706 -0.4995287
673 0.4701852 0.17500791 0.22880568 0.079634584 -0.0021639094 0.2897543 -0.21390301 0.38888055 -0.4867601 -0.43384483
28 0.2207673 0.04211751 0.18009096 0.083674595 0.16441025 0.3716331 -0.31657544 0.17105669 -0.59748065 -0.5315252
327 0.38469958 0.12589094 0.009651294 0.06357553 0.005752009 0.3042306 -0.24185766 0.36385706 -0.54059774 -0.47709927
710 0.27875262 0.049952846 0.075863644 -0.032589216 0.13364589 0.27678114 -0.27459446 0.20346633 -0.6089626 -0.5460011
69 0.3890081 0.067129344 0.1102185 0.1250879 0.07071138 0.26973608 -0.12303365 0.28707698 -0.6393495 -0.39558247
278 0.24485931 0.08298415 0.13767292 0.107075654 -0.019184364 0.35733896 -0.10690205 0.22224034 -0.59822834 -0.6337454
1215 0.3230966 -0.4694348 -0.23333614 0.44885874 0.43094683 0.018497452 0.15880619 0.16059555 -0.25378284 -0.31585142
916 0.35044983 0.123880975 0.015261446 0.16117717 -0.040370915 0.34647962 -0.28618187 0.24275875 -0.5022274 -0.58399373
496 0.23101139 -0.27786243 0.11353655 0.24010585 0.5811349 0.066565484 0.38532874 0.32468846 -0.10895256 -0.3103653
96 0.5667911 0.20871061 0.2503961 -0.04353281 0.03632087 0.21616025 -0.17133701 0.24845155 -0.56556433 -0.37814087
709 0.41054273 0.040554702 0.14721636 -0.023676714 0.063328415 0.25542182 -0.23182915 0.15397839 -0.5363075 -0.5185467
1210 0.34159806 -0.5326701 -0.15681016 0.38523805 0.36550632 0.21181473 0.17934321 0.20701927 -0.10687522 -0.2655439
26 0.34909892 0.08872309 0.17542836 0.054709613 0.123343565 0.3889409 -0.2209182 0.2677038 -0.43013358 -0.43941268
282 0.38041228 0.12801932 0.11935264 0.18408877 0.10525733 0.2786877 -0.2621262 0.17871949 -0.4211917 -0.51667786
871 0.46733585 -0.4946837 -0.076053694 0.15348169 0.32307625 0.16421519 0.4910749 0.03444179 -0.31695786 -0.18022397
102 0.38086596 0.10469208 0.03422352 -0.058311578 0.16360179 0.21938531 -0.33188984 0.19311833 -0.5405357 -0.48791805
1134 0.36998114 0.13197027 0.28708753 0.13105714 0.18782368 0.3497338 -0.18670382 0.19616023 -0.44079337 -0.40932313
404 0.30895495 0.051184334 0.16693375 0.08657785 0.06573899 0.3487656 -0.17690581 0.28551 -0.56317186 -0.48236275
279 0.45381525 0.026838033 0.17895177 0.16986194 0.10413839 0.22929259 -0.22681694 0.20716964 -0.4529467 -0.43338528
1080 0.35486752 -0.2778284 0.002756101 0.06778187 0.5889268 -0.072479606 0.19074441 0.115507826 -0.30091918 -0.2901865
1213 0.3669865 -0.43692058 -0.10875601 0.37068635 0.37646613 0.22394046 0.29903877 0.15943728 -0.17026462 -0.22141236
29 0.39488545 0.14339752 0.15077066 -0.028843798 0.06246365 0.22619072 -0.19006397 0.34841353 -0.5122158 -0.5087635
661 0.38417938 0.121391304 0.22374912 0.21961933 0.12106043 0.47426778 -0.26279083 0.04723168 -0.40717992 -0.43410265
495 0.3163902 -0.45269778 0.040718302 0.077734664 0.40154874 0.37382856 0.44006592 -0.027008392 -0.16787931 -0.25988293
1147 0.31402794 -0.5370292 -0.17070554 0.2843729 0.297353 0.30130392 0.29934937 0.26113245 -0.16164318 -0.25188082
729 0.40549982 0.07883714 0.13978164 -0.081414446 0.053180538 0.4068807 -0.28563595 0.21054406 -0.45604452 -0.46117276
639 0.33450252 0.09907099 0.084852315 0.00240889 0.18774508 0.33097982 -0.28348514 0.20998958 -0.5013263 -0.44053894
50 0.47997022 -0.4366944 0.07575643 0.11807144 0.21957605 0.43826482 0.39131638 0.051644318 -0.22758798 -0.14778864
406 0.4400175 0.08391706 0.07958983 0.0025810227 0.08652132 0.21328956 -0.15300688 0.33371636 -0.5704859 -0.39094508
484 0.4706611 0.07284548 0.1645713 0.02234003 0.12983216 0.23571928 -0.26320073 0.2078122 -0.42495382 -0.43433455
14 0.24654599 -0.2990604 0.20156914 0.23905234 0.58196163 0.088575415 0.34523392 0.32016057 -0.16463396 -0.26839364
849 0.3798646 -0.31030774 -0.11195083 0.023112057 0.3762467 0.13530329 0.4558196 0.12346025 -0.31917435 -0.2554428
597 0.28610322 -0.4978599 -0.33852673 0.36508265 0.39486486 0.099189185 0.30566227 0.28121752 -0.23068953 -0.27408105
1152 0.22073978 -0.39793742 -0.1155806 0.42576528 0.42100233 0.14684026 0.25957114 0.06606245 -0.28766274 -0.3797021
454 0.37043226 0.123551086 0.26163882 0.121011905 0.040347066 0.4190275 -0.18962568 0.26358902 -0.41639003 -0.48474047
691 0.40892106 -0.53208554 -0.24651572 0.44547832 0.3881634 0.024030546 0.11236737 0.12736732 -0.31022158 -0.23567101
730 0.33460402 0.104103975 0.07208545 -0.10598252 0.029474324 0.41177505 -0.23310736 0.34236133 -0.5155949 -0.48293704
70 0.3503006 0.08704036 0.17806576 0.23944128 0.07641994 0.45386317 -0.20118582 0.22745366 -0.40097064 -0.4362477
277 0.30720976 0.15616737 0.31782556 0.19371781 0.12772547 0.43656632 -0.19496793 0.28012267 -0.4712185 -0.43514472
1171 0.35623085 0.2633837 0.14871697 0.12665112 0.050503116 0.4017837 -0.0894744 0.33434564 -0.45168987 -0.44973838
594 0.34123194 -0.4196453 -0.0883842 0.3332433 0.41336027 0.13111253 0.2703552 0.21189635 -0.24697334 -0.23016769
394 0.45004514 0.21343532 -0.19417784 0.22526698 0.6507794 0.3273314 0.3400052 -0.00737245 -0.2528748 0.047739293
843 0.28619102 0.04418077 0.02233535 0.036360558 0.0732125 0.35673016 -0.1656974 0.28494522 -0.5400382 -0.4902144
328 0.3967455 -0.011292811 0.1199135 -0.023324274 0.06059596 0.32656687 -0.24203022 0.17187753 -0.54376394 -0.47652227
513 0.32948637 -0.21888623 0.12757196 0.24491347 0.5866713 -0.047368765 0.31149396 0.2921321 -0.17753997 -0.2717241
1146 0.46780783 -0.5454371 0.17631774 0.23298953 0.25895867 0.34501392 0.4256185 0.11080244 -0.20183662 -0.1518693
451 0.3911349 0.10590095 0.23620662 0.031833563 0.018991131 0.38015473 -0.25799662 0.15789977 -0.4541605 -0.5518327
593 0.37813506 -0.4132824 -0.25921968 0.3612947 0.30011466 0.08831854 0.37457398 0.30483586 -0.27584442 -0.24942796
596 0.32518905 -0.3837379 -0.2745778 0.29683524 0.3862191 0.08336477 0.34598687 0.3599048 -0.29705307 -0.21569686
420 0.34907964 0.008838774 0.116084814 -0.064208604 0.06439773 0.39208347 -0.20292231 0.30547678 -0.50677484 -0.4427759
178 0.34541285 -0.22686528 0.10922446 0.24749406 0.43798357 -0.068918556 0.49292657 0.2827904 -0.2830057 -0.33911386
619 0.39584342 0.12309061 -0.007955851 0.042179264 0.020100499 0.25804213 -0.24250205 0.29822195 -0.54672545 -0.5035279
49 0.21920004 -0.26738158 -0.026146801 0.1616721 0.55928105 0.11045389 0.35063884 0.37141633 -0.20624757 -0.2536418
334 0.42687616 -0.061733883 -0.19791162 0.006263924 0.4964899 0.5454638 0.3300554 -0.34837604 -0.3366266 -0.06233487
469 0.371219 -0.036727846 0.058033112 0.0021461335 0.03659661 0.27211604 -0.23871574 0.26380906 -0.5530828 -0.5025616
589 0.41256225 0.20073469 0.17756483 -0.08192696 0.093196854 0.24227268 -0.19639668 0.3202073 -0.5384671 -0.46525228
997 0.33478653 0.0049989363 0.18419962 0.03304159 0.2112987 0.23887886 -0.30028698 0.10931026 -0.49374363 -0.51705116
784 0.37336415 -0.2077313 0.15854584 0.12534688 0.48523873 0.08125705 0.28732288 0.25361514 -0.14170082 -0.28018722
766 0.3331865 0.09384626 0.19103272 -0.0053751245 0.13158345 0.34151474 -0.25279287 0.17781913 -0.54907703 -0.48250255
1185 0.46921566 -0.41720954 0.10954398 0.22280152 0.33468553 0.4106102 0.20362331 -0.11657802 -0.20580518 -0.16489261
397 0.43891892 0.11703726 0.22868915 0.09306836 0.09674664 0.41635445 -0.25710368 0.26521963 -0.4021699 -0.36978996
283 0.2569959 0.05827955 0.18080962 -0.021577721 0.09490938 0.4558207 -0.26373366 0.23937581 -0.50589484 -0.5193871
68 0.28519475 0.10212487 0.07893747 0.23890193 0.10703186 0.25460693 -0.2893131 0.35431704 -0.60571927 -0.4970738
20 0.40804237 0.009045531 0.08039075 0.07776026 -0.029840127 0.3609631 -0.1333429 0.18487237 -0.41272137 -0.5329846
304 0.30394363 0.06067552 0.25345716 0.01368309 0.12975056 0.40464717 -0.2790199 0.19571634 -0.40851274 -0.53070307
711 0.42068616 0.03474759 0.102701224 0.09267267 0.07753383 0.30651572 -0.33176905 0.050127134 -0.55425143 -0.48342514
595 0.43057844 -0.53557765 -0.1547212 0.053648725 0.34265032 0.16564485 0.40548295 -0.09646189 -0.33773538 -0.27470747
690 0.41290736 -0.4666062 -0.02304564 0.29022327 0.19107725 0.41996753 0.47906253 0.053716008 -0.12794527 -0.24982035
255 0.23665753 -0.2792871 0.049830254 0.12837264 0.6283051 0.04910752 0.24077475 0.22806494 -0.2834111 -0.26301998
785 0.23908459 -0.14632791 0.22905363 0.016893676 0.558854 0.16911857 0.2647817 0.16461754 -0.24250378 -0.32715914
1125 0.40592128 0.16761433 0.3013493 0.014957487 0.025217628 0.3270364 -0.14019443 0.21601209 -0.51370966 -0.5105021
605 0.3205237 0.0424875 0.20997044 0.061726738 0.07497603 0.44290817 -0.17706245 0.18764889 -0.42420352 -0.5068778
64 0.28684747 -0.027822481 0.27887398 -0.019143857 0.13117498 0.4598908 -0.29410526 0.1332183 -0.39734912 -0.5399534
280 0.36100963 0.109463945 0.23612154 0.14603034 0.20910092 0.3243243 -0.29150257 0.0865041 -0.35102448 -0.4995669
91 0.35252923 0.124346904 0.087907776 0.13685207 0.04969244 0.30281067 -0.20449457 0.05526154 -0.42026907 -0.6383922
1097 0.44241256 -0.48578835 0.12159558 0.16681929 0.37062192 0.30546874 0.13220821 -0.20963147 -0.22191733 -0.2721743
281 0.39319068 0.15329783 0.016737176 0.08620468 0.13418579 0.20250544 -0.20917323 0.23745972 -0.4870591 -0.48147488
870 0.35745803 -0.41041633 0.049011104 0.04828046 0.3286677 0.30282655 0.5212566 0.22394373 -0.2637765 -0.18479548
581 0.24749279 0.102864034 0.101741746 0.0629418 0.09868275 0.40354356 -0.1768482 0.19514163 -0.42235664 -0.5809813
1145 0.46755168 -0.40251336 -0.20120019 0.34283516 0.32376668 0.036534008 0.25509787 0.22019027 -0.2792724 -0.21983768
180 0.32658917 -0.45177117 0.14945234 0.04980087 0.5723284 0.051750455 0.3117607 0.23556669 -0.17391405 -0.24650629
396 0.31474406 0.14564346 0.031791564 -0.0106530525 0.075780906 0.40934986 -0.17511816 0.18495543 -0.53487134 -0.49074197
470 0.4484619 0.12852293 0.27638814 0.00051228085 0.0874651 0.36240947 -0.18879771 0.30809274 -0.43177858 -0.38606817
799 0.49037355 -0.3836964 0.05067425 0.11281973 0.29381657 0.33342487 0.5236021 0.13669564 -0.17709856 -0.11622332
688 0.3426634 -0.46676576 -0.12225212 0.40776783 0.41064402 0.1733559 0.25091484 0.17376998 -0.18244855 -0.23193642
813 0.5501944 0.10885767 0.15753357 0.0919359 -0.13560063 0.41704005 -0.11480306 0.25271434 -0.4868868 -0.40073845
314 0.41126278 0.13631971 0.066691734 0.05345139 -0.052608803 0.45393673 -0.16944464 0.18438113 -0.44089416 -0.49808884
791 0.058898274 -0.09222112 0.069577105 0.013594353 0.6519002 0.109365866 0.084133 0.27622363 -0.35637236 -0.41037697
393 0.20568776 -0.17967214 0.022194235 0.14259346 0.52721536 0.2393787 0.35663962 0.37784275 -0.20220903 -0.21726993
618 0.30422482 0.1089067 0.07801977 -0.07168181 0.14312463 0.3654505 -0.3026829 0.11248398 -0.5463943 -0.52456623
659 0.14647916 -0.36486617 0.19543058 0.18163213 0.57916504 0.1800957 0.3602286 0.25298944 -0.19562483 -0.331455
703 0.37138423 -0.49683806 -0.037789084 0.12479817 0.1473267 0.39540812 0.35016906 0.019649345 -0.269813 -0.33927265
42 0.3369088 3.865856e-05 0.061087552 -0.00255929 0.0274896 0.4697069 -0.27956623 0.19942182 -0.40809885 -0.5108952
963 0.35549524 0.15841217 0.020134117 0.2483692 0.1023076 0.23320977 -0.29695198 0.25036982 -0.42186904 -0.5477994
915 0.29693046 0.05546283 0.26634097 -0.005587606 0.10191157 0.436761 -0.11297717 0.2246487 -0.45297664 -0.48799062
606 0.37574795 0.02311992 -0.056707248 0.08585076 -0.054966904 0.3368029 -0.29624644 0.20217179 -0.52646065 -0.56891537
686 0.45101842 0.1317271 0.16632769 -0.01586763 -0.02908465 0.40419307 -0.15857895 0.2330074 -0.42774752 -0.47019956
1212 0.54606134 -0.42484096 -0.049928986 0.16597004 0.18007173 0.21228899 0.4589442 0.007624762 -0.38013503 -0.1862748
765 0.3650399 0.19767796 0.17993821 -0.03669524 0.13379022 0.2933835 -0.23540409 0.21426797 -0.4176124 -0.53675395
620 0.31923112 0.043579366 0.2067916 0.047808457 0.17813757 0.4051358 -0.24321954 0.13997568 -0.47935572 -0.43485993
453 0.45198554 0.15948357 0.13655995 -0.020336522 0.08502713 0.23420082 -0.18660675 0.13062373 -0.5388661 -0.4863365
112 0.35859227 0.15355586 0.21168453 -0.06939067 0.091587834 0.48782685 -0.19855143 0.13375716 -0.40295166 -0.4837624
844 0.4795635 0.17792124 0.32089096 0.10554459 0.02835251 0.3400187 -0.0909734 0.11803357 -0.4326135 -0.47308695
674 0.371002 0.09320679 0.2550825 0.022074742 0.06949832 0.37583312 -0.15234773 0.2763349 -0.4155566 -0.48072484
721 0.43515936 0.09367417 0.06094612 0.11061739 -0.024765 0.29295707 -0.09510939 0.2147874 -0.41204157 -0.53585035
845 0.36194366 0.0798215 0.14271821 0.15645221 0.01483971 0.44463825 -0.34709287 0.22592002 -0.33897707 -0.54504824
1148 0.40443596 -0.40312633 -0.1634976 0.14714159 0.24079058 0.3176871 0.50978523 0.043672584 -0.3741515 -0.19705452
23 0.25384277 -0.24883674 0.20586435 -0.03014913 0.6853482 0.058217257 0.24428436 0.2292605 -0.26488554 -0.23483984
335 0.29713914 -0.3994189 -0.15373719 0.33011267 0.40749174 0.123111695 0.22509024 0.30833364 -0.30103227 -0.24186017
1096 0.30477986 -0.025134226 0.06872015 0.027613405 0.06634539 0.41793364 -0.30200106 0.16103068 -0.49560374 -0.5302598
305 0.55111575 0.13489227 0.21616286 0.16075411 0.08755462 0.14581914 -0.27849105 0.09981304 -0.4673007 -0.46851906
1076 0.27779192 -0.19969384 -0.10735266 0.16199186 0.55559015 0.025887588 0.309759 0.23822467 -0.12726961 -0.33648714
95 0.50511473 0.0066307504 0.19315842 0.03498878 0.111432604 0.3646958 -0.37072715 -0.022296676 -0.45664287 -0.41196635
75 0.4289513 0.09087971 0.05473805 -0.09592708 0.013700118 0.36991626 -0.24139874 0.1746063 -0.52748877 -0.47223836
76 0.39273974 -0.014061724 0.2651531 0.26110867 0.035769943 0.3686399 -0.28467894 0.0997449 -0.3685949 -0.55067
848 0.4241031 -0.39370647 -0.026073875 0.2494961 0.38833612 0.24867874 0.3757247 0.12007427 -0.28381371 -0.12369775
705 0.29046005 0.041114293 0.14745265 0.1463887 0.07605686 0.4288513 -0.20595293 0.22777683 -0.4864886 -0.48691705
951 0.32190394 0.001501694 0.17950837 0.09715147 0.47901535 0.045342788 0.213644 0.512833 -0.17646651 -0.29642284
1084 0.2651739 -0.33306766 0.07954693 0.1811006 0.628398 0.009114439 0.22866416 0.2705139 -0.24587809 -0.2509102
786 0.30512708 -0.33894232 -0.047928426 0.046177708 0.5333985 0.05346043 0.13014144 0.18292312 -0.3334919 -0.2675596
1083 0.16693395 -0.28518555 0.038053077 0.16792893 0.60197294 0.15084329 0.21400937 0.18066338 -0.21938042 -0.33162835
336 0.42557582 -0.050304227 -0.13629049 0.18900779 0.49835905 0.55233353 0.37197503 -0.37162933 -0.27223817 -0.069246516
486 0.25278467 0.06340916 0.21744075 0.14073177 0.24102399 0.31687978 -0.010454286 0.1569884 -0.39481318 -0.48965046
238 0.38304356 0.060012396 0.09630412 -0.060261555 0.0851066 0.25542453 -0.23780888 0.2830489 -0.48431543 -0.5111543
814 0.37879762 0.12509875 0.11182851 0.020411741 0.06422841 0.303843 -0.21146093 0.2541685 -0.4158342 -0.53273326
19 0.41525418 0.044521656 0.14349988 0.023690939 0.04373057 0.23844032 -0.21713197 0.1019542 -0.57503176 -0.547202
608 0.32525495 -0.24782816 0.08748041 -0.020291515 0.4723753 0.028467836 0.3935962 0.38859752 -0.3128145 -0.25175497
116 0.42552486 -0.44018355 0.09257264 -0.15105413 0.24976557 0.4301349 0.19537853 -0.079329595 -0.27761012 -0.2735473
531 0.41348612 0.18858652 0.19465801 0.055065952 0.021457348 0.29891488 -0.1425997 0.06605291 -0.47193262 -0.5863436
16 0.38034022 -0.3224645 0.2432578 0.09875502 0.54223657 0.100595266 0.35009664 0.19091287 -0.14288083 -0.22319269
1172 0.41899005 -0.21933584 0.07973358 0.46987665 0.26976356 0.2125674 0.1410408 0.40689787 -0.11609149 -0.23993222
787 0.44664532 -0.24965113 -0.094546154 0.33662218 0.34692585 0.12807898 0.11176653 0.08729919 -0.19423647 -0.29236662
494 0.53294444 -0.3218811 0.14449298 0.09004833 0.34849015 0.2293107 0.5325979 -0.0028005429 -0.25656137 -0.12207024
202 0.5266777 0.10865121 0.18046981 -0.026430577 0.043015264 0.2552314 -0.25985658 0.20063785 -0.4692289 -0.44206813
900 0.30220446 0.07614671 -0.023230804 -0.121278256 0.07234267 0.31910005 -0.19237009 0.27336282 -0.54969865 -0.5357214
130 0.44499862 -0.4198639 0.00131307 0.023625866 0.20851429 0.34312537 0.20478931 0.025899455 -0.32177165 -0.2621552
958 0.3148733 0.035850126 0.023297124 0.07674661 0.015859691 0.35207456 -0.27329457 0.2715343 -0.524446 -0.542886
431 0.4392656 0.05441673 0.17176792 0.086809926 0.19224703 0.18508106 -0.2899501 0.19402324 -0.44198203 -0.44452873
1214 0.5856828 -0.45170298 0.017772563 0.34713003 0.24639018 0.20672734 0.35896522 0.056070577 -0.27743497 -0.10545207
1093 0.42440903 0.015724037 0.2851642 0.03544269 0.11850202 0.34212518 -0.15142836 0.078859866 -0.4081272 -0.46234864
24 0.22606695 -0.29936144 0.08263143 0.005616665 0.59855545 0.1501934 0.29205945 0.26742238 -0.23175968 -0.23895423
576 0.3157713 -0.32647195 0.21084197 0.20096159 0.6896478 0.06925053 0.2903536 -0.045602247 -0.23204327 -0.2357475
720 0.3870384 0.10888914 0.22064944 0.13414866 0.17963165 0.26536307 -0.27183115 0.19135232 -0.38271755 -0.48582637
1108 0.48489106 0.07057691 0.20169905 -0.0017652921 0.031913474 0.25679526 -0.2386512 0.23728175 -0.42898187 -0.48585257
296 0.32318273 -0.25817963 0.074403234 0.14149348 0.5796716 -0.06599267 0.28939763 0.16486621 -0.2202446 -0.33192983
430 0.36909917 0.019188015 0.046270423 0.12381731 0.19833586 0.22836024 -0.4391733 0.09940642 -0.42073584 -0.5268653
590 0.3146566 0.14658432 0.0651011 0.15119302 0.16326468 0.22434618 -0.25876293 0.26426026 -0.5124159 -0.5051645
77 0.3658388 0.08805277 0.35230663 0.012095017 0.06859943 0.4841697 -0.20420454 0.30353954 -0.3118623 -0.4643357
714 0.41692406 0.176067 0.26841038 0.11608651 0.040891185 0.16778447 -0.20210753 0.15397567 -0.51100147 -0.62205523
678 0.4447993 0.07570508 0.20031397 -0.018281018 0.11843338 0.32286963 -0.25173354 0.13140923 -0.37955865 -0.46588343
237 0.4372408 0.06278957 0.23078923 0.087126434 0.008688229 0.3804125 -0.23491178 0.14775634 -0.40350845 -0.5112931
1095 0.44455048 0.084984444 0.094289504 0.09802342 0.046680648 0.32014832 -0.24317221 0.14017268 -0.4655717 -0.47440487
93 0.48725554 0.1414521 0.111652724 0.091222964 0.0075202477 0.23334822 -0.1836364 0.22831823 -0.4679287 -0.4893493
700 0.39959663 0.066373825 0.01578579 -0.02004859 0.014361834 0.36578402 -0.13478096 0.33587444 -0.47294024 -0.4237418
1094 0.36078215 0.05842581 0.19176671 0.10976544 0.13611452 0.27479652 -0.30325 0.15301748 -0.4890425 -0.5211456
781 0.34267777 0.15179835 0.11879535 0.11833768 0.050665583 0.29260096 -0.22365151 0.24930313 -0.4624873 -0.56604373
10 0.3741827 -0.37902272 0.028230153 0.22648133 0.35154405 0.14606363 0.27634603 0.32189494 -0.23627329 -0.23565887
1082 0.43437764 -0.1114249 0.10301034 0.031625733 0.42506483 0.13892686 0.13208187 0.1195758 -0.2602732 -0.26756382
1092 0.36012274 0.08198478 0.13756311 0.10422315 0.0041164085 0.32860255 -0.09887088 0.27708617 -0.51753134 -0.5024179
239 0.46713898 0.12577526 0.19981864 0.04861678 0.06589699 0.27439174 -0.21925153 0.19385332 -0.4650972 -0.46413743
1007 0.38533804 0.22332612 0.15632424 -0.0031864324 0.044576637 0.4001633 -0.20522918 0.31970868 -0.44278982 -0.4575465
692 0.48724622 -0.45812306 -0.20647092 0.28185555 0.23682109 0.2620799 0.30515525 0.010868334 -0.28864914 -0.18671371
456 0.40244684 0.20083265 0.11009327 -0.014769491 0.12600487 0.23182939 -0.16936053 0.2425988 -0.53149027 -0.4594453
704 0.41538402 -0.30999193 0.12558267 0.07079952 0.47053528 -0.122539066 0.38575363 0.28964302 -0.25497097 -0.30453712
392 0.4308313 -0.052333996 0.16168533 0.21855697 0.449961 0.15630265 0.19836903 0.3686064 -0.0800681 -0.19304776
1008 0.34929982 0.08376244 0.1673181 0.039245237 0.10840391 0.45192677 -0.14324142 0.18518545 -0.46708468 -0.410377
1174 0.5680888 0.25017285 -0.25350526 0.18461062 0.49662164 0.46045452 0.28526017 -0.0073136967 -0.2543873 0.11181318
465 0.21010183 -0.05297377 0.09242398 0.0773802 0.60992414 0.13375482 0.21529163 0.43679878 -0.1249234 -0.2769061
599 0.51195556 -0.42269996 -0.12194074 0.15514955 0.3562019 0.26206338 0.27824605 -0.018977039 -0.18372098 -0.14210677
959 0.43375495 0.058273077 0.24551418 0.107646555 -0.007859805 0.35147703 -0.2247396 0.3496351 -0.29727975 -0.51824284
452 0.50325406 0.06586457 0.0829527 0.11335768 0.08139325 0.134663 -0.23131233 0.21014185 -0.49745435 -0.45614636
331 0.32722163 -0.43823883 -0.1050855 0.38220748 0.4064903 0.19505048 0.22083381 0.21810564 -0.13445471 -0.25507474
572 0.24721235 -0.18413875 0.032620437 0.12800445 0.7211874 -0.013134078 0.16324353 0.16831225 -0.12840652 -0.32567334
407 0.4035021 0.018614147 0.28389204 -0.018664671 0.2554576 0.39644113 -0.36714533 0.13452035 -0.328943 -0.3780299
110 0.4699897 0.044267174 0.08582666 0.08823744 -0.042050485 0.4072308 -0.2380177 0.20891054 -0.36136356 -0.476017
103 0.4095686 0.08757547 0.037186194 -0.04334627 0.160268 0.324268 -0.31266567 0.15191002 -0.40252164 -0.4516768
812 0.25228307 0.1286069 0.24985904 0.22747411 0.07321461 0.50447345 -0.16923265 0.2320719 -0.39329907 -0.52475494
94 0.35701588 0.021042973 0.06829533 0.13730255 0.026302483 0.41318893 -0.29976434 0.15763788 -0.42586547 -0.5272114
679 0.3515865 0.008746836 0.0504988 0.0026301157 0.082917854 0.34927654 -0.22531392 0.17124997 -0.45092714 -0.5041392
1028 0.4532583 0.023505455 0.27842107 0.010230687 0.1430671 0.40941122 -0.2665412 0.13623448 -0.37126014 -0.3790772
780 0.35612702 0.18914615 0.20034766 0.12242424 0.10695056 0.32154694 -0.17488852 0.3709533 -0.41927975 -0.4602273
90 0.3239647 0.17140669 0.05561661 0.00056697434 0.09962162 0.3343795 -0.30396345 0.3021193 -0.45570147 -0.5224425
1107 0.40487093 0.23407061 0.33117563 0.01231016 0.23034029 0.30418286 -0.25518626 0.19047919 -0.3382157 -0.45936128
701 0.26767883 0.15791956 0.24453883 0.1124386 0.18312849 0.36800686 -0.18556225 0.22055487 -0.45006636 -0.5012492
633 0.31233293 0.04187007 0.10755078 -0.07965645 0.14192252 0.46707976 -0.2109871 0.26791593 -0.38240242 -0.4252534
1193 0.5550155 -0.50563216 0.011659111 0.122265145 0.188076 0.2909931 0.1519357 -0.11435544 -0.27251205 -0.24489863
236 0.30082935 0.025118904 0.062315688 -0.06265404 0.17637599 0.23720784 -0.3682705 0.08122506 -0.5515865 -0.59223884
1111 0.26521224 0.1553485 0.21310623 0.06552588 0.11725392 0.5133658 -0.19556172 0.29421502 -0.37744084 -0.4664836
1110 0.38447157 0.012877713 0.15602587 0.07197952 0.11048542 0.2868518 -0.28314057 0.04361763 -0.39842173 -0.57316774
374 0.4285391 0.09536546 0.08434469 -0.04092405 0.16202429 0.20968676 -0.37644267 0.23654659 -0.48891485 -0.46134564
1005 0.53396136 0.12629385 0.31652242 0.032114826 0.20312366 0.13964985 -0.32225633 0.15741755 -0.41775522 -0.42341903
1165 0.3078055 -0.22959234 -0.009503334 0.07482905 0.61271095 -0.042629622 0.24642581 0.2373783 -0.2510857 -0.2715148
779 0.324898 0.16816738 0.05075598 0.057539523 0.06466961 0.37410066 -0.3122205 0.39790308 -0.52106786 -0.45564556
629 0.5360015 0.101866744 0.1263528 0.10264863 -0.098067425 0.28459844 -0.11924855 0.18530822 -0.48020858 -0.49285856
329 0.32836288 0.051238004 0.047691036 -0.1150269 0.058297876 0.34731978 -0.1334225 0.23623149 -0.53884375 -0.5084892
1170 0.38473743 -0.007383142 0.0736469 0.10251407 0.06651209 0.28052285 -0.30624393 0.33863485 -0.4654695 -0.4643344
411 0.5357173 -0.56134546 0.07152063 -0.065371916 0.111908495 0.35149768 0.32342157 -0.09825061 -0.21190722 -0.32043692
607 0.52704066 -0.4844601 0.231775 0.21041442 0.23394808 0.23722556 0.4180842 -0.11260266 -0.21613412 -0.28102213
767 0.32509604 0.0646505 0.1561182 0.05040835 0.05797965 0.35013655 0.014622826 0.20047794 -0.20480576 -0.61941564
1112 0.48142183 0.116905645 0.08443121 -0.059635203 0.00479993 0.2801506 -0.16598843 0.23697984 -0.5016298 -0.45780948
610 0.20408915 0.09128977 0.29915124 0.02540343 0.17833745 0.46456715 -0.3531075 0.29875863 -0.35723725 -0.5620435
612 0.3021039 0.100268304 0.18740666 0.2561123 0.09097169 0.45615843 -0.27551788 0.29455653 -0.26971883 -0.51693654
681 0.4663134 0.15529631 0.06388165 0.1049393 0.124662444 0.1974505 -0.29651722 0.42932117 -0.39329985 -0.39486057
1081 0.22173105 -0.34742516 -0.047754593 0.14618094 0.66906375 -0.06351639 0.17287351 0.21832526 -0.12780201 -0.37061775
872 0.42461473 0.28057405 -0.28290716 0.2777798 0.6447404 0.42944443 0.31921533 0.098653436 -0.13828708 0.07484094
680 0.35133484 0.21806169 0.13368084 0.08338412 0.13007253 0.36897 -0.2420237 0.28810576 -0.3617677 -0.478799
498 0.3931317 0.19247632 -0.60439324 0.16699037 0.59355885 0.43115935 0.3243 0.06364894 -0.16738907 0.024108961
960 0.22470571 0.04263825 -0.17728385 -0.09324419 0.22521403 0.3482116 -0.20231943 0.15453464 -0.4585113 -0.5075979
806 0.32148463 0.13247056 -0.41904566 0.4315419 0.80046743 0.4302335 0.055519294 0.023557266 -0.21336521 0.10851751
1115 0.405609 0.061803795 0.1514231 0.0047075953 0.16295618 0.32019183 -0.43846554 0.2598742 -0.43724138 -0.42783585
1219 0.40993372 0.19821388 -0.55418533 0.46210074 0.7099472 0.35124025 0.14757784 -0.17108479 -0.2534835 0.028160669
846 0.45720592 0.117498115 0.10984617 -0.03625978 0.0037385798 0.31844628 -0.16798986 0.23256768 -0.4541887 -0.47694588
811 0.41608244 0.03229426 0.2598382 0.15014018 -0.014699839 0.33161214 -0.16731702 0.29496053 -0.50295395 -0.47056267
1190 0.38555095 -0.46712005 0.021107947 -0.12144316 0.3850738 0.37446788 0.06352009 -0.03662591 -0.2858598 -0.21589401
295 0.53617215 -0.46352792 -0.05055233 0.10373785 0.22212127 0.23888083 0.39012462 -0.0824321 -0.24521 -0.247033
104 0.4244971 0.08600037 0.14682774 0.036370724 0.11796945 0.35317263 -0.2343597 0.18327282 -0.40449637 -0.42427647
125 0.36391002 -0.45873833 0.07287713 0.01770575 0.2504235 0.373593 0.22392537 0.11229029 -0.26068315 -0.27619365
63 0.5039063 0.089578986 0.14295927 0.13204719 0.047909405 0.30410403 -0.03670179 0.27554238 -0.35458982 -0.3696576
851 0.41324973 0.2555342 -0.31976587 0.27626258 0.7366455 0.4925656 0.28739116 0.16528884 -0.05680513 0.17001623
78 0.30567878 0.093184546 -0.08362228 0.26461607 0.074814394 0.2953011 -0.37703872 0.15681332 -0.40768605 -0.61598533
46 0.26192638 0.08094639 -0.100501485 0.051032707 0.03271409 0.39658812 -0.26824185 0.518236 -0.4642538 -0.4819644
293 0.36583132 0.05480722 0.13029212 0.24715802 0.10728698 0.33955154 -0.34380358 0.21391715 -0.35535657 -0.500674
802 0.5618595 0.23819385 -0.43971276 0.41026396 0.6117109 0.29726747 0.36100352 -0.05045224 -0.11699908 0.07553178
571 0.39141974 -0.16229855 0.14754511 0.015392843 0.63834244 -0.07749121 0.21736248 0.31931305 -0.22328708 -0.20017362
120 0.43639344 -0.44216368 0.116520725 0.07196393 0.21268639 0.41597733 0.204758 0.05565127 -0.28952026 -0.2228449
483 0.36887345 0.087403566 -0.022038337 -0.11408548 0.17536755 0.28329524 -0.37899125 0.20372997 -0.44580472 -0.48461565
337 0.50219965 0.12145811 -0.00015815659 -0.0073229335 0.0106392605 0.24285597 -0.2676835 0.3061184 -0.3424815 -0.49029574
743 0.39944088 -0.022460898 0.14972214 0.14750035 0.012021559 0.35885084 -0.19906703 0.2586278 -0.44170475 -0.4675753
127 0.42849526 -0.33241716 -0.015639473 0.2663362 0.41539553 0.16745788 -0.009275522 0.07274928 -0.13268532 -0.28102458
1091 0.38362113 0.16884182 0.18942384 0.020475158 0.17577438 0.30179194 -0.20568916 0.24950753 -0.34698415 -0.4685
613 0.39678994 0.02515803 0.14362971 -0.026872879 0.057678998 0.38538578 -0.28624135 0.29232466 -0.39025742 -0.46689758
1173 0.33571783 -0.18592553 -0.15722139 0.2522581 0.2123015 0.3170711 0.18353835 0.35817516 -0.17273593 -0.3073889
530 0.40848312 -0.53038496 0.118186854 -0.14255944 0.22808704 0.50460464 0.21014482 -0.12178801 -0.17710263 -0.30265662
841 0.6198485 -0.10878274 0.011161973 0.021202078 0.010672382 0.09127372 -0.28226906 0.1379918 -0.44753808 -0.44724503
1217 0.39833143 0.13605267 -0.4958565 0.33485305 0.6013489 0.4906765 0.41311413 0.04795658 -0.096445404 0.06203461
276 0.28452072 0.049880013 0.07265369 -0.009580362 0.21888435 0.3254579 -0.3151799 0.2260815 -0.5063455 -0.45897612
877 0.482942 0.23982401 -0.28460142 0.18679243 0.7588968 0.43749514 0.23497215 -0.13064058 -0.1578982 0.13369925
591 0.18906146 0.041499868 0.089693725 0.05031696 0.18673216 0.4266122 -0.2571852 0.22643353 -0.48586762 -0.52187485
630 0.44414744 0.06858908 0.14638072 0.050497707 -0.013280238 0.31059307 -0.10923454 0.21600777 -0.42888334 -0.50816816
772 0.5788198 0.022657283 0.16375592 0.085659094 0.08921697 0.17513508 -0.27554023 0.12294644 -0.42096296 -0.4109333
1158 0.44732314 -0.23501912 0.020866292 -0.008390332 0.24638577 0.4337752 0.08234809 0.317425 -0.211616 -0.14051841
770 0.5840717 0.14421941 0.09382639 0.05002312 0.0022936116 0.2953525 -0.33179724 0.31828177 -0.43291026 -0.3517026
179 0.43694985 -0.6172133 0.0008462704 0.05794136 0.06567546 0.41030502 0.40460357 0.042621627 -0.18556792 -0.34663346
592 0.46379593 0.06708979 0.11563637 0.10407365 0.07487805 0.27546114 -0.3082992 0.22256774 -0.40597463 -0.46316108
855 0.5295504 0.20039837 -0.5244861 0.17874028 0.6239897 0.44114718 0.3049134 0.14848958 -0.11067733 0.19101636
651 0.3719685 0.04782329 0.149808 0.056839503 0.07762428 0.3185174 -0.24406746 0.23701678 -0.38433203 -0.53540796
697 0.46604493 0.20253558 -0.5455652 0.35342193 0.5737725 0.4556617 0.23961465 -0.048271902 -0.21006124 0.07002463
142 0.34467393 0.14933375 0.13451253 0.011100804 0.14875065 0.3792094 -0.3290528 0.20476137 -0.4127318 -0.49011067
658 0.5095987 -0.361076 0.095838055 0.061369564 0.21941629 0.21457534 0.46486855 -0.034477726 -0.3894188 -0.24548377
111 0.3927938 0.03200266 0.085264064 0.12822011 -0.016674424 0.41181132 -0.27320176 0.17583823 -0.32016644 -0.56589353
634 0.39549175 0.08808016 0.19343524 0.015644047 0.012566327 0.39268255 -0.13700429 0.22199124 -0.46692023 -0.47744337
438 0.61898565 0.0548017 0.3416147 -0.017133065 0.09630505 0.24298581 -0.2649064 0.14528127 -0.31162545 -0.39370716
744 0.16142242 0.08667218 0.051573828 -0.18794142 0.20531498 0.29704842 -0.047822155 0.16554525 -0.33406878 -0.70409477
1153 0.42348632 0.26119244 -0.3899015 0.360984 0.66992784 0.43721077 0.36642206 0.07223894 -0.08321286 0.085057996
92 0.47932866 -0.1110632 0.078703016 -0.039615158 0.062443662 0.31127346 -0.35217977 0.014876165 -0.47810152 -0.4755494
502 0.43301252 0.20116997 -0.4890184 0.3775965 0.6323187 0.41118 0.16401543 0.081570916 -0.21212073 0.107878536
457 0.2533595 0.10287299 0.018486222 0.06881902 0.15134361 0.40326723 -0.2253862 0.17957994 -0.30979967 -0.5767099
59 0.23343839 -0.024770131 0.07877396 0.20257385 0.31179404 0.37223727 -0.3512535 0.29768705 -0.23724504 -0.43622345
653 0.32245025 0.17527413 0.16772954 -0.08666204 0.17267141 0.3611186 -0.10353615 0.29814798 -0.37789604 -0.4645369
964 0.44236338 -0.093503006 0.07357513 0.051254824 0.05868458 0.18929094 -0.2665289 0.13897108 -0.39083007 -0.5614932
376 0.39800826 0.105914906 0.058616437 0.088604875 0.026163751 0.34733948 -0.2661776 0.38482052 -0.43161237 -0.44954333
198 0.21321712 -0.37613425 -0.09802228 0.3242834 0.3804257 0.22511165 0.24241573 0.14304924 -0.13157876 -0.42065805
408 0.39213142 -0.51027805 0.17529312 -0.0888732 0.16186054 0.5129661 0.30925986 0.0052838796 -0.20563908 -0.30600417
292 0.4885802 0.26950818 0.107571185 0.027205186 0.13954453 0.2286123 -0.27701962 0.375706 -0.34792703 -0.408785
604 0.48859644 0.13899869 -0.5224394 0.29283717 0.6153773 0.41245574 0.2741508 -0.00090603984 -0.11377501 0.087151304
695 0.3356946 0.2109934 -0.40334207 0.38364047 0.5651794 0.6110996 0.3033428 0.0425868 -0.14492372 0.030337935
291 0.31401828 0.10326089 0.22242916 -0.021732662 0.23139806 0.4034072 -0.35420713 0.20680535 -0.39707223 -0.44399396
652 0.40610602 -0.12527056 0.041710086 0.08388368 0.09858534 0.2983183 -0.401781 0.060753796 -0.4224862 -0.5202725
914 0.4519018 -0.51469785 -0.019492827 -0.06713435 0.21004005 0.40821686 0.22293374 -0.08583995 -0.1399222 -0.32106063
586 0.3999154 0.09590358 0.24067862 0.14891425 0.09283516 0.4602846 -0.2964859 0.15216877 -0.2676326 -0.48408237
159 0.31799054 0.1695248 0.114162885 0.03471428 0.08870101 0.4238868 -0.22420296 0.39315763 -0.28461367 -0.5005029
768 0.32906494 0.04362132 0.08218759 -0.0068115625 0.044953197 0.27629218 -0.09666231 0.09434267 -0.1956582 -0.7439267
15 0.49090078 -0.5000104 0.09367674 -0.039963752 0.14899941 0.4294724 0.47445217 0.037522353 -0.25593305 -0.19415766
124 0.27236095 -0.13687421 -0.14337008 0.11235283 0.5419515 -0.010406502 0.104002826 0.34257755 -0.17471404 -0.3567285
231 0.54769415 -0.42480052 0.20830205 -0.019120775 0.4049337 -0.03924675 0.26128924 0.08478418 -0.24847703 -0.2660946
544 0.27706146 0.10747406 0.0370979 -0.0017546507 0.069981076 0.30119327 -0.29039416 0.40012375 -0.58024323 -0.52184045
611 0.3410779 0.14866616 0.29216754 0.014669023 0.15093851 0.29354748 -0.18182853 0.31271434 -0.46057746 -0.48804653
60 0.27922207 0.005618766 0.05135724 0.030796934 0.17740448 0.41290885 -0.15679865 0.3644496 -0.28234088 -0.43260714
685 0.37383458 0.08910087 0.20987238 0.09134331 0.15996271 0.378236 -0.33840242 0.27627006 -0.3560465 -0.44057187
573 0.16688588 -0.26343742 -0.07279644 0.0384183 0.7177669 0.092783794 0.10466451 0.42049748 -0.16317533 -0.21659851
382 0.26484475 -0.23560923 -0.07631758 0.15628463 0.5748437 -0.07154985 0.10118252 0.35528296 -0.1569682 -0.3642665
525 0.34569958 -0.35020766 -0.07441579 -0.21848014 0.17237017 0.35081336 0.3444256 0.010690886 -0.18237993 -0.472416
769 0.4539832 0.08956718 0.120297335 -0.033742502 0.071944825 0.2591709 -0.20130542 0.32353234 -0.36473706 -0.46583283
911 0.35274056 -0.34724542 0.08611113 -0.24079515 0.2243581 0.4503594 0.34788066 0.16915095 -0.12291453 -0.33925915
1143 0.46931198 0.049256787 0.04980689 0.014788477 -0.016717095 0.42845723 -0.16647625 0.29198506 -0.32778388 -0.41298324
177 0.3313298 -0.060919568 0.121722445 0.19558181 0.07795623 0.41758305 -0.42388827 0.28236225 -0.38049978 -0.47817674
1109 0.44606146 0.100546554 0.011578687 0.21913262 -0.0044679004 0.22992665 -0.11951633 0.22853145 -0.38578 -0.5278261
1029 0.30134138 -0.05161948 -0.037179217 -0.08822619 0.34906173 0.14020203 -0.011888785 0.09464287 -0.1362746 -0.5755737
347 0.1895851 -0.24158822 0.042131502 -0.13480292 0.691961 -0.13785712 -0.025231104 0.3498625 -0.16049676 -0.46887547
1209 0.50641173 0.06180837 0.027247325 -0.013343568 0.09090023 0.26046574 -0.29213077 0.17060061 -0.3837034 -0.43348473
1159 0.42430788 -0.30359432 -0.16065218 -0.09634489 0.4400229 0.40084022 -0.048303913 0.117785506 -0.07656682 -0.15018792
191 0.47238255 0.02245145 0.21357597 -0.14282978 0.12438043 0.22291446 -0.19836536 0.03926919 -0.42458466 -0.516418
1103 0.1845072 -0.20326692 0.07270454 0.031447813 0.7809129 0.0810326 0.06248019 0.1831746 -0.118205175 -0.29612294
354 0.47899845 0.069827326 0.092734866 0.04891078 0.0798749 0.3302419 -0.28353322 0.111265935 -0.34276387 -0.46866974
602 0.3036226 0.1923402 -0.60714996 0.24454337 0.6251988 0.50189936 0.3314805 0.049758792 -0.18605356 0.008127566
294 0.28177103 0.023594663 0.23125768 -0.08259817 0.17134379 0.40970275 -0.24776539 0.37245435 -0.38191783 -0.4586243
834 0.45714262 0.05846573 0.17931668 0.08396631 0.060005695 0.30975923 -0.18549182 0.27847794 -0.3124576 -0.45593047
556 0.3408473 0.09396418 0.06500817 0.018885205 0.07489898 0.14899905 0.0815927 0.14990014 -0.49567005 -0.61418766
22 0.17041816 0.04283099 -0.19356148 0.18604074 0.72811306 0.4717731 0.2737296 0.016499657 -0.332791 -0.03830083
1077 0.47790876 -0.19729982 0.048371818 0.28884506 0.44128478 0.14837697 -0.057466377 0.2095849 -0.13867009 -0.18230775
199 0.35089037 -0.37437218 -0.17334677 0.21928799 0.42480054 -0.020232454 0.1920066 0.2941408 -0.20100392 -0.32768884
115 0.4986924 0.10237712 0.01920008 -0.07369039 -0.07667051 0.23209621 0.14682648 0.13399318 -0.09431205 -0.6970044
439 0.12907143 -0.17369592 -0.1339514 -0.036670733 0.7480388 -0.1455158 -0.04584143 0.25813556 -0.13972741 -0.51280475
383 0.24444938 -0.1641586 0.009583429 0.0011594276 0.7712856 -0.04059942 0.1672025 0.4148496 -0.09348119 -0.23050791
1150 0.3719475 0.11445692 -0.60118705 0.26436234 0.6396704 0.49769905 0.22296406 -0.010505642 -0.18700421 0.062535144
917 0.23262662 -0.106530316 0.15059465 -0.37141284 0.7445824 -0.097553395 -0.010870663 0.26545593 -0.21069446 -0.42097712
161 0.42092922 0.03418744 0.1436544 -0.19951847 0.14366414 0.31788626 -0.24326883 0.230174 -0.375698 -0.4480012
897 0.40069452 -0.21634325 0.06743239 -0.26940122 0.56056 -0.27413663 0.120715834 0.3511963 -0.21595201 -0.4262114
698 0.42114612 0.041846946 0.20087025 0.102268934 0.15881811 0.21631168 -0.26415846 0.27057207 -0.33645427 -0.4810112
58 0.3516566 0.011517695 0.25901878 0.11071524 0.31414175 0.3406335 -0.23115483 0.22468932 -0.25375786 -0.36723346
771 0.4647083 0.061104856 0.07875109 -0.095566474 -0.035401247 0.4199796 -0.22454323 0.37736455 -0.39044067 -0.41820982
463 0.38705382 -0.038675077 -0.030074881 -8.835338e-05 0.10814753 0.27075815 -0.15240785 0.23128113 -0.350568 -0.483951
1157 0.53624034 -0.22188246 -0.017806435 0.13431174 0.34099978 0.14938354 0.08722062 0.24139109 -0.13835184 -0.19249187
909 0.3480924 -0.56779134 0.052364144 -0.1393385 0.23857287 0.41333577 0.38818273 -0.13702527 -0.2607806 -0.36515495
920 0.3299057 -0.27939332 -0.30135554 0.34477147 0.45927933 0.12994397 -0.04836806 0.105299234 -0.09056754 -0.3497344
763 0.47098306 0.069223434 0.0030169887 0.1443153 0.08238469 0.16865525 -0.33435717 0.2602847 -0.4701194 -0.45745417
1194 0.32569787 -0.37078494 -0.082599685 0.15407637 0.41990614 0.17553596 0.049312465 0.124243 -0.27637446 -0.29373643
1189 0.20918317 -0.40259567 0.078915656 0.25455216 0.47730005 0.42193428 -0.18218052 -0.037820492 -0.17319821 -0.34776428
300 0.5245846 0.011252709 0.16060013 -0.06617977 0.0070416164 0.23355454 -0.19681403 0.20304455 -0.3616958 -0.505649
826 0.33445153 -0.050297074 0.2034306 -0.022034219 0.27278548 0.23635687 -0.34621748 0.13258149 -0.31510577 -0.5351582
1207 0.36520123 -0.2042857 0.04517869 0.03532197 0.5642111 -0.12863074 0.22712433 0.3303458 -0.13410273 -0.3474518
1163 0.39599547 -0.12904382 0.12962922 0.20409587 0.5358589 0.2260548 0.099776745 0.0748011 -0.09214718 -0.21694121
375 0.29213595 0.011952464 0.13833599 0.13219199 0.20714316 0.37735397 -0.18816186 0.2774965 -0.29345557 -0.44221765
11 0.41705206 -0.35869345 -0.000108258115 0.28258654 0.40445048 0.08139058 0.14333415 -0.028683588 -0.10500804 -0.38668066
919 0.33941498 -0.27474326 -0.0866963 0.40832332 0.306883 0.16922909 0.23322721 0.29206714 -0.14283437 -0.33968058
57 0.24694104 -0.2397302 -0.31033868 0.14678524 0.52956486 0.6046988 0.74744827 -0.19975863 -0.6039375 0.058033034
1164 0.2860623 -0.18281275 -0.043014362 0.1137043 0.4318749 0.37182128 0.002054515 0.22341605 -0.18078679 -0.24093212
828 0.4186223 0.1642168 0.09367688 0.06237451 0.02692869 0.26411566 0.004731237 0.14703137 -0.12829891 -0.6682497
782 0.19343702 -0.17625196 0.08019483 -0.07921469 0.79089 -0.14681365 -0.010878413 0.26793084 -0.13965164 -0.4167427
409 0.2644622 -0.7000628 -0.04723797 -0.2128852 0.32355615 0.40373343 0.16838676 -0.25409898 -0.26004902 -0.44722345
898 0.187319 -0.19444759 0.08821053 -0.0784417 0.58976114 -0.0044178544 0.04427155 0.43555182 -0.12064935 -0.4430216
200 0.17151582 -0.032990634 -0.5322196 0.29723734 0.6324588 0.5762687 0.24664827 -0.13563386 -0.17320804 -0.1275742
764 0.44013837 0.075023115 0.12888408 0.039977614 0.055249732 0.39380974 -0.2095684 0.34875265 -0.3187353 -0.40573472
1192 0.19747303 -0.100015126 0.0043384284 0.19646928 0.71631783 0.18123299 0.040868618 0.33608338 -0.06619514 -0.21809624
233 0.48664668 0.09442748 0.1829956 0.04476629 0.014976635 0.23860155 -0.18949458 0.21103625 -0.34268445 -0.54765314
84 0.508593 0.006366759 0.08440061 0.010250751 0.12845355 0.13752098 -0.35298565 0.10962168 -0.41587424 -0.505386
1086 0.27482668 -0.39376923 -0.20697042 -0.07172664 0.3940761 0.21183927 0.1888467 0.09956251 -0.2772434 -0.3529999
365 0.4799573 0.08555521 0.064151734 0.10202714 0.09607424 0.21492095 -0.3048323 0.19640413 -0.33683786 -0.49532896
422 0.55658674 0.14124677 0.10813537 0.00045110722 0.017392231 0.18449955 -0.0042172233 0.014510039 -0.16669837 -0.6221803
21 0.3673186 -0.26517704 -0.0266709 -0.027828988 0.47737768 0.18176706 0.2626124 0.22529389 -0.08739295 -0.25401834
25 0.34361383 -0.3202374 -0.07977483 -0.0896025 0.5104332 0.12254478 0.09876608 0.2402193 -0.23823495 -0.23246174
340 0.36198238 0.016628694 0.12073256 0.15356028 0.11663677 0.3609657 -0.29273337 0.3259558 -0.3422291 -0.44161594
984 0.38813218 0.037894163 -0.0061244303 -0.040928952 -0.061118778 0.48058286 -0.1615948 0.38539726 -0.38429847 -0.44753435
825 0.35065666 -0.025542814 -0.1295937 -0.08781422 0.17110758 0.2303824 -0.25028795 0.11354099 -0.43676212 -0.5166232
1162 0.3960978 -0.17446226 -0.04228675 0.14102273 0.45063043 0.20663746 0.04836948 0.12042477 -0.20378393 -0.24258645
367 0.37645018 0.043913715 0.04295493 -0.076395325 0.23545189 0.19759738 -0.28961372 0.12973168 -0.44603798 -0.48823392
745 0.18176077 0.2327341 -0.06996044 -0.08963005 0.14534926 0.2810922 0.014163401 0.09832449 -0.2713799 -0.7818276
1204 0.4833149 0.06633825 0.10886445 -0.15842915 -0.0022151447 0.37764826 -0.1568143 0.19658391 -0.3085438 -0.5031239
528 0.39498395 -0.53643894 -0.055458885 -0.19652016 0.18663387 0.4505735 0.23967594 -0.084387355 -0.26421213 -0.33109564
369 0.3818442 0.00737036 0.044357 -0.03862291 0.035924714 0.30271426 -0.2574376 0.2867817 -0.44188032 -0.5166997
247 0.41014323 -0.24435927 -0.29295352 0.14610173 0.5961314 0.5708193 0.5701838 -0.3204513 -0.61384255 0.19904648
838 0.38566095 0.053171396 0.17474216 0.046554644 0.14343192 0.24700074 -0.15313639 0.27718216 -0.36080918 -0.48043737
565 0.36654297 -0.08432346 0.0729553 0.02170975 0.15300901 0.30484772 -0.34438115 0.12565555 -0.2660508 -0.55263066
1116 0.40321556 0.008589743 0.01271368 -0.038262814 0.06918072 0.3714225 -0.049473662 0.3322136 -0.32549292 -0.4120285
837 0.39582378 0.08757566 -0.009677091 0.059339643 0.06215365 0.0451216 -0.01295087 0.18967322 -0.14176498 -0.76870793
1196 0.2912115 -0.3142125 0.10128141 -0.0979043 0.43144995 0.4674445 0.07358191 0.20052978 -0.18004455 -0.19161011
157 0.5919854 0.041266378 0.09171919 0.0022059972 0.24850264 0.357287 -0.21210529 0.07056379 -0.1532012 -0.2458383
123 0.56142867 -0.45795178 0.15920621 -0.13303335 0.23570842 0.39502618 0.1967323 -0.16548209 -0.18069376 -0.2356948
839 0.41791925 0.033650577 0.044320345 -0.095829085 0.09972626 0.33411118 -0.17290035 0.13887575 -0.38887063 -0.47196132
201 0.46623045 -0.2726145 0.015619397 0.2984632 0.43969503 0.079951845 0.10785253 -0.037548732 -0.18583164 -0.28233343
991 0.46012017 -0.037629202 0.16163598 0.010519613 0.140589 0.44100296 -0.26212713 0.23091292 -0.24075909 -0.33917403
105 0.6496176 0.056937322 0.18402076 0.27691418 0.2693025 0.13340645 -0.079496 0.2517341 -0.1431277 -0.19995299
934 0.50833756 0.060425993 0.06667738 0.10170992 0.18799242 0.18067904 0.097753674 0.32156697 -0.22176778 -0.32309055
71 0.5091931 0.090301335 0.23955372 0.05806247 0.19640473 0.29718757 -0.21523833 0.2813465 -0.1948603 -0.3503875
983 0.3925743 -0.026457353 0.06722336 -0.19120187 0.099585444 0.35699543 -0.17945188 0.2205188 -0.27697608 -0.5085747
1161 0.3185383 -0.11579648 -0.15410951 0.07215432 0.5508078 0.28716373 -0.15745933 0.12547962 -0.11862388 -0.24722566
835 0.48409167 0.16046838 0.020291828 0.04377849 -0.046373367 0.132975 -0.06016335 0.18472913 -0.1568793 -0.72830033
987 0.37787855 0.023522824 0.0071491953 -0.0017808726 0.21136805 0.24404709 -0.40339813 -0.03429099 -0.40957332 -0.5564959
1141 0.42823723 0.056853723 0.06675144 -0.09232459 0.2272483 0.43857062 -0.21457975 0.32889962 -0.23485328 -0.26870432
547 0.48297462 0.071193784 -0.026348088 0.16333978 0.29352492 0.19938803 -0.11458353 0.15617546 -0.22110239 -0.32023457
213 0.514165 0.072364524 0.13403292 0.06534463 0.15555665 0.36834213 -0.12246917 0.2305089 -0.18829907 -0.31573537
1003 0.45001802 0.42143813 -0.26163992 -0.12712699 0.32385236 0.5022795 0.40961358 -0.24183089 -0.032455403 -0.3573742
355 0.5248605 -0.025366357 -0.092128105 -0.2774503 0.18374959 0.24525355 -0.2507476 0.44343215 -0.16797176 -0.31905645
795 0.50235957 -0.0894012 -0.0044851624 -0.027502835 0.05964276 0.24932604 -0.20851164 0.15319382 -0.37993845 -0.44343233
676 0.5072171 0.12343798 0.3248857 0.28263918 0.26005375 0.44446167 -0.14874564 0.091704234 -0.13715363 -0.25632715
1012 0.46020964 -0.0018928329 0.13850768 0.105700396 0.21612361 0.4139057 -0.30502447 0.16092584 -0.27464026 -0.29813948
647 0.50772417 -0.16124815 -0.2579313 0.2753095 0.2156704 0.073358886 0.26416597 0.32727477 0.0006384662 -0.3562843
1117 0.4679923 0.046184476 0.19431564 0.13372077 0.17409441 0.2509128 -0.31484333 0.13799965 -0.29665428 -0.45614776
98 0.57790375 -0.04647331 0.16253741 -0.0041084383 0.24494222 0.104056604 -0.09972433 0.3088132 -0.08916041 -0.36078057
1002 0.29910406 -0.07341848 -0.11940556 -0.2727762 0.19800031 0.24787419 0.14422286 -0.02799525 -0.015340396 -0.7373765
497 0.43965778 -0.06536592 0.03093352 0.11977994 0.49460974 0.14118019 0.11575263 0.2673319 -0.059917472 -0.21190564
119 0.4660124 -0.28975195 0.018774942 0.044469338 0.37694368 0.30049026 -0.0354942 0.072875954 -0.17574587 -0.20342211
722 0.39066327 0.047768623 0.13220075 0.051424444 0.23935981 0.3459191 -0.21537371 0.16192006 -0.16258277 -0.4502983
1001 0.55741644 0.5846553 -0.19739228 0.08383994 0.3201232 0.4089955 0.37566748 -0.3615851 -0.0723901 -0.35187706
631 0.36579633 0.12076786 0.044394087 -0.13324381 0.12962346 0.28783014 0.036974743 0.029907033 -0.10852811 -0.6766148
1011 0.4576308 -0.09353693 0.16675262 -0.077711664 0.3410072 0.28359187 -0.10076186 0.034545556 -0.113775544 -0.37372035
833 0.40710688 0.03950989 0.16537404 -0.0008524972 0.106470205 0.22818102 -0.20431598 0.28850114 -0.254281 -0.56050587
332 0.4323864 -0.21648023 -0.27634943 0.3585316 0.3632337 -0.034657896 0.082680136 0.20441644 -0.19721444 -0.3477998
801 0.40370622 -0.08218139 -0.07818935 -0.010606463 0.5291304 0.14360557 0.13296269 0.2261391 -0.11950954 -0.211237
543 0.48935294 0.005268952 0.3128346 0.032588348 0.30887055 0.14539512 -0.05023855 0.40686706 0.036635417 -0.39815727
366 0.49296814 -0.02325456 0.11576876 0.1263653 -0.02176996 0.3929618 -0.16487677 0.20643388 -0.288338 -0.44687387
1 0.3825598 -0.012332672 -0.13727954 -0.22741795 0.20256199 0.22167063 -0.17301275 0.49053589 -0.07249625 -0.48052
974 0.48419607 0.07508952 0.036484554 -0.06646104 0.132609 0.20607671 -0.21728992 0.039451532 -0.37555805 -0.5059293
187 0.6878189 0.0032298996 0.046315342 -0.071174845 -0.015960416 0.2674298 -0.20156382 0.2187399 -0.21435405 -0.35728753
97 0.50608253 -0.07438564 0.15161209 -0.18446074 0.28487813 0.09556676 -0.09409716 0.4393484 -0.10790648 -0.36246744
85 0.5373786 0.1331415 0.21348874 0.006199992 0.13555737 0.35883072 -0.16257627 0.07896959 -0.2746478 -0.3728468
126 0.5847624 -0.19027516 -0.112239026 0.1358314 0.21055935 0.066797666 0.11481483 0.15603136 -0.23352778 -0.29068536
1004 0.48855877 0.026501406 -0.057682417 -0.3018966 0.17831804 0.11676029 0.13768332 0.048034433 -0.058846973 -0.6091232
622 0.30489182 0.035871368 0.06837118 0.007946295 0.07031462 0.4819598 -0.039743003 0.22221364 -0.19389495 -0.53684163
1105 0.25562596 -0.13132113 0.096881345 -0.029935498 0.5287724 0.13296506 0.06414034 0.5077912 -0.01356003 -0.3430813
827 0.42210117 0.04394717 0.15533558 -0.010769385 0.13943855 0.4108198 -0.20764701 0.24500868 -0.19191562 -0.4297401
540 0.5243328 -0.020419069 0.16038482 -0.02878181 0.24779364 0.086700045 -0.046781216 0.31109568 -0.17242078 -0.38277674
737 0.41050506 0.03312734 0.02373769 -0.0737644 0.12542008 0.37986118 -0.11870886 0.4412223 -0.11055732 -0.40893295
929 0.33159593 -0.17731003 -0.29116338 0.22293095 0.34925038 0.172076 -0.0962627 0.33941656 0.012687082 -0.4154425
357 0.5419873 0.008361355 0.097920924 -0.17689519 0.14930017 0.3270695 -0.29097635 0.20009103 0.03920455 -0.48364213
840 0.48129267 0.0028943527 0.03564392 -0.077809274 0.23195514 0.1145964 -0.35506645 0.20345582 -0.23179336 -0.4971605
566 0.67546433 0.15440008 0.13013603 0.03939966 0.023203814 0.11217377 -0.112645075 0.23961583 -0.3421312 -0.38978142
773 0.5787042 0.19243214 0.2849418 0.09054558 0.19009638 0.29705316 -0.16785653 0.19501726 -0.1719688 -0.32696825
713 0.6072988 0.10832271 0.3124007 -0.013706055 0.2477766 0.25200254 -0.23777656 0.15511853 -0.15373488 -0.31413993
542 0.45824495 -0.015524043 0.12205143 0.16398749 0.1818183 0.16661961 -0.07661275 0.42706266 -0.016172096 -0.45837244
1009 0.31316906 -0.31665266 -0.069584295 -0.04717139 0.23654237 0.42845267 0.14929315 0.018363588 -0.06345418 -0.45271924
155 0.6289886 -0.0036140494 -0.11995746 0.08066343 0.15725674 0.1988213 -0.16366458 0.123291954 -0.16617458 -0.31632543
921 0.47058493 0.30882728 -0.44674665 0.2733296 0.6797649 0.49872428 0.104622476 -0.036867887 -0.09027036 0.09645357
715 0.60334724 -0.024534151 0.1267871 -0.11058055 0.18948936 0.22923607 -0.1801003 0.20131841 -0.27815497 -0.27887392
170 0.43326744 -0.12600017 0.18656701 0.14141077 0.4114036 -0.0312348 0.17079894 0.4667416 -0.084367506 -0.32798252
1208 0.3609457 0.37637764 -0.35036194 -0.08763351 0.7221962 0.51083416 0.298351 -0.071454726 -0.15321968 0.004925342
100 0.53587455 0.023280116 -0.05741995 -0.11535281 0.24700733 0.18412046 -0.14029583 0.3975384 -0.06502373 -0.3284044
655 0.45147702 -0.08801517 0.07914369 0.1822573 0.13987643 0.22426856 -0.17739373 0.45083332 -0.09196996 -0.424372
616 0.5282919 -0.01943927 0.0043450533 -0.019678127 0.039286233 0.2979472 -0.19256827 0.18155515 -0.192123 -0.4680271
796 0.5926505 0.10265288 0.211388 0.14094451 0.1652172 0.0985032 -0.23388422 0.2524105 -0.2851731 -0.38626632
621 0.39419666 -0.016271137 0.19585814 0.097235076 0.2353614 0.3480508 -0.1529839 0.14672956 -0.18211934 -0.42151168
1199 0.3047179 -0.18082419 0.15181863 0.0051963506 0.1557498 0.42039073 0.30270556 -0.1677067 -0.034965806 -0.6397305
988 0.5609639 -0.034631375 0.08214473 -0.019211136 0.1136589 0.2058385 -0.36913005 0.11387009 -0.30889288 -0.44787586
973 0.49140197 -0.0130967945 0.09049617 0.06853753 0.057816543 0.1860263 -0.049861245 0.11451769 -0.17969567 -0.5762022
299 0.532291 0.08668817 0.21066102 -0.11042396 0.20999812 0.30047444 -0.38163427 0.0744541 -0.27268964 -0.4078657
462 0.4612711 -0.08244581 0.07890542 -0.011180402 0.24964978 0.3296785 -0.15724097 0.32273322 -0.048987314 -0.3261875
815 0.37786692 -0.31509563 -0.27593985 0.17485505 0.18902248 0.037653476 0.0071217376 0.33234978 -0.14156492 -0.50664526
245 0.4819672 -0.21284227 -0.41713542 0.25951928 0.6807647 0.38743618 0.64129245 -0.33249086 -0.5391075 0.20868929
311 0.47769314 0.44560388 -0.606856 0.08083119 0.27819696 0.31135485 0.22919706 -0.33837995 -0.12375223 -0.46719703
1205 0.5319122 -0.06505135 0.16062042 -0.0045674127 0.03476368 0.17498653 -0.23176613 0.29919067 -0.3390129 -0.46947658
792 0.5275694 -0.017296256 0.23240867 0.03724714 0.29758474 0.15987842 -0.22935905 0.09752466 -0.17375986 -0.3947438
86 0.59274226 0.06464758 0.289934 -0.035319563 0.11814106 0.32826802 -0.12682953 0.2754088 -0.18721503 -0.30849543
444 0.44899553 -0.15979092 0.069161035 -0.10008998 0.28292322 0.28131142 -0.3888801 0.059236072 0.0114706 -0.5146293
1101 0.48682263 -0.22212556 -0.20388809 0.14237371 0.54930514 0.6022074 0.7274263 -0.35717902 -0.4653625 0.19076681
980 0.4942411 0.009723407 0.057210643 0.06315422 0.058853876 0.32778504 -0.26019657 0.22795099 -0.20776929 -0.46138975
990 0.41882688 0.070922315 0.07639596 -0.067610934 0.105652526 0.21230702 -0.10409264 0.34839565 -0.26887566 -0.5126477
892 0.5706176 -0.23406003 -0.13621275 -0.33101758 0.19866905 0.3095455 -0.24233355 0.37144482 0.03795302 -0.2978325
1030 0.42795706 -0.08467643 -0.018946301 -0.11436949 0.32563922 0.00085426215 0.06359907 0.13024914 0.032081626 -0.60652524
3 0.5292107 -0.09035242 0.06317283 -0.27806026 0.033911936 0.27005696 -0.15319817 0.47110358 0.047384497 -0.5152134
968 0.38708654 5.929752e-05 -0.05822631 0.00818737 0.3125865 0.33204088 -0.1243601 0.4020234 -0.17356212 -0.25590652
339 0.4889708 0.18344195 0.1536061 0.07714175 0.08928447 0.34789827 -0.11807777 0.31125164 -0.09167931 -0.44921306
310 0.27549288 0.47281626 -0.43954 -0.08444854 0.5099027 0.5976872 0.21544085 -0.42946684 -0.04398037 -0.41222018
654 0.51329684 0.006539994 0.0612979 0.15144932 0.28993988 0.13590203 -0.23389749 0.24824259 -0.025847327 -0.40541503
1166 0.43251666 -0.09551898 -0.06686232 0.0006623732 0.40829045 0.39302722 0.03061184 0.25938988 -0.03407997 -0.15591484
742 0.54046917 0.00072445185 0.13091461 0.0040415083 0.35014844 0.20094922 -0.22114927 0.08660894 -0.20175718 -0.28696975
288 0.54397345 0.0182187 0.31280702 -0.13096337 0.099754386 0.24916835 -0.05110297 0.19823223 -0.2945549 -0.42160904
842 0.70204496 0.09598014 0.12662499 -0.06207539 -0.024838606 0.10043358 -0.21213388 0.170679 -0.32679257 -0.46944696
970 0.22471555 0.10397117 0.10348861 0.07268743 0.2018875 0.4604063 -0.06514512 0.14598304 -0.27946723 -0.52732337
979 0.6479193 0.10391765 0.20458546 0.0248717 0.22633097 -0.009778469 -0.2641096 0.105223835 -0.19186255 -0.45501274
169 0.19545414 -0.044130586 0.1754788 0.050822373 0.57784855 -0.09766108 0.05189248 0.4319214 -0.10970602 -0.5321135
388 0.34256476 0.03620343 -0.1870464 -0.08056759 0.09998066 0.027153077 -0.12848586 0.25234425 -0.14345972 -0.7935374
832 0.63072747 -0.027785838 0.04716132 -0.10723438 -0.0033031218 0.20154479 -0.2784086 0.29375052 -0.32703596 -0.39943972
197 0.26838258 -0.43167526 -0.22622691 0.17520712 0.3575828 0.32819524 0.12977879 0.005203685 -0.16073208 -0.36316854
4 0.45669535 -0.045270514 0.07939077 -0.06127233 0.21456195 0.22445123 -0.26052237 0.33721557 -0.01941498 -0.4760595
324 0.5047929 -0.007357281 -0.13555309 -0.19317156 0.14071092 0.13191897 -0.18055247 0.32460508 -0.1069568 -0.5128674
699 0.44497225 -0.036869347 0.18352036 0.17262162 0.2613389 0.4368737 -0.153172 0.27270573 -0.058807954 -0.267444
725 0.3615524 0.10480733 0.05337648 -0.29414853 0.37510023 0.14977202 0.094555594 0.058295883 0.021915385 -0.60626256
601 0.50114596 -0.06843299 -0.1425874 0.0984168 0.38568583 0.16373366 0.07212997 0.22533275 -0.037263874 -0.23986815
656 0.530723 -0.028271925 0.1355116 -0.09368684 0.20551175 0.10072677 -0.13124512 0.42539084 -0.122233786 -0.4069361
1035 0.5029986 0.07534663 0.15031871 0.11116791 0.40460107 0.3060684 -0.3329878 0.049926527 -0.1176337 -0.27326974
356 0.4942164 0.075803086 0.08145271 -0.24544705 0.3325938 0.12746763 -0.101809464 0.2186247 0.015598961 -0.47598112
972 0.42725226 0.06462883 0.09479896 0.1400952 0.18847336 0.24317853 -0.23115584 0.2885113 -0.18797748 -0.45443863
1121 0.20535925 -0.14418055 0.079372756 -0.0034958988 0.6001896 -0.088150054 0.064008206 0.35027054 -0.09330591 -0.5128636
384 0.2869615 0.33047235 -0.41735566 0.18232007 0.67386585 0.6850307 0.23903857 -0.08277171 -0.09512525 -0.0021551792
1085 0.5598427 -0.038938634 -0.20588923 0.18877716 0.47476432 0.016698742 0.16813408 0.15589285 -0.014300251 -0.21278457
623 0.19169453 0.10475036 0.084914945 0.0926398 0.19298673 0.4941981 -0.18477197 0.3404576 -0.10636359 -0.56513566
472 0.209355 -0.071620174 0.039505217 0.2322969 0.5757978 -0.057355367 -0.014856341 0.33100414 -0.11141319 -0.4940206
864 0.4354564 -0.10949083 -0.14420742 -0.24746063 0.08233448 0.21891399 -0.12562387 0.45528117 -0.10769402 -0.51031804
902 0.6717941 -0.05323886 0.12584864 0.20042665 0.12677836 0.15440892 -0.25463784 0.08913656 -0.1973629 -0.34859732
978 0.41210398 0.017985765 0.16068162 -0.13274801 0.11185827 0.36562598 -0.19904299 0.25452298 -0.18060383 -0.5095113
1018 0.3542283 -0.27029192 -0.007787368 -0.06347146 0.37998548 0.35277164 -0.31603384 0.1001556 0.102718785 -0.459862
819 0.47018582 0.01552656 0.084276065 0.11717234 0.13523833 0.11685986 -0.15935643 0.20955203 -0.28864485 -0.5141925
1031 0.32586393 0.12251776 -0.08581856 0.060099337 0.24381249 0.1815854 0.17157792 0.07473768 0.034746 -0.66944385
398 0.47839504 -0.016219929 0.077683985 -0.0480299 0.051735822 0.318254 -0.019721514 0.23306996 -0.19367959 -0.46576244
818 0.36549073 -0.26711965 -0.20275132 0.37783122 0.20961045 -0.010920333 0.116475746 0.3407493 -0.06700611 -0.5348481
493 0.45200226 -0.2616046 -0.12842484 0.24560496 0.36246002 0.13121542 0.18550979 0.23469342 -0.020685682 -0.27971894
957 0.54158527 -0.09731481 -0.04051198 0.09685755 0.40272567 0.0823981 -0.31168485 0.07886322 -0.0739983 -0.34057614
1198 0.4444563 -0.0015266379 0.05304942 -0.09652163 0.23375966 0.25027657 0.2964875 -0.10807978 0.018788304 -0.56353784
399 0.6449617 0.025456091 0.033724815 -0.037116945 0.17292745 0.09481536 -0.259379 0.3094961 -0.14646295 -0.35147032
1010 0.38528395 -0.13204008 0.1590975 -0.14251554 0.26128954 0.38439968 0.27720815 0.09152642 -0.18386975 -0.34916016
196 0.5539954 -0.12853844 -0.05564118 0.11225332 0.18874077 0.21278465 -0.18303403 0.25892854 0.043056134 -0.38945717
445 0.4566104 -0.111195214 0.17207839 -0.13512619 0.27477354 0.21872595 -0.18488263 0.05255015 -0.12001538 -0.488422
466 0.33473855 0.0281915 0.15858778 0.1879044 0.24485078 0.48488835 0.105613336 0.33783716 -0.061043866 -0.3112263
977 0.51108086 0.040427346 -0.009855872 -0.12661171 0.033749755 0.27875477 -0.18253538 0.21782105 -0.24191433 -0.50184876
359 0.64312196 0.04455664 0.12852713 -0.014593237 0.31399736 0.23401003 -0.3258966 0.039601073 -0.082368605 -0.28001085
290 0.5978543 -0.074464194 -0.07083998 0.0066891974 0.2512008 0.22686447 -0.2264081 0.26827502 -0.21530278 -0.18837604
33 0.66433865 -0.092552304 0.062862165 0.07199151 0.36687607 0.06976171 -0.12255404 0.13668929 -0.109861165 -0.19676515
505 0.40346354 -0.20869745 0.031255182 0.046396654 0.42458284 0.36617592 -0.28472653 0.10072919 0.00519736 -0.29685354
442 0.43221086 -0.06790151 -0.06242791 -0.07335014 0.1088323 0.27484277 -0.2575812 0.30724058 -0.08853947 -0.5310482
298 0.5153581 -0.05005896 0.113676384 0.066100284 0.19475335 0.22388947 -0.07377861 0.24458507 -0.118917726 -0.3772943
823 0.58741367 0.32603222 -0.47042498 0.19042799 0.6389061 0.4907479 0.13068296 -0.24966179 -0.111055434 0.10495107
1188 0.44722462 -0.28152415 -0.25211895 0.216924 0.57886916 0.70645684 0.5457547 -0.6539405 -0.50204355 0.13505359
429 0.40828958 -0.017603356 -0.23987836 -0.059710346 0.19104014 0.06514459 0.1107519 0.32141486 0.06588001 -0.6119228
402 0.57094216 -0.012409431 0.010964005 0.097467914 0.22605902 0.26896062 -0.12594326 0.11043923 -0.11666946 -0.30344483
976 0.374969 0.029968249 0.04846864 -0.005698783 0.050025858 0.28771335 -0.22689044 0.41872805 -0.26786044 -0.5375554
788 0.42681774 -0.036805905 -0.050817054 0.25329092 0.29733104 0.089979924 0.032331802 0.27492732 -0.22341646 -0.35671285
694 0.4067822 -0.15986301 -0.056166284 0.40460965 0.37323502 0.28210422 0.096387535 0.12711203 0.007946711 -0.27701047
648 0.3815093 0.41783577 -0.58830285 0.29937685 0.5206067 0.6120873 0.13229606 0.07308081 -0.100308985 -0.005335965
822 0.45840806 -0.11338266 0.010528593 -0.03703172 0.25579718 0.46322465 -0.25797185 0.2139369 -0.14074157 -0.24235521
831 0.4617524 0.033859186 0.16716619 0.006101748 0.098286025 0.24050798 -0.20753504 0.21954863 -0.16488278 -0.5580879
548 0.2563654 -0.020325892 0.12889801 -0.0545325 0.57870984 -0.004827493 0.19703038 0.44368663 -0.035936963 -0.41152406
363 0.5427574 0.035162456 0.15447672 -0.17089769 0.10640501 0.25594673 -0.18747252 0.20696193 -0.24768296 -0.44315016
158 0.51235545 0.39059868 -0.7153453 0.05358399 0.6198669 0.44028205 0.08822261 -0.18104035 -0.24432482 0.029765742
985 0.5782277 0.08913612 0.045748416 -0.009812442 0.20637342 0.109547436 -0.32022095 0.28827748 -0.19243243 -0.38989088
204 0.4247733 -0.022849318 -0.023590723 -0.17432839 0.4066502 0.4311006 -0.3002862 0.1269776 0.041657813 -0.3087566
564 0.48784146 -0.10048018 0.15298949 -0.009279285 0.42131728 -0.16017684 0.14313363 0.2919121 -0.10335908 -0.430239
971 0.28961232 -0.031772826 0.27343026 0.015761977 0.34852085 0.35026723 -0.15440932 0.15540531 -0.2190197 -0.4383357
538 0.4380433 -0.11942009 0.0058007715 0.090623334 0.19611253 0.31322658 -0.3944201 0.2535863 -0.043226298 -0.45758107
39 0.47047055 0.022070765 0.09980557 -0.08461431 0.4681341 0.1830901 -0.07638704 0.12066872 -0.03260145 -0.31994978
418 0.33595675 -0.029413996 0.00095365744 -0.048827786 0.47676972 -0.15597351 0.08620204 0.5967319 -0.12506281 -0.42465642
989 0.4174879 0.04563352 0.10995445 0.02801945 0.012566587 0.24775274 -0.008678752 0.24630423 -0.26028284 -0.5934287
952 0.4527735 -0.013673013 0.077355415 0.09457365 0.2510737 0.20160386 0.055766344 0.04163855 -0.071424864 -0.48332578
982 0.42957276 -0.06891419 0.1855498 0.056646183 0.033094306 0.39881566 -0.08516482 0.21129188 -0.14958234 -0.5068444
257 0.52211946 -0.1570506 0.012300761 0.042919733 0.10870473 0.2637756 -0.33471832 0.3891528 -0.15441544 -0.37966314
214 0.41713253 0.41336575 -0.49100953 0.101841696 0.6983423 0.6403136 0.08538958 -0.06416916 -0.14559521 0.112533025
325 0.3541282 -0.20113191 -0.11646018 0.019199444 0.14413802 0.36894968 -0.191284 0.27784362 -0.019496037 -0.5129813
36 0.44100344 -0.08028605 -0.122714765 0.13596554 0.23691875 0.121599674 0.007688714 0.2352137 -0.15488592 -0.42257786
34 0.41878888 0.066821724 -0.08891604 0.063915536 0.30697063 0.22307602 -0.046508424 0.37831795 0.0021832949 -0.3648551
738 0.68304664 -0.050522 -0.07951806 -0.16489719 -0.030611314 0.18408601 -0.17313874 0.25564647 -0.20780069 -0.40884072
739 0.45059037 -0.058457885 0.05098886 0.095628574 0.22519484 0.24796225 -0.3917348 0.13662054 -0.04440401 -0.5198155
975 0.4249028 -0.06998717 0.07271209 -0.00030500366 0.15122734 0.2819431 -0.29151422 0.20707643 -0.23502955 -0.48948476
1056 0.42079246 -0.07254192 0.079783596 0.050857473 0.33453876 0.17979726 -0.4050473 0.26154447 -0.055217043 -0.45782694
351 0.36218894 0.49530172 -0.5088237 -0.042319275 0.5284796 0.4891486 0.23815367 -0.24735528 -0.018288337 -0.30713624
436 0.5256232 -0.17636079 0.060064867 0.0372873 0.17545977 0.2564741 -0.038614463 0.37744 0.033556797 -0.34728584
1176 0.51515764 -0.09655802 -0.06809014 -0.002761552 0.24671116 0.03975152 -0.13239032 0.1657327 -0.12013544 -0.47943258
1079 0.46059686 -0.06595448 -0.31219593 0.16889028 0.51001364 0.641793 0.49964774 -0.14790665 -0.52727294 0.23483537
364 0.44782147 -0.19264731 0.13984026 -0.05224631 0.23403367 0.20023635 -0.37397122 0.07530681 -0.2822864 -0.48322004
824 0.52463526 0.006044686 0.14057444 0.2129341 0.117495604 0.19233546 -0.23291545 0.1969958 -0.120940655 -0.49636558
830 0.499712 0.016597813 0.081378095 -0.04166806 0.1973355 0.2686411 -0.3934885 0.15204406 -0.17261682 -0.4560041
1180 0.74375916 0.075911805 0.13026537 -0.057605974 -0.017347919 0.11138744 -0.05600144 0.41263482 -0.22123389 -0.31756827
287 0.53600967 -0.09708107 -0.010077835 0.002124946 0.10480114 0.20558177 -0.2682139 0.11216931 -0.23271818 -0.47279835
37 0.42251027 0.08854432 0.03943941 0.14984778 0.40594625 0.16166028 -0.0196726 0.32187045 -0.09076725 -0.299998
35 0.17912443 -0.12343546 0.016142342 -0.07464385 0.5013377 0.2834667 -0.084681846 0.24333005 -0.13656421 -0.4225115
362 0.5228045 -0.039129276 -0.0846585 0.06977305 0.0683511 0.23928295 -0.3487505 0.42154098 -0.22207059 -0.384179
162 0.4874966 0.059189897 0.12898357 0.1438786 0.28634802 0.13325946 -0.06304986 0.12751712 -0.097503655 -0.44800603
241 0.4489615 -0.10130183 -0.04267565 0.15727735 0.2541113 0.1987016 -0.04600299 0.21675211 -0.101237185 -0.3888503
969 0.28710997 0.019393818 0.15911983 0.14992839 0.15209052 0.49314564 -0.09093795 0.31094328 -0.11817334 -0.46894014
320 0.41940004 -0.0014348583 -0.10720206 -0.024242373 0.22424394 0.26793522 -0.24416481 0.19070831 -0.16037554 -0.4511923
562 0.36558717 -0.22656354 -0.10307566 0.030913262 0.34413922 -0.0148721365 0.0014532602 0.31790996 -0.10525105 -0.49011984
230 0.5532725 -0.03554223 -0.032018982 0.12581421 0.11240407 0.17057541 -0.15507676 0.22295795 -0.0853191 -0.45516527
321 0.26309317 0.077347934 0.046618737 -0.055926852 0.24522369 0.21469323 0.12655011 -0.00055578665 0.03611161 -0.78031754
1019 0.37529624 -0.15181355 0.108429536 0.023786454 0.31501973 0.40997434 -0.3038889 0.21110937 0.12529266 -0.43605733
936 0.48749235 0.025658159 0.06766976 0.20777039 0.2538305 0.0006136224 0.1204828 -0.088385545 0.19058707 -0.720378
45 0.50855696 -0.07501849 -0.025101185 0.01827668 0.047529746 0.5161588 -0.34357676 0.1713663 -0.06528243 -0.39908388
464 0.7611275 -0.094517484 0.0071535106 0.1458203 0.19688068 0.034665454 -0.2122674 0.12020651 -0.06001732 -0.29690826
190 0.5497331 0.11319376 0.08754615 0.0023362765 0.13407132 0.10434823 0.002344814 0.45398965 -0.069900684 -0.43590364
260 0.4376206 0.044300325 0.2120672 -0.011293747 0.1424254 0.25207084 -0.13744901 0.4537356 -0.15716729 -0.45158264
836 0.5345841 0.05647163 0.1748066 -0.040701963 0.24181615 0.22286618 -0.2662138 0.26989055 -0.106570974 -0.38504323
1078 0.46505824 -0.07323088 0.055028375 0.19686256 0.49655315 0.06565173 0.13649823 0.2310415 -0.020276323 -0.25231844
447 0.24672557 0.06423427 -0.124255925 -0.0412545 0.106263794 0.27869064 0.17130862 0.15880357 -0.043489587 -0.7527534
536 0.47366294 0.00046888736 0.12783696 -0.12482122 0.21075284 0.27047658 -0.25396103 0.38843253 -0.08941703 -0.4046951
258 0.3488743 0.08949264 0.0035687156 0.06897256 0.17558773 0.2575877 -0.24815287 0.4778699 -0.050778642 -0.5366955
665 0.23264034 0.0773068 -0.11268248 0.12027138 0.33461756 0.20366906 0.13408963 0.20387878 0.023669109 -0.6101645
435 0.5861828 -0.050575033 0.057179525 0.27254662 0.28482282 0.11660315 -0.08691281 0.32778788 -0.025613375 -0.26258135
264 0.44512168 -0.12041863 -0.0765306 -0.15533029 0.19148663 0.2804865 -0.12848282 0.22219206 0.07205318 -0.51820403
563 0.47606355 -0.110310666 0.10878487 -0.13137235 0.44911572 -0.12741369 0.070277184 0.37635735 -0.122648425 -0.3762317
80 0.44655535 -0.18280846 0.10618923 -0.06873415 0.19882077 0.27921763 -0.27788746 0.30694208 -0.27169123 -0.35713926
753 0.3757174 -0.21154892 -0.17341758 -0.23879154 0.34153023 0.23933867 -0.14842191 0.2780481 -0.0049360646 -0.41934428
628 0.45310152 -0.014599627 0.04377098 0.082490206 0.23495738 0.09579001 0.08427785 0.4967144 -0.017473701 -0.4126221
1036 0.33455142 0.3978036 -0.528851 -0.03721821 0.625404 0.69270355 0.21530543 -0.12512141 -0.16454563 -0.007020959
189 0.3632492 -0.026726361 0.14615792 -0.019594908 0.33085293 0.2751025 -0.115863435 0.37157142 -0.048940368 -0.39756083
617 0.43214235 0.171886 0.05283927 -0.11510695 0.15811402 0.25731596 0.021208635 0.34244016 -0.13695452 -0.4678227
860 0.21605425 0.06279916 0.29194906 0.25923407 0.27982873 0.33255172 0.2241746 0.041484714 0.18743631 -0.7335344
9 0.36069188 -0.0033057893 -0.097799405 0.17148925 0.07969734 0.17508839 0.10333995 0.1075471 0.080702916 -0.7632197
107 0.34648526 -0.21979615 -0.26918283 -0.19604215 0.38007417 0.34730038 -0.37329412 0.16522132 0.019588757 -0.42001054
79 0.37555945 2.867886e-05 0.29132053 0.20519057 0.24522002 0.41873664 -0.27369237 0.20568165 0.030937968 -0.4770686
1181 0.43579194 -0.095836714 0.17967777 -0.07271667 0.43889466 -0.043949228 -0.027328826 0.26502812 -0.22949289 -0.38921955
550 0.27211034 -0.09266008 0.03321559 0.098805614 0.4405844 0.15077016 -0.1977121 0.17248456 -0.022003153 -0.53963053
510 0.4339842 -0.026383663 -0.036323562 0.0047603645 0.45196506 0.1703043 -0.121302925 0.054902587 0.025430888 -0.40479887
598 0.4779174 -0.15329956 -0.113462865 0.1003909 0.48412064 0.18727285 0.040831417 0.057868455 -0.07164069 -0.20991059
893 0.4382012 -0.13642375 0.18246748 -0.1646004 0.3163649 0.4306237 -0.2499537 0.24314447 0.025893701 -0.32194987
174 0.45098242 0.35685578 -0.77041215 -0.08964882 0.5329141 0.79606676 0.090705395 0.010154032 -0.06343803 0.112591125
273 0.55203587 0.047444873 0.087619 0.033561956 0.08143 0.25285578 -0.09196659 0.31898266 0.0046237884 -0.4645818
794 0.30023807 -0.010031433 0.066355556 -0.04841327 0.22794993 0.43247268 -0.21703516 0.29575112 -0.12159126 -0.45802835
1006 0.58694524 -0.08306837 0.10334411 0.19081701 0.10383749 0.101280354 -0.33291596 0.22008468 -0.20602643 -0.46069717
904 0.48423344 0.024890814 -0.17741923 -0.11158202 0.3070575 0.31741714 -0.076656185 0.2526866 0.097446606 -0.33660632
793 0.7674942 -0.00846003 0.06615268 0.11442729 0.0451439 0.0319819 -0.30524606 0.34004647 -0.08158226 -0.38043243
129 0.44638503 -0.18033482 -0.20461087 0.18402852 0.54043484 0.7686042 0.68628365 -0.3958956 -0.5255669 0.2397864
38 0.5134185 0.192793 -0.51076597 -0.0035461097 0.5232751 0.62598854 0.16700654 -0.069570735 -0.029774921 0.05417631
994 0.6401202 -0.018993853 0.013935021 0.076880105 0.09217965 0.07877001 -0.357217 0.27682054 -0.1117516 -0.46898493
668 0.5489837 -0.1353093 0.060579184 0.030132614 0.09462735 0.3635662 -0.31280643 0.19858328 -0.11786382 -0.38298914
434 0.44716746 -0.124328874 -0.2510554 0.060840685 0.35226834 0.08309167 -0.028439324 0.27824256 -0.10143367 -0.34001818
173 0.3765058 -0.08639113 -0.12670082 -0.4021109 0.37609124 0.15756649 -0.0050235908 0.0628682 -0.114833705 -0.50821114
584 0.49956715 -0.07625309 -0.06411935 0.010977201 0.24033801 0.33632705 -0.2891689 0.48166388 0.014435834 -0.25806347
137 0.47534296 0.11729098 0.102699265 0.059875675 0.17436835 0.28997302 0.047689017 0.07411015 0.1851081 -0.5970215
749 0.32774264 -0.113213785 -0.16268668 -0.043664835 0.46497306 0.34235796 -0.16848229 0.13495068 0.12757444 -0.39237663
259 0.41830677 0.56384706 -0.35124907 0.12383084 0.48456988 0.5182766 0.17700362 -0.3426496 0.17846921 -0.38818067
234 0.42137322 -0.19497208 0.10932152 -0.061725397 0.4233235 0.15806991 -0.28358224 0.16452298 -0.112749025 -0.37998584
859 0.38797346 0.119398944 -0.046095837 0.17826937 0.11844669 0.16793913 0.0622288 0.018598074 0.011166289 -0.73592794
446 0.5770679 -0.049491335 0.14164875 -0.0996778 0.31613764 0.18913367 -0.2900861 0.12517303 -0.10046335 -0.3328055
228 0.49493384 -0.011442622 0.028855346 -0.034860175 0.2064689 0.15380092 -0.069263496 0.46999672 -0.098299004 -0.37042254
996 0.55380404 0.17150915 0.07104282 0.07260389 0.20087174 0.12614436 -0.19238815 0.18656638 0.005709361 -0.51872385
890 0.40981618 0.06054394 -0.010633362 -0.011564341 0.15082404 0.18896341 0.15188216 0.14159925 0.049438808 -0.64472073
867 0.343079 0.09579011 -0.057030912 0.09022882 0.17769916 0.25729954 0.070973806 0.17111301 0.09898844 -0.66322166
537 0.4636657 0.032255996 0.23087212 -0.020075262 0.18741547 0.45398852 -0.24451584 0.24682696 -0.001347479 -0.39819625
62 0.40026963 0.102080435 0.06307857 -0.07688572 0.26465493 0.28945652 -0.12485286 0.2677482 -0.1580297 -0.41868198
138 0.4789837 0.198293 -0.027333848 -0.09665044 0.12357395 0.27950537 0.28062075 0.05856306 0.021464868 -0.5639848
227 0.5137689 -0.06380661 0.1405242 -0.16697982 0.25012502 0.14670107 -0.077498205 0.28017974 0.13223322 -0.5064165
132 0.5362755 -0.013358087 0.09321704 -0.059375565 0.25107396 0.11380704 -0.13514236 0.23251903 0.0908551 -0.50186074
232 0.59610736 -0.15586689 0.024487464 -0.060430557 0.1446284 0.33801305 -0.13513196 0.23411529 0.004107099 -0.3113495
539 0.59394515 0.0057050884 0.15035674 -0.035947602 0.15553075 0.11644664 -0.2045234 0.26633292 -0.13275877 -0.4349847
219 0.5003457 -0.120749325 -0.08474732 -0.060281992 0.1912469 0.23943928 -0.17913412 0.46399552 0.19240299 -0.43638176
352 0.42859796 -0.022699755 -0.16941068 -0.036862075 0.08074189 0.17048551 -0.2046862 0.34843203 -0.25812757 -0.5259774
1178 0.5113193 -0.11362414 0.05907119 -0.2465193 0.13675472 0.23834921 -0.1521487 0.21967013 -0.17055838 -0.46137357
889 0.57026255 0.054349557 0.19982593 0.047319505 0.2127507 0.12189576 -0.23743445 0.20083459 0.022244863 -0.50220793
940 0.41956332 -0.027329601 0.13668482 0.029935103 0.31090006 0.04334782 0.06589891 0.06762274 0.1380341 -0.6749213
1155 0.36185768 -0.0013131719 0.03714446 0.10902063 0.2860596 0.3809702 -0.20163713 0.37838516 -0.05831526 -0.34048972
1061 0.4362476 -0.06725485 0.15777269 0.21039239 0.394764 0.12712839 -0.011405088 0.2376052 0.045730237 -0.39167368
995 0.55049735 -0.068896234 0.14144519 0.118691474 0.23583667 0.1292872 -0.31953153 0.28950077 -0.12185992 -0.38206768
1042 0.5536587 -0.17551747 0.0808065 -0.036689546 0.17243887 0.18549593 -0.12044991 0.2948716 0.010436023 -0.4129406
868 0.4196851 -0.038343452 -0.1637423 -0.020589625 0.18508308 -0.015144931 0.069387436 -0.0026499717 0.112744294 -0.8161218
441 0.37477437 0.113607414 -0.064034246 0.2421666 0.098005615 0.33268997 0.029287193 0.106277846 0.1418137 -0.679509
1127 0.5341845 -0.12634909 0.117681414 -0.08694264 0.24999821 0.16816097 -0.35655776 0.35807747 -0.07325282 -0.3803494
32 0.3337945 -0.23020482 -0.18358319 -0.15966693 0.3285871 0.17738526 -0.12692429 0.327616 -0.094637245 -0.44264492
865 0.358338 -0.017509988 -0.010288165 0.090499215 0.3016136 0.2712985 -0.20239826 0.1036173 -0.08026457 -0.49985966
349 0.58817756 -0.118895926 0.09496804 -0.082747266 0.022969857 0.13736369 -0.23425399 0.2495885 -0.10472748 -0.55632144
1016 0.48056927 -0.18651737 0.005172736 -0.07305917 0.191358 0.296007 -0.2583482 0.16709301 -0.107692905 -0.41862628
188 0.41024122 0.3922717 -0.39528716 -0.023646263 0.5815168 0.5186604 0.20452198 -0.09452205 -0.09221302 -0.08979635
965 0.32564855 0.17817949 -0.071437 -0.015520529 0.078721374 0.14682017 0.23920487 -0.06279061 9.4005634e-05 -0.90026295
426 0.4830773 0.10522347 0.05608539 0.0644525 0.29615322 0.16048732 -0.010158864 -0.073771365 0.15269461 -0.6035422
243 0.379643 0.06682335 -0.08144234 0.06570454 0.13254066 0.14066954 0.16691062 -0.03862759 0.019033235 -0.77053005
1206 0.49534154 -0.024082938 0.012043395 0.14530756 0.50817025 -0.016298909 0.0621118 0.06533282 -0.009681657 -0.35387993
433 0.25513542 0.20931503 0.21471672 0.018150534 0.22554688 0.45550025 0.12632452 0.05453142 0.09461339 -0.6697601
862 0.47689456 0.06312295 0.0753112 -0.040548578 0.118661396 0.37409782 -0.1352275 0.27086887 0.028817993 -0.47557777
122 0.32761428 -0.28481796 -0.27335912 0.23286186 0.44410527 0.88143265 0.65240717 -0.45829633 -0.6059555 0.14293814
6 0.4185636 0.04191913 0.16884436 0.021227175 0.25446254 0.1437708 0.1205903 0.07175007 0.16888605 -0.663612
235 0.3754224 -0.21403469 0.0018714688 -0.083729565 0.24821894 0.26917204 -0.22759113 0.11292204 -0.029281063 -0.54677176
948 0.52381885 0.14708653 -0.07391908 0.009790418 0.19875124 -0.1198931 0.12002548 0.1186944 0.11410653 -0.735926
387 0.55561334 -0.09208771 -0.27361986 0.05266461 0.21288152 0.25095525 -0.15929462 0.16832733 -0.11060384 -0.288593
776 0.303179 0.10071773 -0.0038625177 0.16816568 0.2727954 0.03404759 0.1222263 0.12170048 0.13724986 -0.8033903
657 0.48461226 -0.090903595 0.03951209 0.04323548 0.4053464 0.0038115063 -0.041994907 0.26844612 0.03283931 -0.40638676
414 0.28045017 -0.236825 0.015664034 -0.26063868 0.2492868 0.61266446 -0.036178198 0.22471537 0.2157435 -0.47091815
941 0.2985827 0.119236164 0.09781675 0.17491782 0.3967835 0.059694957 0.00021012333 -0.041748993 0.14026022 -0.7667111
522 0.37665337 0.04817635 -0.18400647 0.22307554 0.12218828 0.020354275 0.11498349 0.22849329 0.09628379 -0.76330054
635 0.61524534 -0.1566054 0.07542572 -0.1207454 0.2899947 0.16196105 -0.43359438 0.13780421 0.043574728 -0.40741238
476 0.48862818 0.036053292 -0.0829601 0.021070462 0.31684512 0.37976435 -0.1087018 0.20002705 0.050463673 -0.2730019
73 0.3868167 0.045133073 -0.14523162 -0.073347166 0.38032174 0.27301198 -0.108312145 0.10928465 -0.10801674 -0.38100272
229 0.45681593 -0.059541624 0.04922977 -0.033710532 0.36797717 0.12529227 -0.17319849 0.30407706 -0.09209337 -0.35812905
416 0.4829048 -0.021521157 0.2260562 -0.28806686 0.44857702 0.14312816 -0.13342355 0.18679729 0.11529945 -0.4352233
309 0.38532898 0.057652954 -0.06877784 -0.114453375 0.15915242 0.26248008 0.21144 -0.2583516 0.019056192 -0.7580472
323 0.25744373 0.19201492 -0.09297137 0.021808567 0.31237262 0.14001258 0.008234867 0.08640381 -0.048649624 -0.7145207
192 0.2563379 -0.13706265 0.10283758 -0.3079183 0.3554207 0.30279773 -0.1890157 0.29989898 -0.0007492831 -0.5573091
1142 0.28463763 -0.0031200896 -0.096860595 -0.024051204 0.30395612 0.52946955 -0.067105316 0.29627633 -0.090709016 -0.31249723
660 0.41937968 0.040141936 0.06632439 0.036680724 0.26823997 0.13741824 0.1405617 0.1905038 -0.004925274 -0.5214063
759 0.47588095 -0.056826584 -0.16590618 -0.32583565 0.22947639 0.06490078 -0.2610408 0.17563279 -0.066276126 -0.60693675
644 0.5057546 0.20904557 0.07274714 0.16828659 0.34266403 0.2905884 -0.0052815843 0.09531864 -0.09239045 -0.2771401
432 0.42169082 0.18591867 -0.027248224 0.041341517 0.14297137 0.2619311 0.098061144 0.055016983 0.12929009 -0.67545867
1014 0.22573268 0.1689803 -0.0314347 0.19944194 0.33233362 0.08544396 0.1932536 0.12547189 0.072286874 -0.7568946
947 0.4551378 0.099310115 -0.082857065 -0.101628765 0.21161109 0.0695461 0.103239074 -0.026826298 0.068160184 -0.716041
5 0.42462978 0.07634317 -0.24970315 -0.2445991 0.07483418 0.20580152 0.1589238 -0.113105886 -0.006269825 -0.7702909
1202 0.4972951 0.006433152 0.06766894 0.088138066 0.15607059 0.212972 -0.25484395 0.37892476 -0.004013094 -0.47224575
1179 0.592501 -0.026014298 0.022329684 -0.19884925 0.23335746 0.093360715 -0.2663979 0.25675276 -0.059279818 -0.42946586
942 0.6463144 -0.027112635 0.036672514 -0.052739915 0.24498351 -0.056167766 0.045169856 0.16978961 0.22519787 -0.5475482
926 0.45383027 -0.14231305 -0.081575334 -0.371511 0.24767455 0.20353404 -0.021053262 0.25856116 0.041692548 -0.49193045
83 0.6174967 -0.074371226 -0.023514286 0.037921984 0.084514886 0.12839621 -0.316022 0.3190835 -0.20726833 -0.3938318
220 0.56203055 -0.1837546 0.10068903 0.09332883 0.1904901 0.41610682 -0.31954294 0.30173397 0.22385162 -0.33352086
225 0.32665178 -0.08505559 -0.22170827 -0.2389968 0.3537197 0.17272137 -0.12336795 0.18007587 0.050861575 -0.5828568
341 0.47965965 -0.13929346 -0.062967874 -0.1394771 0.16663273 0.34469736 -0.25472507 0.46940053 0.03902111 -0.3652411
726 0.2649357 0.27202752 -0.026532853 0.11671584 0.25350267 0.14481932 0.32314914 0.2916272 0.06116168 -0.6772088
386 0.4141171 0.023117209 -0.10299375 0.25192282 0.28154016 0.36777785 -0.042320307 0.0964803 -0.03616997 -0.3501246
924 0.46144912 0.12323351 0.043943815 -0.00890013 0.14054438 0.1288333 0.108509585 -0.052629694 0.023848573 -0.7310423
757 0.38780805 -0.13958916 -0.042801984 -0.30415547 0.22738147 0.3068508 -0.017591316 0.39718598 0.07522765 -0.46668434
306 0.5087064 -0.2360723 -0.07471593 -0.21920916 0.33645192 0.22428706 -0.24894011 0.15590593 0.15575466 -0.423583
1062 0.3590832 -0.069405004 -0.043554574 0.030498045 0.3533082 -0.005651837 -0.084574 0.4864459 0.011574691 -0.51170677
1065 0.35736778 -0.20397288 -0.044836294 -0.37616426 0.39683387 0.27833363 -0.29178208 0.3116702 0.054240547 -0.43508822
1049 0.46507788 -0.119292796 -0.12072634 -0.34760287 0.29133296 0.084956124 -0.07511889 0.20523846 -0.108834244 -0.47874743
1045 0.44488534 -0.037797373 0.08185297 -0.046112314 0.20835964 0.17076856 -0.13132298 0.29393816 -0.06512474 -0.5068787
265 0.4130124 -0.08776988 -0.105440974 0.02033242 0.12938984 0.29731336 -0.2761137 0.340941 0.04100907 -0.5412906
12 0.3602842 -0.21715426 -0.117102675 -0.10772293 0.2443154 0.14684881 -0.006444169 0.32655588 -0.07295989 -0.5094742
922 0.48814052 -0.12315995 -0.04614214 -0.13934506 0.06823804 0.3957863 -0.21643993 0.20228793 0.063360244 -0.516962
315 0.37816718 -0.20149133 -0.080702305 -0.077533886 0.24649133 0.2225363 -0.24623054 0.17034355 -0.07756864 -0.5341144
1129 0.45462266 -0.075246945 -0.10016837 -0.14962055 0.25494164 0.2083457 -0.2804591 0.27015534 -0.004422001 -0.47684014
829 0.366506 0.19465011 -0.015428156 0.04437067 0.31588754 0.12269889 -0.39527985 0.20541157 -0.36353904 -0.5005185
216 0.5560462 -0.060588453 0.22294015 -0.019340526 0.3073343 0.39899647 -0.37573674 0.16178443 0.059230376 -0.29342175
308 0.5615897 0.16566135 -0.021360794 -0.048714425 0.15079765 0.027596807 0.1707881 -0.28702652 -0.05193079 -0.73299634
326 0.51453197 -0.19068655 -0.055890165 0.050026946 0.08601747 0.24661131 -0.35261837 0.14975427 -0.12607934 -0.5095827
1167 0.4142421 -0.028158214 -0.6659598 0.35455817 0.76165354 0.55584574 0.39806116 -0.33062968 -0.43257275 0.22953258
925 0.2937068 -0.20095359 -0.07456263 -0.44237417 0.26572776 0.36228472 -0.18341115 0.3817126 0.14117332 -0.57502866
1087 0.53017503 -0.060367122 -0.107665405 -0.012797795 0.2278986 0.21251813 -0.34258685 0.11892437 -0.10094524 -0.41876236
266 0.61109275 -0.2064845 0.2453837 -0.18289016 0.26078132 0.32688814 -0.36997834 0.23951757 0.13284302 -0.32471797
1057 0.45306152 -0.14065996 0.012547015 0.10959376 0.2016462 0.090904504 -0.055933774 0.19412364 0.009469521 -0.5723463
754 0.38112438 -0.037055038 -0.098291546 -0.21888898 0.35012093 0.14220247 -0.10576449 0.2591728 0.039271686 -0.5250946
1041 0.48351458 -0.07359185 0.06335816 0.13394228 0.1952384 0.2404926 -0.16418463 0.3460052 0.101319104 -0.44902182
521 0.47619805 0.06003099 -0.029846687 0.31519023 0.23820892 0.042437594 0.074452385 -0.049553487 0.20164262 -0.6999521
927 0.5649551 0.40342766 -0.6858903 0.38848707 0.30840752 0.68949425 0.2319332 -0.30304396 -0.63392484 0.12030683
99 0.41961583 0.07488237 0.18439887 -0.08760921 0.43251526 0.13861233 0.04840318 0.50515735 0.07670469 -0.34289068
475 0.51474404 0.02303464 0.047239207 -0.013595441 0.23829101 0.38670877 -0.055765897 0.21911791 -0.0064558624 -0.2907886
523 0.33873022 0.039754093 0.027017111 -0.018240575 0.27581456 0.16033585 0.20921987 0.007653502 0.17714123 -0.73897743
1075 0.27848437 -0.067904636 -0.053719137 0.014667867 0.38477188 0.21968737 -0.2847102 0.25549403 0.048624527 -0.55669445
1071 0.5269505 -0.10054609 0.060334798 0.063532226 0.14521965 0.1534064 0.06919118 0.22210169 0.10958983 -0.52327037
1113 0.51169676 -0.07631229 -0.07317885 -0.093759544 0.10738928 0.14769837 -0.100670405 0.15123737 -0.12894358 -0.5478203
1027 0.4782911 -0.17120944 -0.033370458 -0.23089498 0.24806835 0.19485709 -0.017572176 0.05778704 -0.013335169 -0.50162923
515 0.51095825 0.05754569 0.1654301 -0.063056365 0.17251514 0.12873977 0.14898565 -0.079960495 0.20506562 -0.7399042
1072 0.4471587 -0.1269118 -0.1665042 0.14057027 0.15481514 0.19843468 -0.05003433 0.10290144 -0.05028316 -0.52931166
1068 0.31797248 -0.24497047 -0.090425245 -0.30350608 0.3266974 0.28883517 -0.10469473 0.20279479 0.09674628 -0.5469306
389 0.43909967 -0.13582294 -0.08546396 -0.21554416 0.31723422 0.12254987 -0.22942927 0.07452062 0.022898093 -0.5751078
755 0.35885614 -0.29209724 -0.05957025 -0.19598514 0.32817522 0.1728521 -0.14094369 0.16487005 0.12215972 -0.59209234
627 0.6114041 0.03772236 0.0646362 -0.034562692 0.15538155 0.12412033 -0.21585606 0.1897426 -0.118242145 -0.4419132
181 0.5519885 -0.14207734 -0.099063806 -0.002359763 0.29511294 0.0954377 -0.14570782 0.03250575 0.014403156 -0.45262405
1037 0.2947181 -0.13623153 -0.09493203 0.25353682 0.28921503 0.08455256 -0.078745045 0.18952112 0.013210337 -0.64089584
262 0.5276244 -0.11185452 0.13180616 -0.028000966 0.19408171 0.36872146 -0.24591014 0.19086625 -0.016718347 -0.37054294
1066 0.6062167 -0.12059687 0.20281717 -0.05635684 0.12131336 0.2306264 -0.21731761 0.22348772 -0.0043468913 -0.43779978
427 0.33713445 0.027427865 0.044046566 0.049375743 0.24186814 0.29564396 0.028592609 0.033433255 0.1251141 -0.6617459
1039 0.4834427 0.023323096 -0.10356212 -0.16964884 0.05168924 0.13415167 -0.106506355 0.3376767 -0.013744618 -0.64188564
928 0.40704498 0.692283 -0.33970526 0.27323604 0.6330786 0.6960715 0.1779742 -0.47199988 -0.5993991 0.036237888
217 0.33164656 0.041959256 -0.1033911 -0.04765184 0.2359366 0.11331821 0.037335858 0.10095677 0.14247255 -0.781144
1021 0.51381844 -0.08282333 0.12647788 0.022663638 0.23326184 0.25588396 -0.23652017 0.223614 -0.0032860169 -0.40907472
1043 0.31425396 -0.17691739 0.063988924 0.26324406 0.23827443 0.0427438 -0.10795959 0.20840661 -0.12610586 -0.65456414
1070 0.24801107 -0.034924395 -0.014115654 -0.19367109 0.4844162 0.22156881 -0.25969562 0.09696956 0.02431346 -0.5820197
226 0.32998046 -0.19231717 -0.003808544 -0.2614744 0.29131266 0.36073667 -0.10234469 0.24632272 0.13428313 -0.52670395
1020 0.4529433 -0.003577778 -0.0682019 0.20294455 0.23991147 0.19033779 -0.28737584 0.19312891 -0.007575837 -0.49575096
932 0.412003 0.5439822 -0.6279628 0.19952054 0.4424202 0.69212157 0.19231519 -0.1866333 -0.8284588 0.14216498
517 0.4040213 0.19872804 -0.031212578 -0.069298744 0.1955483 0.09875587 0.20171466 0.06986188 0.11322737 -0.7500849
1133 0.37838155 -0.0036984591 -0.07220365 -0.31454965 0.41652337 0.18847917 -0.116072625 0.19749561 0.06103237 -0.49349508
625 0.42696223 -0.0052578133 0.13178556 0.073797576 0.27761292 0.27774048 -0.16695105 0.50287604 -0.0344099 -0.32091808
946 0.35015383 0.103995726 0.047355745 0.049485765 0.26942638 0.18379532 0.040359117 0.18122268 0.17200737 -0.6701519
677 0.3933641 -0.07559866 0.07353592 0.09897264 0.2614138 0.60771 -0.05947635 0.3307273 0.06412824 -0.2077599
894 0.6046865 -0.025974784 0.05072734 0.011886686 0.29766297 0.2173968 -0.41496336 0.21136574 0.10026156 -0.3511222
297 0.42453587 -0.16804749 -0.047661494 0.1856199 0.25339064 0.13467154 -0.00800168 0.1622533 0.08532114 -0.5434222
156 0.37877142 -0.06463853 -0.19258758 -0.22572272 0.21535955 0.3473123 -0.044420253 0.2619071 -0.15036929 -0.4005444
514 0.3306182 0.1237212 -0.06509171 0.031160021 0.33344448 0.18553567 0.05694205 0.18800735 0.20950921 -0.6323853
519 0.3802381 0.04830919 -0.014517242 -0.018283097 0.16129924 0.017785966 0.084278375 0.22415401 0.019428289 -0.76032615
555 0.4464507 0.044058796 0.19832602 0.054343183 0.37600896 0.028618013 -0.0216748 0.17495297 -0.021677904 -0.504631
945 0.17237411 0.0109240655 0.15583389 -0.01766488 0.34123802 0.3485714 0.18382798 0.10299661 0.2722169 -0.7532113
212 0.28019214 0.011104302 -0.14645904 -0.19783458 0.24455598 0.47834048 -0.075174876 0.24759522 -0.1406232 -0.42148152
1073 0.5039383 -0.15185027 -0.19655201 -0.26867086 0.29854402 0.15853994 -0.27390605 0.22730768 0.060126 -0.4412879
516 0.32850456 0.08164298 -0.055896606 -0.12953685 0.23800924 0.1691174 0.11458155 0.11781166 0.122363634 -0.73118865
718 0.23212153 0.13224441 -0.13393739 0.02887169 0.3290159 0.12230963 -0.024933267 0.106582485 0.08334923 -0.7760534
1067 0.27491608 -0.05973317 -0.13108999 -0.40365312 0.37773606 0.0932765 0.052420292 0.4667677 -0.11580165 -0.4918677
425 0.29560584 0.18609487 0.057648584 0.09891436 0.21109898 0.14610791 0.315706 0.13846333 0.20772672 -0.81158215
1050 0.4973282 -0.14764337 -0.18741262 -0.38366774 0.32762107 0.11503692 -0.18115155 0.12445687 0.09997494 -0.52769774
301 0.49369332 -0.13713709 -0.09857097 -0.31242812 0.36199585 0.0703013 -0.19989671 0.031505115 0.015189742 -0.53014266
381 0.3161593 0.2500458 0.09245944 0.19902354 0.25017455 0.22123867 0.15632862 0.08324318 0.1962353 -0.7372676
268 0.45069265 0.09268365 0.18543082 -0.029245604 0.1727649 0.109391116 0.2575792 -0.042544544 0.20069756 -0.7877619
221 0.4870269 -0.13060977 0.052734565 0.08161058 0.223928 0.30667642 -0.28929815 0.066502415 0.016237522 -0.46300107
1074 0.34684962 0.06387109 -0.04226537 0.26719996 0.42642117 0.056612555 -0.10275987 0.13800141 0.10025173 -0.5791757
1052 0.38708708 -0.1880109 -0.1518725 -0.3732105 0.2961395 0.24436057 -0.107330516 0.3037809 0.034216102 -0.47576475
1183 0.4063296 0.11623503 0.030728318 0.051471535 0.23051879 0.25758395 0.17519692 0.08675353 0.23081516 -0.62662125
