23 10
14 -0.021014482 -0.14042816 0.13243961 -0.19757326 0.18920569 -0.023589706 0.6247382 0.5785024 -0.55462664 0.12223113
16 0.018886086 -0.096536554 0.026004236 -0.21822974 0.3051975 0.006093544 0.5788864 0.4755267 -0.63476366 0.057239544
10 0.13001205 -0.10390744 0.20245431 -0.30736962 0.30658373 0.008634628 0.5157814 0.5486224 -0.53529197 0.051077597
11 -0.077664465 -0.27417538 0.15601406 -0.3788352 0.22436531 0.06647132 0.6360066 0.44887713 -0.46645054 0.12447322
15 -0.098206185 -0.04979232 -0.05619137 -0.3429932 0.33954257 0.06383507 0.5284906 0.5606743 -0.45497593 0.3198773
21 -0.06848947 -0.10038447 0.054427434 -0.19348201 0.3350905 -0.019243572 0.6245665 0.4246681 -0.5981143 0.16335669
22 0.021775924 -0.13405676 0.022955421 -0.31256437 0.19460757 -0.039301798 0.5341666 0.5816506 -0.6076231 0.12687588
1 0.029789368 0.024620559 0.060526293 -0.4903203 0.36481956 0.15415603 0.61995435 0.38155243 -0.43926862 0.1990243
17 -0.016810426 -0.130417 0.14548351 -0.19289966 0.23607633 0.025022268 0.5955567 0.4957423 -0.5979474 0.17293614
19 0.15400526 -0.14520052 0.077079535 -0.31531146 0.4855347 0.17745145 0.47085854 0.4355095 -0.51287884 0.21612683
4 0.07086991 -0.14392632 0.11207283 -0.21893914 0.46446624 0.04891726 0.48533136 0.54801023 -0.5268831 0.06870795
9 0.0063242 -0.19685659 0.029181184 -0.24283662 0.41084132 0.18230058 0.5497632 0.5116003 -0.46978432 0.2064645
20 0.074024886 -0.1791616 0.15419191 -0.3665028 0.43067366 0.1470092 0.44711906 0.4997259 -0.47927332 0.2285928
3 0.14561997 -0.15355906 0.13132082 -0.38322377 0.36272874 0.10944826 0.5942387 0.49408126 -0.36551136 0.2487858
12 0.17798457 -0.2098194 0.010735194 -0.21633953 0.29780224 0.13276172 0.58167636 0.5140382 -0.5380521 0.11395567
23 0.10263624 -0.2089607 0.06845046 -0.19691281 0.24370673 0.08791595 0.5994123 0.5317745 -0.5266245 0.16677372
6 -0.014304941 -0.07204299 0.032629915 -0.3628522 0.4413517 0.15446302 0.6246387 0.40943554 -0.42984122 0.23104104
18 0.005982914 -0.257365 0.08066905 -0.27408072 0.35290512 0.00084872026 0.4938585 0.55689013 -0.5292091 0.105951525
2 -0.09444052 -0.11336227 0.16852222 -0.41714615 0.42351833 0.11544949 0.5654827 0.38699207 -0.45778328 0.22780669
5 0.04675707 -0.11079491 0.049276132 -0.3883788 0.31273133 0.096699744 0.5151601 0.47969502 -0.5555091 0.22634482
13 0.07092102 -0.13419536 -0.019488977 -0.31291217 0.369161 0.1638789 0.4769185 0.51645595 -0.546435 0.20900545
7 -0.010343995 -0.16309199 0.14159743 -0.21859057 0.41876626 0.044567183 0.49583155 0.55398524 -0.52965295 0.118199356
8 -0.20545575 -0.15941396 -0.008410934 -0.28279245 0.18684445 -0.15158223 0.61701864 0.52288145 -0.5770883 0.15252303
