23 10
14 0.119941466 -0.112774394 0.49834442 0.06446622 0.1669833 -0.08484412 0.6432406 0.477183 -0.41923296 -0.027177967
16 0.276779 -0.10124743 0.36916426 0.011234589 0.19228528 -0.0054215533 0.6475927 0.4803414 -0.49957436 -0.08299617
10 0.16150236 -0.05219754 0.4813299 0.005281464 0.29804045 -0.07240532 0.57825494 0.46107322 -0.46203575 -0.051986583
11 0.03633477 -0.11331523 0.4921046 -0.16194111 0.33630884 -0.00045409097 0.64336246 0.38695034 -0.36747563 -0.019549875
15 0.060751967 -0.06543149 0.31156772 -0.13928458 0.3190639 -0.01939628 0.6621741 0.5860562 -0.3423588 0.0708063
22 0.0910387 -0.11479847 0.3386767 -0.01879918 0.38361862 -0.059698388 0.66362697 0.44632798 -0.44019294 0.052038297
21 0.145841 -0.16504382 0.31860846 -0.11932656 0.25531146 0.050626706 0.60212946 0.58835423 -0.43572676 0.0879746
12 0.15728237 -0.067314856 0.38906 -0.16923662 0.37971747 0.019331355 0.61075515 0.44011694 -0.40697324 -0.093721755
1 0.071621254 -0.041943938 0.53067225 0.019884923 0.22652872 0.025830334 0.64900744 0.36579052 -0.48081782 0.05799139
20 0.100277305 -0.113884635 0.5723507 -0.038971025 0.47909975 0.0878147 0.5272718 0.3151377 -0.42209983 0.0847088
3 0.021424966 -0.07871148 0.5170139 -0.015730908 0.31863385 -0.025472289 0.60791564 0.433032 -0.4004343 -0.026922414
19 0.09647435 -0.16972415 0.51246834 0.000989693 0.4209797 0.0758096 0.56689084 0.3822333 -0.39606223 -0.04639774
4 0.054906912 -0.1667037 0.51836836 -0.16566458 0.3674319 0.0390007 0.57002294 0.39278874 -0.4017419 0.067583576
17 0.18525825 -0.10805918 0.40053686 -0.13699251 0.28139895 0.0126471035 0.69557357 0.50242096 -0.2856311 0.08339161
23 0.072583646 -0.17810014 0.2862232 -0.15436676 0.283148 0.068546705 0.727014 0.45386645 -0.40131548 0.07853604
6 0.11352156 -0.20963337 0.37227505 -0.02265725 0.28064418 0.09062021 0.66366655 0.46118605 -0.41546136 0.14803377
9 -0.042997897 -0.013226631 0.42667443 -0.059421685 0.3075532 -0.016794117 0.738752 0.3737394 -0.38939 0.006351593
18 0.066351116 -0.21789306 0.535578 -0.004445405 0.32802725 -0.040644843 0.6007228 0.42554253 -0.3588976 0.01582769
5 0.014181243 -0.093115844 0.5020449 -0.09981171 0.31936345 -0.0072672055 0.6704924 0.33008897 -0.41273457 -0.028335748
2 -0.04648075 -0.07024223 0.54625773 -0.1584669 0.35262707 0.07369236 0.60717565 0.26759923 -0.4954494 0.11924603
13 -0.0075979866 -0.16007094 0.33136696 -0.122161545 0.3773137 0.09783792 0.61580485 0.45847046 -0.4834977 0.1409493
7 0.016669068 -0.11016572 0.45245552 -0.08290445 0.3547203 -0.057848793 0.58791953 0.46948487 -0.42928287 -0.04027372
8 0.0021659625 -0.23824085 0.28883898 -0.118169375 0.3545803 -0.03485889 0.64043534 0.46403933 -0.49002343 0.118406035
